gene 1.172910 0.208198 -0.254778 -0.225897 -0.134105 0.100144 0.078867 -0.097721 0.119431 -0.333987 -0.620893 0.115489 -0.099559 -0.160712 0.167807 0.554610 -0.240091 -0.592578 0.367085 0.149823 -0.034703 -0.189354 0.252751 -0.171976 -0.007795 -1.144508 -0.308399 0.030044 -0.027704 -0.248314 -0.594419 -0.439735 -0.311783 0.177795 -0.142614 -0.466499 -0.065917 0.613609 0.011031 0.915602 -0.671878 -0.221374 0.728257 0.459428 -0.470585 -0.029001 -0.961575 0.227997 -0.743762 -0.050519 0.360392 -0.287686 0.621361 0.043647 -0.128957 0.143794 -0.193249 0.250336 0.060247 0.155198 -0.434717 -0.153328 0.803148 0.476226 0.130072 -0.169733 0.052602 0.541747 -0.122759 -0.539103 -0.108672 -0.475447 0.059456 -0.305427 -0.522114 0.420369 0.801259 -0.023865 0.336916 -0.153622 -0.259328 0.180418 0.573023 0.088857 0.330591 0.565283 0.247406 -0.283846 -0.229951 -0.093514 -0.877885 -0.803005 -0.020153 -0.919378 -1.017872 0.073990 0.055521 -0.043279 0.347277 0.183913
genex 0.638689 0.136209 -0.189775 -0.144097 -0.041503 0.128940 0.092369 -0.188008 0.211040 -0.288186 -0.349862 0.202968 0.115723 0.029477 0.198934 0.330208 -0.194723 -0.422153 0.109388 -0.019975 0.061334 -0.138809 0.287002 -0.108287 -0.053933 -0.800375 -0.112513 0.048231 -0.231638 -0.226371 -0.462604 -0.219937 -0.067416 0.296567 -0.028564 -0.292002 0.007213 0.513158 -0.013931 0.734830 -0.579720 -0.156820 0.489948 0.267112 -0.305995 0.065036 -0.697505 0.249499 -0.475962 -0.108725 0.265682 -0.108721 0.360794 -0.055845 -0.234921 -0.016600 -0.073271 0.368617 0.033396 0.197839 -0.271663 -0.259177 0.580820 0.378809 -0.005231 0.042500 0.095532 0.404178 -0.078425 -0.341975 -0.023918 -0.452066 0.029333 -0.104017 -0.337900 0.347721 0.581903 0.006276 0.173179 -0.323940 -0.259224 0.235589 0.483714 -0.017504 0.150068 0.406047 0.141433 -0.281825 -0.029445 -0.053776 -0.610789 -0.553042 0.021783 -0.590004 -0.626583 -0.024527 -0.010175 -0.026257 0.153534 0.204792
activ 0.557633 0.090530 -0.154697 -0.027783 -0.047733 0.091574 0.030385 -0.000614 0.086023 -0.174676 -0.325154 0.065173 -0.001540 -0.095925 0.076279 0.331370 -0.140005 -0.255727 0.243372 0.047573 0.020391 -0.110679 0.111592 -0.221827 0.026529 -0.540934 -0.162895 -0.027249 0.013994 -0.152134 -0.286226 -0.167953 -0.172763 0.095336 -0.017134 -0.303834 -0.125947 0.316476 0.025200 0.460584 -0.297380 -0.058252 0.344974 0.206039 -0.293998 -0.006815 -0.425405 0.092393 -0.377352 -0.045574 0.123423 -0.200372 0.272089 0.006949 -0.074171 -0.018436 -0.102332 0.154252 0.123356 0.159395 -0.257777 -0.084332 0.365248 0.254772 0.085808 -0.047185 0.021302 0.260479 -0.098496 -0.265254 -0.048625 -0.191291 0.001744 -0.106543 -0.187371 0.197565 0.387850 -0.062214 0.135203 -0.050734 -0.178791 0.195536 0.288375 0.033230 0.192852 0.188085 0.188953 -0.129825 -0.203382 -0.140843 -0.397833 -0.377863 0.040309 -0.471586 -0.550461 0.094316 0.023746 -0.096582 0.190807 0.078321
promot 0.590350 0.061686 -0.140033 -0.063386 -0.024662 0.080867 0.063320 -0.036815 0.091109 -0.213250 -0.356629 0.141849 0.017242 -0.054671 0.109750 0.365846 -0.187339 -0.323820 0.199926 0.032316 0.000112 -0.116337 0.154469 -0.128975 -0.035409 -0.567885 -0.151455 0.003629 -0.011201 -0.085258 -0.384590 -0.188755 -0.179493 0.166467 -0.004613 -0.244543 -0.061440 0.343483 -0.001416 0.526717 -0.369000 -0.076968 0.396976 0.225529 -0.281118 0.045454 -0.540296 0.149475 -0.380864 -0.054169 0.195593 -0.127962 0.283565 -0.030225 -0.157836 0.029898 -0.082594 0.194779 0.031930 0.156335 -0.238994 -0.138866 0.431186 0.251710 0.031796 -0.032864 0.093029 0.284088 -0.042167 -0.277171 -0.030781 -0.251509 0.042429 -0.081054 -0.228935 0.260298 0.443186 -0.038830 0.123092 -0.174114 -0.222349 0.167544 0.363437 -0.002293 0.169401 0.315692 0.171587 -0.163588 -0.134321 -0.056771 -0.450588 -0.417858 -0.042866 -0.490296 -0.598288 0.053598 -0.004760 -0.038679 0.208318 0.114503
express 0.589427 0.139062 -0.153941 -0.148766 -0.093508 0.070673 0.038489 -0.094427 0.086058 -0.168859 -0.305527 0.010384 -0.044918 -0.084648 0.080530 0.226679 -0.082467 -0.306405 0.167869 0.066143 0.018223 -0.089724 0.162825 -0.078407 -0.002059 -0.654504 -0.132090 0.021908 -0.089211 -0.206492 -0.269040 -0.246713 -0.094390 0.078329 -0.122123 -0.261312 -0.023244 0.349690 -0.014494 0.474250 -0.383806 -0.145686 0.386337 0.231329 -0.251678 -0.061456 -0.479694 0.121575 -0.408189 -0.035186 0.185214 -0.179300 0.335784 0.038901 -0.038447 0.065060 -0.095943 0.150301 0.058205 0.057965 -0.228320 -0.084904 0.445334 0.290807 0.070831 -0.098628 -0.008574 0.300816 -0.096907 -0.287211 -0.076635 -0.275600 0.006826 -0.183012 -0.302353 0.201906 0.429242 -0.001032 0.216028 -0.062931 -0.099333 0.110518 0.288888 0.074935 0.174888 0.292397 0.131855 -0.171537 -0.094710 -0.077317 -0.469645 -0.436706 0.059366 -0.497147 -0.496485 0.003859 0.052574 -0.035966 0.144923 0.108716
regul 0.647474 0.161367 -0.151794 -0.200849 -0.118027 0.075163 0.047494 -0.110842 0.089631 -0.195851 -0.333557 0.023043 -0.035654 -0.051151 0.117699 0.247128 -0.097395 -0.366242 0.155927 0.068999 -0.003710 -0.108110 0.200273 -0.034089 -0.008076 -0.756996 -0.152471 0.049135 -0.142500 -0.247560 -0.306262 -0.263654 -0.099145 0.111593 -0.138971 -0.279660 0.024847 0.394317 0.002906 0.555591 -0.481714 -0.191633 0.414384 0.278479 -0.260383 -0.058376 -0.562334 0.142253 -0.433735 -0.039961 0.233715 -0.165331 0.394436 0.041516 -0.061159 0.085175 -0.110332 0.198184 0.044342 0.056087 -0.241701 -0.103275 0.505377 0.331500 0.068425 -0.105568 -0.007943 0.346273 -0.112906 -0.311262 -0.072497 -0.334542 0.012784 -0.216148 -0.348018 0.234274 0.494426 0.024825 0.237549 -0.092366 -0.113723 0.106429 0.324492 0.072630 0.187171 0.326914 0.115404 -0.207052 -0.059774 -0.052330 -0.558394 -0.496367 0.049704 -0.546736 -0.521766 -0.009353 0.043293 -0.027357 0.146964 0.123834
bind 0.308275 0.020107 -0.068955 -0.059438 0.007818 0.038824 0.032414 -0.054134 0.067161 -0.129934 -0.191522 0.151981 0.071290 0.003710 0.056558 0.209955 -0.123511 -0.196445 0.070147 -0.006717 0.009645 -0.056855 0.124609 -0.028615 -0.056695 -0.292764 -0.052277 0.021669 -0.028611 0.001371 -0.260101 -0.091597 -0.084721 0.139808 0.013060 -0.091500 0.019838 0.184139 -0.019336 0.335868 -0.233916 -0.041605 0.231959 0.107018 -0.130155 0.071085 -0.333520 0.122391 -0.196192 -0.047853 0.136966 -0.012198 0.122948 -0.030008 -0.152713 0.024997 -0.041700 0.126633 -0.041347 0.097629 -0.112926 -0.140342 0.251819 0.132076 -0.013155 0.013538 0.105538 0.158106 0.018764 -0.137863 -0.017731 -0.173031 0.024550 -0.017749 -0.138875 0.165752 0.262285 -0.015267 0.052865 -0.175718 -0.152438 0.093814 0.245176 -0.025067 0.060252 0.229820 0.071218 -0.118289 -0.029314 0.019807 -0.240277 -0.233268 -0.078942 -0.245066 -0.330080 0.010038 -0.022040 0.019774 0.102913 0.072639
transcript 0.479950 0.092978 -0.093671 -0.128838 -0.070066 0.034103 0.035763 -0.070056 0.070208 -0.151159 -0.240992 0.036542 -0.054489 -0.040166 0.091268 0.192282 -0.097446 -0.269508 0.114004 0.050780 -0.016556 -0.089330 0.124045 -0.032463 0.008414 -0.524080 -0.129725 0.044738 -0.058314 -0.145313 -0.246944 -0.202032 -0.113399 0.084998 -0.077223 -0.198250 0.005338 0.271349 0.023837 0.401118 -0.320643 -0.110034 0.300169 0.214398 -0.192455 -0.019927 -0.415633 0.103203 -0.326521 -0.008047 0.172840 -0.103119 0.280988 0.030639 -0.050989 0.069418 -0.069937 0.145127 0.017032 0.049602 -0.185790 -0.064533 0.351306 0.212716 0.038283 -0.065536 -0.002235 0.238781 -0.051631 -0.226142 -0.046380 -0.239291 0.029460 -0.146408 -0.250535 0.169287 0.352927 0.014230 0.136799 -0.061500 -0.098971 0.067623 0.229390 0.054120 0.131220 0.236767 0.085042 -0.127965 -0.041755 -0.017034 -0.388004 -0.373758 -0.004214 -0.397186 -0.417951 0.013981 0.025335 -0.015269 0.125058 0.085061
repress 0.385932 0.054744 -0.074721 -0.057792 -0.034837 0.035323 0.033320 -0.014751 0.033410 -0.108746 -0.204927 0.028484 -0.053327 -0.048387 0.065074 0.185251 -0.093541 -0.191782 0.124694 0.048905 -0.018894 -0.063465 0.076655 -0.075544 -0.002626 -0.361133 -0.110713 0.008366 0.011376 -0.072260 -0.202915 -0.154985 -0.115733 0.057546 -0.039102 -0.156295 -0.034671 0.198132 0.022551 0.289353 -0.197276 -0.055769 0.233354 0.160521 -0.166753 -0.003202 -0.305498 0.066646 -0.243305 -0.005992 0.106796 -0.095779 0.197197 0.015029 -0.036987 0.046756 -0.055572 0.092279 0.027573 0.054854 -0.144337 -0.041425 0.243970 0.143968 0.033514 -0.048579 0.003304 0.159587 -0.033521 -0.167535 -0.024122 -0.142219 0.037256 -0.092481 -0.165031 0.130054 0.260379 -0.006755 0.084065 -0.044631 -0.093852 0.059926 0.172716 0.032547 0.112406 0.175673 0.093111 -0.085003 -0.068250 -0.026587 -0.284577 -0.265915 -0.012620 -0.309684 -0.348138 0.034741 0.013240 -0.022711 0.119052 0.064699
element 0.187657 0.007119 -0.038536 -0.032225 0.005547 0.026566 0.036334 -0.039070 0.043076 -0.081971 -0.128085 0.096595 0.031357 0.012059 0.043420 0.131339 -0.080614 -0.117905 0.042563 -0.006925 0.001710 -0.043452 0.080324 -0.027615 -0.042202 -0.170933 -0.034377 0.012696 -0.026615 -0.000590 -0.165171 -0.055160 -0.047108 0.096770 0.015656 -0.057509 0.000796 0.127269 -0.013755 0.198144 -0.146923 -0.020567 0.140742 0.062195 -0.082378 0.044086 -0.215839 0.081032 -0.116977 -0.036146 0.093882 -0.001020 0.084818 -0.032538 -0.101117 0.005119 -0.020507 0.090158 -0.027821 0.063299 -0.075211 -0.079185 0.174672 0.076737 -0.012623 -0.002917 0.072693 0.098437 0.006767 -0.086564 -0.001282 -0.111367 0.021934 0.003347 -0.088724 0.113966 0.161015 -0.010342 0.030976 -0.127336 -0.108847 0.061746 0.147934 -0.020808 0.044642 0.152142 0.046243 -0.062037 -0.015098 0.012243 -0.155512 -0.126355 -0.044566 -0.145007 -0.199329 -0.006185 -0.006449 0.012919 0.075972 0.050114
factor 0.187921 0.044057 -0.034622 -0.070435 -0.037833 0.025371 0.013071 -0.046256 0.042148 -0.064992 -0.096048 0.036009 0.004170 -0.002258 0.047489 0.070507 -0.031933 -0.112807 0.035722 0.017750 -0.000377 -0.038260 0.070737 0.006671 0.008467 -0.238295 -0.044655 0.009447 -0.060927 -0.071851 -0.108740 -0.072332 -0.013891 0.053306 -0.036073 -0.085088 0.017148 0.138279 0.002516 0.181724 -0.170192 -0.056049 0.127230 0.076920 -0.071079 -0.003978 -0.189941 0.055350 -0.127387 -0.014973 0.081026 -0.034951 0.122576 0.000355 -0.033715 0.024236 -0.033494 0.073599 0.017684 0.016510 -0.076523 -0.044527 0.149933 0.106497 0.009784 -0.021846 0.003176 0.115488 -0.027700 -0.106130 -0.011246 -0.117538 0.012374 -0.065783 -0.106270 0.082974 0.149989 0.000560 0.069885 -0.052525 -0.039501 0.027998 0.130470 0.002191 0.041235 0.106573 0.003890 -0.065963 -0.013167 0.003368 -0.174600 -0.147256 0.006028 -0.154330 -0.151164 -0.019418 0.003520 -0.000034 0.051831 0.047824
induc 0.225245 0.037598 -0.050131 -0.034675 -0.025600 0.029797 0.018192 -0.040433 0.045066 -0.066213 -0.122350 0.024884 -0.004507 -0.031008 0.024843 0.104836 -0.056526 -0.115290 0.067681 0.016199 0.007335 -0.031087 0.062719 -0.030149 -0.025052 -0.223770 -0.046985 0.009581 -0.008960 -0.043289 -0.124403 -0.087116 -0.052925 0.045003 -0.037923 -0.087630 -0.015743 0.136057 -0.010727 0.186315 -0.129886 -0.035552 0.155834 0.078069 -0.102342 0.006090 -0.190776 0.060175 -0.155608 -0.007039 0.079294 -0.043187 0.102751 0.001313 -0.048523 0.018658 -0.018877 0.058497 -0.000810 0.031452 -0.085727 -0.043464 0.167561 0.107412 0.014301 -0.024671 0.019222 0.111358 -0.008834 -0.114299 -0.024570 -0.096372 0.005839 -0.048081 -0.110541 0.076883 0.162526 -0.003193 0.054472 -0.049257 -0.056934 0.045844 0.127930 0.003786 0.059216 0.129089 0.047615 -0.074791 -0.040410 -0.024510 -0.166748 -0.174005 -0.001227 -0.181217 -0.200945 0.003248 0.016475 -0.001407 0.072081 0.034004
cgene 0.111083 0.018235 -0.041510 -0.020510 -0.000257 0.039056 0.034957 -0.054348 0.065948 -0.065478 -0.071907 0.059223 0.049995 0.028341 0.055361 0.061566 -0.051114 -0.087502 0.007136 -0.017011 0.027724 -0.033670 0.071895 -0.031816 -0.026839 -0.147896 -0.003608 0.005908 -0.071828 -0.044429 -0.106416 -0.024980 0.008075 0.095398 0.006307 -0.059298 -0.000075 0.120575 -0.025083 0.155447 -0.129301 -0.028819 0.092756 0.039637 -0.063807 0.039949 -0.148211 0.064362 -0.082879 -0.034185 0.061835 -0.004715 0.065984 -0.029499 -0.081857 -0.033722 -0.002474 0.101558 0.004221 0.048028 -0.050667 -0.068566 0.130627 0.075557 -0.007384 0.023954 0.037493 0.086357 -0.008064 -0.070228 0.002293 -0.113117 0.018093 0.008054 -0.060572 0.086176 0.123067 -0.003551 0.021129 -0.118245 -0.078897 0.069859 0.107493 -0.016460 0.018816 0.100106 0.037850 -0.068740 0.008954 -0.013513 -0.118788 -0.096343 -0.004589 -0.105555 -0.127645 -0.019827 -0.009697 0.000006 0.024273 0.052928
transactiv 0.127366 0.002214 -0.021874 0.002814 0.002213 0.004280 0.020557 0.006178 0.007848 -0.041186 -0.062684 0.015964 -0.027824 -0.006441 0.040820 0.069118 -0.038038 -0.062910 0.041519 0.012227 -0.017123 -0.020477 0.023953 -0.014884 -0.011716 -0.089750 -0.051573 0.000216 0.008308 -0.005428 -0.077764 -0.043882 -0.049946 0.032899 0.003512 -0.034713 -0.008569 0.061036 0.004861 0.088305 -0.056055 -0.017779 0.085116 0.055677 -0.056291 0.016427 -0.105812 0.032774 -0.067320 0.011211 0.023459 -0.024972 0.056077 0.000201 -0.020484 0.009834 0.000024 0.035314 -0.009228 0.033037 -0.037235 -0.013367 0.066529 0.027567 0.001107 0.005303 0.014162 0.057064 0.007712 -0.052542 0.008271 -0.038516 0.028949 -0.015531 -0.045796 0.058806 0.081807 0.003187 0.004687 -0.025646 -0.038737 0.015674 0.060973 0.000521 0.029925 0.064862 0.037476 -0.022821 -0.029616 -0.004526 -0.087716 -0.079282 -0.023623 -0.100033 -0.126199 0.019294 -0.014804 -0.014687 0.043498 0.037763
role 0.289116 0.080836 -0.073983 -0.099234 -0.053804 0.034566 0.019698 -0.057487 0.032162 -0.085172 -0.146400 -0.004002 -0.009302 -0.024440 0.042637 0.100068 -0.028236 -0.155490 0.066988 0.030479 0.008630 -0.046833 0.095515 -0.012823 -0.010605 -0.339080 -0.055504 0.021116 -0.074648 -0.120861 -0.130269 -0.112489 -0.030085 0.038308 -0.077593 -0.113205 0.016115 0.177591 -0.012613 0.237873 -0.218137 -0.096992 0.179731 0.111811 -0.103814 -0.035421 -0.244368 0.064191 -0.188973 -0.021118 0.098333 -0.071367 0.177823 0.030066 -0.018058 0.043554 -0.057296 0.081082 0.015387 0.022810 -0.098752 -0.047239 0.223356 0.148568 0.036241 -0.055942 -0.003937 0.151059 -0.061178 -0.128062 -0.045231 -0.143650 -0.006630 -0.094133 -0.161851 0.103001 0.222164 0.013078 0.115376 -0.031474 -0.044681 0.048221 0.130156 0.037554 0.088171 0.143592 0.057854 -0.099045 -0.027195 -0.019772 -0.240862 -0.213776 0.035272 -0.236929 -0.220262 -0.015285 0.023577 -0.012097 0.052508 0.056707
increas 0.204902 0.034803 -0.067458 -0.034339 -0.025338 0.022148 0.014359 -0.022689 0.019548 -0.049775 -0.110265 -0.001964 -0.029652 -0.049938 0.011377 0.082706 -0.017221 -0.083621 0.074183 0.029268 -0.000272 -0.031817 0.043140 -0.048902 0.005584 -0.205330 -0.036752 0.005467 -0.007211 -0.055460 -0.069537 -0.091144 -0.044992 0.004251 -0.040015 -0.079207 -0.030594 0.096861 -0.011981 0.138022 -0.104554 -0.038107 0.126858 0.070045 -0.083640 -0.022602 -0.138123 0.034849 -0.134902 -0.001353 0.045646 -0.074422 0.107850 0.013134 -0.006129 0.015286 -0.040606 0.031190 0.026546 0.021420 -0.076989 -0.016811 0.145584 0.079864 0.033787 -0.048477 -0.007994 0.081963 -0.025305 -0.098494 -0.017611 -0.081589 0.005094 -0.051378 -0.090047 0.067303 0.143859 -0.005565 0.076170 0.006113 -0.022038 0.038374 0.087213 0.040913 0.063243 0.090376 0.070066 -0.038236 -0.050704 -0.039008 -0.132552 -0.124961 0.008635 -0.178820 -0.182785 0.017768 0.023011 -0.016263 0.056496 0.032375
site -0.002054 -0.012184 -0.000720 0.006630 0.019316 0.013078 0.018931 -0.002603 0.005421 -0.020131 -0.004067 0.034342 0.018611 0.009986 0.020696 0.020855 -0.022060 -0.013890 -0.009416 -0.009510 0.011576 -0.002286 -0.001928 -0.002228 -0.020888 0.007658 0.014967 -0.002298 -0.002225 0.025460 -0.021075 0.026152 0.009369 0.030465 0.009635 0.014002 -0.007721 0.003541 -0.011990 0.006654 -0.004899 0.005494 0.005261 -0.005157 0.009898 0.027106 -0.025302 0.007869 0.015907 -0.016375 0.010886 0.014191 -0.010354 -0.030263 -0.034812 -0.009590 0.012871 0.014604 -0.007823 0.025562 -0.001445 -0.014971 0.007351 -0.011375 -0.011015 0.014999 0.033920 -0.000000 0.014047 0.000038 0.009460 -0.013663 0.010228 0.029292 0.000276 0.028530 0.008600 -0.001632 -0.015423 -0.058770 -0.033007 0.011778 0.020757 -0.028596 -0.023919 0.013590 -0.004905 -0.011230 0.008844 0.017009 0.009032 0.014090 -0.031421 0.008356 -0.006257 -0.011887 -0.016616 -0.005562 0.015953 0.011916
interact 0.115099 0.012548 -0.033352 -0.019607 -0.001617 0.016539 0.037409 -0.032606 0.028265 -0.065836 -0.064059 0.054855 -0.011501 0.000229 0.044485 0.065654 -0.049134 -0.084183 0.022300 0.008268 0.000940 -0.024731 0.027192 -0.001922 -0.019233 -0.130587 -0.024797 0.006766 -0.023135 -0.010788 -0.086972 -0.030598 -0.023103 0.056545 -0.005090 -0.039159 -0.006118 0.077225 -0.000215 0.114923 -0.090566 -0.023349 0.090029 0.055500 -0.038917 0.012092 -0.132981 0.044296 -0.072696 -0.019480 0.048583 -0.010262 0.064748 -0.020350 -0.039126 0.013680 -0.017026 0.049593 -0.005741 0.035497 -0.034676 -0.028805 0.110898 0.048013 -0.002747 -0.006600 0.029885 0.063311 -0.006493 -0.069935 0.008214 -0.077843 0.009533 -0.010406 -0.050917 0.073185 0.096571 0.015378 0.035347 -0.070449 -0.044084 0.018278 0.084147 -0.017098 0.017902 0.075695 0.008048 -0.029807 -0.010738 0.007010 -0.099188 -0.085045 -0.018246 -0.098515 -0.101387 -0.002594 -0.011249 -0.000401 0.048859 0.039660
inhibit 0.259453 0.053753 -0.059335 -0.044436 -0.041604 0.022225 0.007648 -0.008137 0.032352 -0.061754 -0.133580 0.007884 -0.035156 -0.052651 0.009341 0.108801 -0.043323 -0.114668 0.099295 0.037367 0.002141 -0.040012 0.047637 -0.052423 0.007407 -0.255735 -0.081480 0.003699 0.010322 -0.078221 -0.119883 -0.104511 -0.070591 0.013699 -0.041389 -0.121685 -0.032859 0.136545 0.008235 0.180990 -0.120286 -0.035083 0.154913 0.099002 -0.126935 -0.022100 -0.186808 0.040265 -0.177473 -0.000231 0.075236 -0.079536 0.140796 0.029185 -0.013660 0.022234 -0.040009 0.036542 0.027178 0.029829 -0.110004 -0.015436 0.177915 0.120135 0.044649 -0.045336 -0.005884 0.125339 -0.034169 -0.124807 -0.041338 -0.083004 0.003323 -0.071538 -0.124561 0.058676 0.164469 -0.011302 0.085274 0.005172 -0.047512 0.053859 0.114737 0.042310 0.089074 0.097265 0.056463 -0.060491 -0.072838 -0.042391 -0.194215 -0.189316 0.016525 -0.207133 -0.221849 0.024109 0.027318 -0.017544 0.084277 0.024921
gene/genex 0.117505 0.014345 -0.015296 -0.016687 -0.018144 0.013288 0.012714 -0.005810 0.010626 -0.029950 -0.062933 0.005071 0.004487 -0.010806 0.027893 0.061078 -0.034825 -0.072459 0.029892 0.003876 -0.011432 -0.016095 0.022955 -0.005088 -0.008029 -0.112605 -0.025307 0.004820 0.003625 -0.016905 -0.056356 -0.047506 -0.043191 0.030046 -0.003792 -0.045877 0.001731 0.066810 -0.003791 0.099420 -0.075637 -0.021388 0.073642 0.041997 -0.049888 0.005870 -0.101343 0.013425 -0.069084 -0.003268 0.036695 -0.029704 0.067416 -0.005548 -0.018271 0.025289 -0.013472 0.032493 -0.004305 0.014359 -0.047639 -0.020031 0.085172 0.045120 0.004251 -0.016490 0.007550 0.058715 -0.006603 -0.052496 -0.002088 -0.043684 0.015122 -0.028694 -0.038639 0.048218 0.081964 -0.008229 0.024255 -0.024501 -0.019753 0.008976 0.069367 -0.000537 0.027335 0.059131 0.024065 -0.024016 -0.016074 -0.007370 -0.086996 -0.081071 -0.010264 -0.089117 -0.099928 0.009106 0.002239 -0.000297 0.028657 0.014545
mgene 0.084983 0.035879 -0.036319 -0.025488 -0.020519 0.025569 0.022568 -0.031973 0.051155 -0.043432 -0.047394 0.025280 0.032189 0.008410 0.046476 0.037132 -0.027632 -0.070115 0.001422 -0.013688 0.029143 -0.020129 0.053890 -0.031374 -0.012781 -0.148284 -0.019851 0.007839 -0.057587 -0.066212 -0.064765 -0.034532 0.007851 0.049898 -0.001632 -0.056951 0.005497 0.096560 0.001273 0.132580 -0.102675 -0.035013 0.082635 0.047225 -0.054976 -0.002552 -0.109298 0.044922 -0.087444 -0.028781 0.042332 -0.029513 0.061811 -0.018979 -0.037277 -0.015422 -0.009139 0.079759 0.012739 0.038132 -0.043926 -0.046230 0.102500 0.070592 -0.005608 0.010874 0.009411 0.070757 -0.024473 -0.056993 -0.004785 -0.077902 0.001343 -0.025892 -0.057346 0.052334 0.093808 -0.000372 0.039397 -0.053773 -0.039170 0.038746 0.078220 -0.000950 0.019764 0.061831 0.021068 -0.053440 -0.000113 -0.028856 -0.106845 -0.100354 0.031989 -0.111731 -0.097678 -0.009841 0.011480 -0.017526 0.018653 0.037400
overexpress 0.195607 0.021225 -0.048268 -0.006852 -0.014433 0.019154 0.012116 0.009816 0.013764 -0.048899 -0.113658 0.018040 -0.013803 -0.042342 0.008846 0.118132 -0.038564 -0.084807 0.089547 0.028333 0.005982 -0.039412 0.026472 -0.076970 0.007471 -0.171259 -0.050560 -0.010429 0.016377 -0.044598 -0.090913 -0.065501 -0.066789 0.020053 -0.003550 -0.095118 -0.040412 0.098296 -0.000211 0.149537 -0.084367 -0.017929 0.105335 0.073124 -0.098250 -0.005562 -0.148488 0.024793 -0.131100 -0.011285 0.040282 -0.065498 0.096731 0.011417 -0.008772 0.002639 -0.040278 0.029798 0.032139 0.050957 -0.083574 -0.014596 0.121761 0.073073 0.038936 -0.020127 0.016570 0.081234 -0.023912 -0.083173 -0.016846 -0.060004 0.000990 -0.028864 -0.065604 0.054878 0.132198 -0.018071 0.049306 -0.012303 -0.055014 0.058312 0.097507 0.017927 0.068544 0.074977 0.070844 -0.041153 -0.074535 -0.038334 -0.129398 -0.126809 0.000030 -0.155615 -0.192446 0.034276 0.008933 -0.025913 0.070960 0.018899
level 0.088271 0.014835 -0.028384 -0.034623 -0.018765 -0.008829 0.008824 -0.022689 0.008983 -0.032601 -0.044285 0.001819 -0.013768 -0.014757 0.013124 0.016131 -0.009421 -0.044782 0.007249 0.013203 -0.002559 -0.013862 0.035222 0.010711 0.001852 -0.105278 -0.009527 0.012137 -0.022951 -0.019149 -0.034864 -0.048795 -0.009847 0.009908 -0.019268 -0.016586 0.005552 0.051301 -0.012854 0.064938 -0.072353 -0.025946 0.067501 0.035768 -0.026545 -0.016483 -0.074318 0.028318 -0.059240 0.003276 0.030114 -0.026954 0.051563 0.006404 -0.007379 0.019284 -0.020235 0.028358 -0.007568 -0.002361 -0.038185 -0.015456 0.072775 0.033905 0.003352 -0.027433 -0.003042 0.029004 -0.007671 -0.047590 -0.011996 -0.055220 0.012258 -0.034609 -0.055973 0.042251 0.068777 0.002491 0.049540 0.004046 -0.000125 -0.003783 0.043307 0.033501 0.026504 0.059527 0.021853 -0.020303 0.007980 0.009296 -0.066462 -0.065209 -0.002460 -0.089857 -0.087085 -0.000561 0.009483 0.004140 0.017449 0.021027
induct 0.133078 0.032341 -0.032644 -0.015661 -0.016960 0.011689 -0.005263 -0.007097 0.022359 -0.030920 -0.058121 -0.004848 -0.021112 -0.037556 0.023096 0.055651 -0.023493 -0.053625 0.056744 0.014812 0.001424 -0.019127 0.009367 -0.043912 0.021136 -0.129685 -0.029445 -0.003851 0.012294 -0.031454 -0.045282 -0.059883 -0.041742 0.000995 -0.018687 -0.061542 -0.020146 0.058303 0.013892 0.089272 -0.064826 -0.025751 0.067095 0.051839 -0.060915 -0.012865 -0.094280 0.015181 -0.090631 -0.005472 0.021013 -0.054346 0.075057 0.007004 -0.005547 0.011991 -0.023301 0.019616 0.021190 0.025250 -0.050632 -0.001230 0.076674 0.051702 0.021360 -0.022124 -0.007557 0.055590 -0.026707 -0.057006 -0.015786 -0.048290 0.007452 -0.032396 -0.048553 0.035218 0.079289 -0.005902 0.050654 0.007400 -0.021112 0.013471 0.052655 0.012666 0.032800 0.048642 0.032470 -0.021496 -0.041377 -0.032264 -0.093766 -0.085984 0.015255 -0.114527 -0.121446 0.021283 0.021277 -0.016230 0.035628 0.020075
suppress 0.184882 0.029939 -0.056865 -0.025824 -0.026454 0.016097 0.016889 -0.018017 0.026953 -0.075836 -0.111366 0.040298 0.002764 -0.016412 0.024087 0.111101 -0.052587 -0.103302 0.057828 0.015920 -0.000668 -0.037916 0.050996 -0.045611 0.007034 -0.195972 -0.046013 -0.004965 -0.006448 -0.037116 -0.102453 -0.050159 -0.062928 0.051185 -0.010422 -0.085146 -0.007536 0.101554 -0.005457 0.181791 -0.123444 -0.029083 0.114522 0.070339 -0.088955 0.012165 -0.164513 0.040752 -0.116968 -0.024468 0.050520 -0.048002 0.093083 0.005445 -0.048423 0.003557 -0.032431 0.050284 0.017792 0.044316 -0.073123 -0.042279 0.135882 0.091085 0.019482 -0.008278 0.018611 0.093911 -0.011987 -0.092875 -0.015101 -0.083529 -0.004883 -0.044630 -0.067100 0.078837 0.138114 -0.014501 0.049234 -0.031532 -0.062502 0.054378 0.102606 0.008216 0.063226 0.088414 0.053364 -0.056677 -0.052797 -0.034603 -0.133619 -0.136891 -0.006560 -0.164334 -0.192114 0.028456 0.003926 -0.017709 0.049508 0.032879
decreas 0.018324 0.028451 -0.006411 0.016072 0.007721 -0.007592 -0.023952 0.014292 -0.018388 0.018270 -0.004346 -0.028298 -0.021999 -0.024280 -0.013824 0.013958 0.008184 0.018467 0.033150 0.022012 -0.001736 0.010632 -0.036271 -0.037908 0.034109 0.024134 -0.036393 -0.030515 0.045350 0.014156 0.006052 0.001267 0.000645 -0.027708 0.001142 -0.020970 -0.037275 -0.018974 0.005434 -0.026609 0.042229 0.015467 0.015446 -0.010389 0.009664 -0.009634 0.034667 -0.039400 -0.016026 -0.001647 -0.031848 -0.034670 0.007082 0.011071 0.036330 -0.001787 -0.016722 -0.036371 0.027655 -0.008108 -0.007313 0.030495 -0.027362 0.010316 0.028403 -0.003547 -0.030855 -0.013546 -0.020316 -0.023541 -0.021062 0.030720 -0.014561 -0.022119 0.003497 -0.000282 -0.024894 -0.020740 0.005583 0.057529 0.018223 0.006608 -0.028401 -0.003814 0.012321 -0.027087 0.005374 0.028808 -0.034430 -0.023318 0.001194 0.003032 0.033911 0.027591 0.003530 0.011285 0.008667 -0.005678 -0.000955 -0.015495
pgene 0.115044 0.034503 -0.038031 -0.034163 0.003998 0.035976 0.022619 -0.050846 0.050090 -0.062249 -0.061189 0.058704 0.044158 0.014943 0.047392 0.061526 -0.044056 -0.097288 0.013740 -0.011956 0.028969 -0.025094 0.074435 -0.021216 -0.009575 -0.166590 -0.018651 0.012697 -0.075538 -0.055683 -0.099132 -0.035954 0.001379 0.071706 -0.004402 -0.057459 0.008867 0.120850 -0.003486 0.161783 -0.131174 -0.033683 0.106192 0.042472 -0.063746 0.014054 -0.147082 0.062379 -0.100099 -0.027366 0.059852 -0.013513 0.067430 -0.011994 -0.053360 -0.009632 -0.007400 0.089926 0.003141 0.050172 -0.054201 -0.067865 0.120637 0.092355 -0.008454 0.022228 0.020248 0.089527 -0.022761 -0.063519 -0.000951 -0.103661 -0.001666 -0.023088 -0.070718 0.070833 0.120844 0.001705 0.034736 -0.084875 -0.054256 0.059722 0.116482 -0.011362 0.023346 0.090671 0.018834 -0.063227 0.004393 -0.013370 -0.124250 -0.110581 0.009717 -0.108524 -0.119806 -0.020077 -0.010832 -0.005819 0.028996 0.048472
stimul 0.191714 0.029680 -0.055227 -0.033719 -0.016855 0.022381 0.024805 -0.016401 0.034569 -0.074252 -0.105774 0.039201 -0.015927 -0.011483 0.044722 0.096854 -0.055416 -0.104483 0.066404 0.030769 -0.005541 -0.042581 0.042842 -0.035148 0.002066 -0.206211 -0.062876 -0.003103 -0.005671 -0.043227 -0.114786 -0.060148 -0.050345 0.046793 -0.009295 -0.085482 -0.026268 0.117419 0.013756 0.168479 -0.127493 -0.031380 0.128340 0.086927 -0.083285 -0.002545 -0.180807 0.048300 -0.128564 -0.013401 0.065823 -0.051563 0.114431 -0.006423 -0.029594 0.016549 -0.042485 0.049039 0.018866 0.038250 -0.073644 -0.032363 0.146328 0.085280 0.018073 -0.019901 0.012443 0.101277 -0.027908 -0.098969 -0.011765 -0.098669 0.008389 -0.048947 -0.081004 0.090254 0.139527 -0.004759 0.058075 -0.042553 -0.055379 0.045761 0.110218 0.005831 0.052774 0.094761 0.030385 -0.043886 -0.043162 -0.022708 -0.166192 -0.141325 -0.005759 -0.166101 -0.178805 0.007527 -0.002935 -0.013476 0.061616 0.040090
requir 0.165488 0.042054 -0.034485 -0.061153 -0.031960 0.015575 0.007132 -0.026796 0.009467 -0.034368 -0.077885 -0.011889 -0.027076 -0.013868 0.025138 0.058064 -0.016363 -0.086720 0.034068 0.022435 -0.013045 -0.016362 0.044925 0.006741 -0.011060 -0.180761 -0.035442 0.021197 -0.041949 -0.049961 -0.054896 -0.074481 -0.018844 0.014164 -0.053282 -0.064374 0.019640 0.085473 -0.006320 0.118539 -0.115267 -0.061831 0.103838 0.068226 -0.055964 -0.015751 -0.141715 0.029475 -0.099564 -0.010630 0.060889 -0.036756 0.100744 0.016463 0.000060 0.026743 -0.035971 0.037239 0.000466 0.006739 -0.057345 -0.012028 0.128970 0.076438 0.026253 -0.039958 -0.006071 0.086148 -0.030833 -0.071140 -0.022923 -0.080168 0.001253 -0.062430 -0.089163 0.054785 0.118885 0.012599 0.073550 -0.016095 -0.019829 0.010387 0.062241 0.027285 0.049556 0.080013 0.021286 -0.045503 -0.013954 -0.005821 -0.141956 -0.110440 0.007721 -0.132470 -0.110090 -0.001363 0.021719 -0.004954 0.040801 0.023734
sequenc -0.037739 -0.008223 0.002516 -0.009951 0.026437 -0.005118 -0.007414 -0.030958 0.024627 -0.016392 0.012580 0.050331 0.062733 0.029635 0.007467 0.005424 -0.018121 -0.011241 -0.029140 -0.027496 0.014130 -0.002429 0.025593 0.023602 -0.021758 0.012667 0.024674 0.013153 -0.031121 0.031837 -0.030866 0.016182 0.015996 0.046018 0.021950 0.025292 0.021430 -0.005372 -0.010765 0.039682 -0.028199 0.004190 0.009467 -0.010383 0.014962 0.039437 -0.021963 0.018492 0.006352 -0.013232 0.015591 0.043091 -0.030685 -0.027123 -0.058243 -0.009235 0.012826 0.031416 -0.029627 0.023469 0.012325 -0.049840 0.007144 -0.004455 -0.023202 0.041814 0.036582 -0.004127 0.024594 0.011442 0.004190 -0.030922 -0.005101 0.031555 0.005363 0.017926 0.011383 0.004769 -0.022361 -0.058622 -0.029272 0.012544 0.027989 -0.029494 -0.032584 0.019974 -0.017186 -0.015226 0.038681 0.039193 0.016389 -0.013378 -0.029429 0.020946 -0.006409 -0.011892 -0.020818 0.011730 -0.012455 0.008777
enhanc 0.012327 0.010337 0.009956 -0.003588 -0.001708 -0.003681 -0.014125 -0.006205 0.002685 0.013495 0.016859 -0.009552 -0.012134 -0.000746 0.006276 -0.006644 0.014660 0.006284 0.006360 0.010724 -0.002722 -0.002326 -0.012808 -0.015140 0.029631 -0.007057 -0.012663 0.005737 0.013979 -0.019607 0.021546 -0.022817 -0.022038 -0.010896 -0.005761 -0.004998 -0.012844 0.019231 0.022057 -0.004127 0.015799 0.006367 -0.003717 0.002612 -0.001137 -0.008967 -0.001554 0.000805 -0.007471 0.017845 -0.001041 -0.013254 0.013097 0.000552 0.005085 -0.000774 0.003031 -0.004497 0.012023 -0.020937 -0.017835 0.011028 -0.015361 0.002589 0.009183 -0.018593 -0.018225 0.004085 -0.006207 0.001259 0.003018 -0.000189 0.003054 -0.027615 0.003045 0.000237 0.002795 -0.015054 0.001492 0.028105 0.004368 -0.025753 -0.011925 0.003836 0.005552 -0.024293 -0.007744 0.013072 -0.009473 0.004694 -0.002745 -0.014260 0.002062 -0.001279 0.006939 0.005340 0.012800 -0.000357 0.002105 -0.000209
involv 0.104944 0.039763 -0.022685 -0.052854 -0.032266 0.014975 0.006286 -0.033866 0.015584 -0.031527 -0.054873 -0.000433 -0.001501 0.008809 0.023263 0.028986 -0.007289 -0.072619 0.012423 0.017141 -0.006793 -0.022823 0.044188 0.019598 0.001466 -0.144421 -0.020266 0.013295 -0.045945 -0.057400 -0.050780 -0.042591 0.003350 0.028941 -0.040714 -0.044144 0.024056 0.072398 -0.001437 0.106532 -0.102015 -0.051911 0.065822 0.051419 -0.033183 -0.006932 -0.106351 0.025698 -0.071541 -0.009160 0.053023 -0.014488 0.078303 -0.000630 -0.010111 0.017255 -0.011671 0.038687 0.000459 -0.006586 -0.031425 -0.021366 0.092853 0.061282 0.007724 -0.018525 -0.005243 0.068896 -0.017112 -0.056479 -0.008367 -0.070720 0.001453 -0.047514 -0.069835 0.043308 0.088281 0.020196 0.051673 -0.027466 -0.015462 0.012727 0.060375 0.005089 0.024932 0.060686 -0.000333 -0.046633 0.003877 -0.003830 -0.114031 -0.095762 0.013276 -0.090024 -0.068517 -0.017265 0.002662 0.007468 0.012749 0.027940
mediat 0.213576 0.047859 -0.047149 -0.069077 -0.043946 0.019740 0.018713 -0.016560 0.013512 -0.052926 -0.116940 -0.002262 -0.023410 -0.018576 0.027160 0.081441 -0.023771 -0.116749 0.063875 0.033363 -0.006174 -0.029785 0.065171 -0.020557 -0.006632 -0.226228 -0.063360 0.009857 -0.021543 -0.070327 -0.094580 -0.090587 -0.043953 0.016039 -0.041076 -0.084233 0.000341 0.114487 0.001686 0.171669 -0.135835 -0.052840 0.128119 0.088376 -0.080920 -0.029316 -0.164817 0.033474 -0.136983 -0.005173 0.072938 -0.058217 0.116802 0.017407 -0.005003 0.037833 -0.035948 0.037702 0.013799 0.006069 -0.077273 -0.021520 0.151887 0.099501 0.020946 -0.045128 -0.003848 0.098384 -0.032217 -0.093990 -0.022550 -0.086351 -0.000445 -0.074383 -0.108776 0.071711 0.148594 0.011658 0.073681 -0.019569 -0.026528 0.019413 0.100057 0.023469 0.069493 0.107641 0.043447 -0.054994 -0.024503 -0.017570 -0.172335 -0.154157 0.015055 -0.172956 -0.167434 -0.002730 0.019114 -0.007478 0.054208 0.039135
cgenepromot -0.000565 -0.004084 0.001053 0.002311 -0.000375 -0.000740 0.010548 -0.008478 0.013827 0.001787 -0.006311 0.021951 0.021197 0.015383 0.006685 0.014022 -0.009291 -0.002475 -0.010462 -0.014753 -0.003724 -0.004387 0.015569 -0.009300 -0.015366 0.000751 -0.002972 0.000698 -0.011258 0.005317 -0.014076 0.000616 -0.005040 0.021495 0.015652 -0.007839 -0.000309 0.004461 -0.001126 0.011316 -0.018526 0.002818 0.000998 -0.004325 0.000169 0.013185 -0.009148 0.011768 -0.000077 -0.001921 0.015970 0.015228 -0.002644 -0.012538 -0.029554 -0.003813 0.001796 0.017536 -0.003343 0.007994 -0.002126 -0.019214 0.009080 0.007540 -0.008461 0.006128 0.013889 0.003713 0.002676 0.002121 0.006801 -0.006647 0.010652 0.012660 -0.000796 0.007643 0.008519 -0.008828 -0.004809 -0.024991 -0.028927 0.013241 0.017825 -0.010522 0.001030 0.013567 0.007915 -0.002927 0.006851 0.010829 -0.009826 0.009595 -0.008340 0.000486 -0.011980 -0.002447 -0.005363 0.014211 0.002966 0.007098
knockdown 0.051665 0.026815 -0.006732 -0.011411 0.008260 -0.005632 -0.014732 -0.001714 -0.016043 0.006734 -0.021862 -0.012224 -0.017631 -0.016134 0.001937 0.025351 -0.002739 -0.011967 0.025280 0.020470 -0.010988 0.007707 -0.013451 -0.007758 0.010067 -0.015259 -0.035313 -0.007286 0.028407 0.016749 -0.024287 -0.013691 -0.002411 -0.007293 -0.006337 -0.012732 -0.017680 0.003531 -0.000139 0.013769 -0.001590 -0.009963 0.040525 0.015237 0.004642 -0.005406 -0.020004 -0.013054 -0.019470 -0.004598 -0.002917 -0.023144 0.023165 0.001445 0.020584 0.017222 -0.019944 -0.016006 0.005238 -0.015918 -0.008467 0.016718 0.011041 0.019167 0.013708 -0.007301 -0.011131 0.009862 -0.011659 -0.031882 -0.015231 -0.003918 -0.002964 -0.026983 -0.024739 0.022590 0.013381 -0.007687 0.013402 0.019278 0.013010 -0.001425 0.000177 -0.004646 0.014262 0.016586 0.001465 0.009335 -0.014867 0.001923 -0.030175 -0.022429 0.006166 -0.000535 -0.014815 -0.001387 0.002022 0.005189 0.010713 -0.004065
region 0.037933 -0.014615 -0.004145 -0.007036 0.004245 -0.002768 0.006894 0.012160 -0.000769 -0.014381 -0.039262 0.036924 0.003223 -0.006436 -0.001875 0.041381 -0.027551 -0.024008 0.021265 0.001492 -0.007229 -0.003465 0.012142 0.005775 -0.010655 -0.026272 -0.010242 0.002985 0.018916 0.022883 -0.054194 -0.023016 -0.025097 0.013425 0.012826 0.004225 0.014431 0.014297 0.001560 0.028325 -0.020896 -0.005142 0.021618 0.016880 -0.021749 0.008529 -0.050553 0.021617 -0.013532 -0.000307 0.013076 0.006490 0.003961 -0.001579 -0.026822 0.017631 -0.014360 0.006809 -0.025167 0.020798 -0.006575 -0.023224 0.025532 0.008402 -0.015939 0.001303 0.024158 0.015896 0.017944 -0.008517 0.000261 -0.006052 0.014803 0.013064 -0.006841 0.011398 0.029080 -0.002791 -0.005271 -0.031656 -0.024258 0.013127 0.043475 -0.002949 0.008236 0.043334 0.016135 -0.020543 -0.004631 0.009221 -0.024509 -0.023243 -0.024822 -0.034571 -0.057052 0.005522 -0.013806 0.009460 0.024650 0.008477
complex 0.082644 0.005446 -0.004510 -0.019349 -0.017123 0.007436 0.000402 0.003057 -0.000951 -0.010035 -0.048548 -0.003940 0.000326 -0.015757 0.011453 0.043335 -0.017227 -0.043943 0.028779 0.010035 -0.015175 -0.002767 0.011378 -0.003810 -0.002856 -0.067835 -0.021135 0.002447 0.014773 -0.007156 -0.026435 -0.040322 -0.044085 0.009169 -0.005995 -0.032862 0.001578 0.040630 -0.002038 0.063277 -0.045039 -0.015926 0.046579 0.029895 -0.030201 -0.002987 -0.058726 0.005789 -0.047724 0.000630 0.024076 -0.018934 0.044247 0.001095 -0.007005 0.025717 -0.015073 0.001361 -0.000553 -0.007270 -0.025729 -0.009753 0.055609 0.027126 0.013383 -0.023618 -0.000806 0.038617 -0.002437 -0.036185 -0.005536 -0.016764 0.005243 -0.031773 -0.023467 0.028044 0.049789 -0.005528 0.015787 0.001386 -0.005061 -0.006831 0.043482 0.005836 0.019131 0.038278 0.012994 -0.011909 -0.024065 -0.004014 -0.057222 -0.051375 -0.013049 -0.054768 -0.067094 0.013824 0.004494 0.007591 0.023193 0.000670
igenepromot 0.036973 0.005021 -0.014982 0.017687 0.001670 0.007830 0.000428 0.022131 -0.001299 -0.010947 -0.019557 0.006158 0.007513 -0.021858 0.011556 0.035308 -0.014714 -0.006482 0.030176 0.010927 0.004714 -0.008257 -0.009413 -0.042865 0.001378 -0.019379 -0.004341 -0.010285 0.023955 -0.002267 -0.004774 0.012535 -0.020761 0.000610 0.001288 -0.019524 -0.031226 0.007311 0.001151 0.004707 0.003378 0.005637 0.004141 0.009079 -0.018243 0.009815 -0.008613 -0.012483 -0.000023 -0.004115 0.000650 -0.025225 0.012055 -0.006915 -0.009104 -0.020245 -0.000592 0.005258 0.024828 0.024681 -0.026495 0.012441 -0.000345 -0.000170 0.011118 0.000268 0.006932 0.004222 -0.008108 -0.008996 -0.003491 0.009619 0.002864 0.008441 -0.000980 0.013642 0.013831 -0.012413 0.002233 0.000266 -0.026053 0.020790 0.001679 -0.000258 0.009406 -0.021048 0.022959 -0.006217 -0.026782 -0.023898 -0.006325 0.001420 -0.012221 -0.022585 -0.035771 0.017587 0.001021 -0.029398 0.021881 0.002338
result -0.018941 -0.001672 0.008613 0.017975 -0.002623 -0.007957 -0.009986 0.033287 -0.011511 0.020162 0.011175 -0.013970 -0.010894 -0.014097 -0.022843 -0.003621 0.017320 0.031994 0.018671 0.012667 -0.002854 0.003281 -0.032287 -0.022102 0.018753 0.031276 -0.013722 -0.018871 0.027225 0.001279 0.016007 0.007372 -0.003306 -0.032304 0.006491 -0.013073 -0.019678 -0.015472 0.005724 -0.042305 0.054823 0.026200 -0.022679 -0.003877 -0.011701 -0.010432 0.039686 -0.032815 0.005315 0.007426 -0.020539 -0.011970 -0.014105 0.017963 0.022800 -0.010161 0.000983 -0.037071 0.008903 -0.003076 -0.002473 0.022290 -0.027393 -0.014948 0.019902 0.000344 -0.009857 -0.009707 -0.006652 0.008083 -0.007979 0.037768 0.000132 -0.000626 0.013668 -0.034678 -0.035815 -0.009471 -0.008751 0.034196 0.011680 -0.000494 -0.028083 0.015610 0.005627 -0.045472 0.004284 0.021035 -0.028792 -0.016504 0.020918 0.017820 0.016801 0.023362 0.013100 0.005999 0.013174 -0.012945 0.003120 -0.026875
control 0.101273 0.024263 -0.031765 -0.040321 -0.020740 0.009422 0.009111 -0.028524 0.019537 -0.039997 -0.045798 0.004807 -0.014468 -0.007495 0.014986 0.027723 -0.008893 -0.064583 0.019584 0.005046 0.006165 -0.017488 0.031898 -0.004911 0.009337 -0.126124 -0.014555 0.009360 -0.028326 -0.038333 -0.039951 -0.048196 -0.006767 0.013700 -0.026238 -0.045747 0.002507 0.061752 -0.004297 0.086284 -0.078650 -0.024986 0.064375 0.043701 -0.033188 -0.010653 -0.088853 0.016288 -0.079668 -0.004099 0.031908 -0.026769 0.064284 0.004045 0.003127 0.013044 -0.006014 0.031518 0.007032 0.011252 -0.039650 -0.008558 0.071863 0.047477 0.009667 -0.010418 -0.004309 0.066551 -0.011215 -0.051783 -0.016971 -0.053199 -0.009138 -0.028793 -0.061523 0.034804 0.081449 0.003388 0.034424 -0.016453 -0.024293 0.019869 0.052181 0.010613 0.024549 0.058887 0.010470 -0.037016 -0.003136 -0.001095 -0.080762 -0.087742 0.014840 -0.086220 -0.086412 -0.004979 0.000197 0.000514 0.025994 0.014318
mgenepromot 0.048626 0.002358 -0.008427 0.005124 0.008903 0.012299 0.011382 0.002475 0.008161 -0.016922 -0.024491 0.011449 0.000643 -0.007936 0.017925 0.036376 -0.016423 -0.017364 0.018339 -0.003727 0.002200 -0.013311 0.005656 -0.020229 -0.001985 -0.033116 -0.012271 -0.004665 0.007237 -0.009227 -0.025737 -0.006968 -0.015096 0.016620 0.004258 -0.023498 -0.015235 0.023108 0.012424 0.044033 -0.014835 -0.002253 0.026130 0.014065 -0.028902 0.009552 -0.040168 0.017483 -0.025658 0.000861 0.003253 -0.020272 0.012762 -0.003965 -0.014559 -0.004788 0.000897 0.008968 0.016158 0.029058 -0.015807 -0.008535 0.028312 0.012159 0.003872 0.004547 0.008216 0.022763 -0.007514 -0.019151 0.010031 -0.014633 0.009491 -0.000086 -0.006643 0.023193 0.035600 -0.006978 -0.004844 -0.008120 -0.026527 0.021919 0.026398 -0.005386 0.010670 0.006442 0.016495 -0.010910 -0.030763 -0.005207 -0.019221 -0.030802 -0.005754 -0.044204 -0.053640 0.018274 -0.004527 -0.016563 0.021772 0.007247
ngene 0.049504 0.011685 -0.018375 -0.020882 -0.000036 0.014286 0.011499 -0.034927 0.027226 -0.039571 -0.020186 0.032471 0.032625 0.026204 0.030005 0.024571 -0.022725 -0.042063 -0.012614 -0.019126 0.009887 -0.016528 0.052956 -0.008668 -0.013854 -0.080466 0.002346 0.007410 -0.056053 -0.033082 -0.054074 -0.010518 0.015387 0.046694 0.008325 -0.023756 0.005198 0.073460 -0.000764 0.081458 -0.069847 -0.014947 0.043810 0.019110 -0.025767 0.020949 -0.071405 0.040299 -0.033939 -0.021259 0.026846 0.006313 0.035346 -0.008247 -0.045331 -0.013271 -0.007054 0.070907 -0.005863 0.033552 -0.022937 -0.052033 0.056894 0.048794 -0.008907 0.032868 0.017740 0.044319 -0.010664 -0.022397 0.006589 -0.059262 -0.001328 0.012154 -0.032949 0.045272 0.062541 0.013921 0.010015 -0.063361 -0.033233 0.042590 0.051447 -0.006637 0.011229 0.042231 0.012165 -0.041266 0.013065 0.006645 -0.064172 -0.049769 0.002328 -0.055357 -0.048084 -0.017276 -0.015170 -0.006517 0.002896 0.036162
recruit -0.018614 -0.011002 0.008441 0.018655 0.017126 -0.008204 0.004695 0.008700 -0.009367 0.001827 -0.000403 0.004044 -0.007019 -0.003274 0.002040 0.001881 -0.004530 0.010216 0.004923 -0.000715 0.002943 0.001687 -0.016020 -0.006900 -0.003412 0.036225 0.004528 -0.015310 0.019242 0.010696 0.002607 0.016495 -0.009964 -0.003156 0.011265 0.010562 -0.018121 -0.014229 -0.002622 -0.021454 0.014261 0.020960 -0.017692 -0.010503 0.004066 0.010047 0.013021 -0.004800 0.019362 -0.001139 -0.012477 0.005354 -0.018652 -0.006998 -0.008089 0.000542 0.010934 -0.009919 -0.001013 0.005335 0.003231 0.004921 -0.017543 -0.011121 -0.003239 0.001277 0.007685 -0.004922 0.000675 0.015338 0.012452 0.017195 -0.000788 0.018771 0.022194 0.004562 -0.012853 -0.006896 -0.010437 -0.006315 -0.013297 -0.001634 -0.012522 -0.003008 -0.004210 -0.002728 0.000114 0.011142 -0.005424 -0.000357 0.020740 0.019427 0.000000 0.009727 0.011566 0.002870 0.003395 -0.000469 0.000610 -0.011897
agen -0.110188 -0.014796 0.025734 0.020781 0.016289 -0.012451 -0.007969 -0.012827 0.007390 0.023462 0.055877 -0.001982 0.031988 0.027780 -0.006573 -0.048722 0.009432 0.047879 -0.038478 -0.027200 0.018628 0.021030 -0.013438 0.018850 -0.007644 0.091909 0.035181 0.003765 -0.015776 0.011774 0.035447 0.047010 0.043986 0.007803 0.014097 0.045733 0.009466 -0.042422 -0.009549 -0.063598 0.041444 0.017873 -0.056704 -0.035873 0.045788 0.012384 0.068481 -0.000522 0.056896 -0.010417 -0.029770 0.035656 -0.059716 -0.013808 0.000881 -0.024238 0.027653 0.003864 -0.010600 0.000590 0.028263 -0.006300 -0.067008 -0.032396 -0.024756 0.040775 0.005360 -0.033515 0.021311 0.048989 0.006775 0.024906 -0.003146 0.031687 0.041126 -0.028739 -0.061190 0.003985 -0.042324 -0.014395 0.007030 0.001169 -0.043947 -0.019140 -0.043736 -0.050942 -0.023579 0.009795 0.037619 0.007303 0.066592 0.056587 0.002531 0.084736 0.095639 -0.010928 -0.009018 0.000876 -0.041855 -0.009826
protein -0.065545 -0.004643 0.021504 0.002708 0.001933 -0.017616 0.005082 0.024577 -0.028195 0.026597 0.034141 -0.022307 -0.012799 0.005871 -0.013817 -0.034596 0.023140 0.031104 -0.030298 0.001560 -0.002035 0.013402 -0.026127 0.009832 -0.001283 0.082564 0.000097 0.000368 0.022875 0.024023 0.051788 0.017441 0.001319 -0.030282 0.008476 0.036072 0.008834 -0.045218 0.004562 -0.068130 0.055631 0.013371 -0.051356 -0.020824 0.042675 -0.012437 0.061248 -0.026899 0.050315 0.006214 -0.017621 0.020864 -0.036520 0.000098 0.025141 0.008292 0.009958 -0.034178 -0.010248 -0.015512 0.037263 0.022442 -0.058159 -0.048493 -0.006677 -0.002582 -0.014641 -0.048171 0.000988 0.032635 -0.001338 0.049984 -0.006147 0.006081 0.029540 -0.041489 -0.066278 0.007084 -0.015683 0.029261 0.033594 -0.042200 -0.060155 -0.002048 -0.018811 -0.045565 -0.024054 0.021383 0.021511 0.008134 0.062515 0.043902 0.005277 0.060428 0.072573 -0.008848 -0.001585 0.008249 -0.015986 -0.021609
report -0.074214 -0.023784 0.015918 0.039532 0.005418 0.014342 -0.004418 0.042182 -0.019573 0.026988 0.031599 -0.012255 0.010234 -0.005177 -0.018094 -0.012964 0.014989 0.050211 0.005521 -0.015441 -0.002049 0.024137 -0.023654 -0.021520 -0.000843 0.090278 0.007622 -0.013366 0.028395 0.007755 0.043335 0.029540 0.008858 -0.028474 0.024209 0.008406 -0.026053 -0.055841 0.009774 -0.073115 0.060245 0.031122 -0.045686 -0.037379 0.008841 -0.006835 0.083890 -0.029452 0.040252 0.005760 -0.047521 -0.013767 -0.058224 0.010787 0.035930 -0.016863 0.004160 -0.017827 0.013811 0.006095 0.008157 0.023426 -0.074035 -0.037887 0.010887 0.001550 -0.020229 -0.043427 -0.006338 0.037519 0.004263 0.066100 -0.011944 0.015773 0.052847 -0.038299 -0.062547 -0.022523 -0.027988 0.047457 0.016241 0.009037 -0.056317 -0.001849 -0.011917 -0.077168 0.002749 0.026718 -0.020362 -0.020596 0.078072 0.063048 0.021772 0.064709 0.046062 0.026316 -0.006632 -0.036617 -0.001211 -0.022169
cooper 0.114809 0.022338 -0.028820 -0.016835 -0.011217 0.021938 -0.001124 -0.015622 0.030148 -0.042339 -0.065347 0.025569 0.007445 -0.013263 0.021603 0.061198 -0.036112 -0.058051 0.046394 0.006672 0.019670 -0.023140 0.029900 -0.046850 0.000946 -0.116662 -0.029814 -0.009629 -0.009412 -0.031741 -0.065693 -0.040257 -0.031047 0.032675 0.000816 -0.059190 -0.014727 0.075197 -0.000798 0.113174 -0.073078 -0.013058 0.070647 0.040512 -0.055953 0.001218 -0.102449 0.027007 -0.078160 -0.016352 0.027906 -0.043464 0.051721 -0.004446 -0.030920 -0.005121 -0.019068 0.040616 0.032073 0.038436 -0.057832 -0.030734 0.085644 0.058309 0.012353 -0.000518 0.012319 0.064396 -0.023793 -0.061139 -0.010553 -0.050867 -0.005221 -0.025844 -0.046538 0.047568 0.083482 -0.008679 0.027780 -0.024130 -0.039497 0.040593 0.070368 -0.000514 0.030942 0.040936 0.035299 -0.040225 -0.043496 -0.029959 -0.085243 -0.081047 0.010685 -0.107290 -0.110801 0.018029 0.008089 -0.013386 0.034849 0.020521
egen 0.069106 0.026937 -0.028955 -0.011132 0.002703 0.008076 0.011766 -0.024537 0.032859 -0.030310 -0.031650 0.025213 0.021660 0.000122 0.021269 0.039548 -0.024709 -0.050217 0.002910 -0.006706 0.006005 -0.014360 0.029590 -0.014185 -0.004022 -0.091562 -0.008583 -0.002190 -0.022436 -0.027987 -0.051192 -0.017276 -0.001675 0.041992 0.008196 -0.035882 -0.001919 0.052513 0.002928 0.087331 -0.068528 -0.021682 0.052690 0.030807 -0.027526 0.004393 -0.076797 0.023433 -0.048297 -0.014725 0.020269 -0.009957 0.042073 -0.005355 -0.020925 -0.004861 -0.001603 0.040522 0.005480 0.028258 -0.031733 -0.029669 0.061901 0.041233 -0.005563 0.016637 0.008605 0.050675 -0.012964 -0.040888 -0.003226 -0.058087 -0.005717 -0.012843 -0.029895 0.046137 0.069390 0.010386 0.014368 -0.042156 -0.029440 0.034271 0.057357 -0.011812 0.018299 0.040485 0.010363 -0.035628 -0.003486 -0.010872 -0.070570 -0.055296 0.016516 -0.061860 -0.061597 -0.002392 -0.000774 -0.001002 0.004611 0.028331
pgenegenex 0.081776 0.014436 -0.034089 -0.019107 0.006910 0.032738 0.018737 -0.048696 0.051670 -0.049622 -0.049152 0.050035 0.036757 0.023040 0.036659 0.052812 -0.035815 -0.064830 0.007148 -0.023386 0.013015 -0.017709 0.056879 -0.022723 -0.014750 -0.127064 -0.005589 0.013781 -0.057660 -0.040076 -0.088064 -0.028664 0.008178 0.071130 0.004454 -0.036866 0.002565 0.096440 -0.008723 0.133181 -0.110728 -0.016700 0.081504 0.036254 -0.044036 0.024371 -0.121839 0.051676 -0.074581 -0.024726 0.048539 -0.007025 0.055989 -0.016138 -0.062779 -0.019611 -0.006229 0.084510 0.008287 0.043328 -0.040388 -0.067552 0.099288 0.070955 -0.017810 0.022041 0.021092 0.064102 -0.016461 -0.055014 -0.000522 -0.085481 0.002203 -0.000867 -0.053331 0.066147 0.096433 0.000713 0.019212 -0.076841 -0.057867 0.048226 0.086110 -0.008280 0.019716 0.067821 0.019231 -0.052665 0.011377 -0.008036 -0.104358 -0.093635 0.011676 -0.084851 -0.094019 -0.017731 -0.004893 0.003660 0.017143 0.043363
play 0.030098 0.020283 -0.001400 -0.016393 -0.013434 -0.002733 -0.004611 -0.012618 -0.007703 0.010037 -0.009815 -0.021293 -0.025875 -0.020621 -0.003972 -0.010808 0.012985 -0.011714 0.011033 0.019176 -0.002431 0.001121 0.000063 0.013144 -0.000675 -0.025378 -0.000258 0.002153 -0.005157 -0.020420 0.008236 -0.021280 0.003674 -0.020655 -0.030711 0.000830 0.012319 0.003987 -0.003091 -0.006906 -0.013741 -0.018953 0.014346 0.008335 -0.001158 -0.020705 -0.013363 -0.000474 -0.020070 0.007870 -0.000097 -0.007260 0.027056 0.018435 0.019852 0.009173 -0.004390 -0.011884 -0.007922 -0.023215 -0.004831 0.018761 0.024405 0.001491 0.008255 -0.017062 -0.006840 0.001254 -0.005294 -0.014258 -0.012674 -0.002629 0.005607 -0.021630 -0.030344 -0.008174 0.009073 0.007542 0.022465 0.020070 0.021669 -0.020566 -0.005904 0.013363 0.004270 0.005641 -0.000743 -0.010932 0.000027 0.001722 -0.006798 -0.013888 0.008592 -0.013730 0.013560 -0.005045 0.012842 0.001203 -0.008237 -0.002179
lead 0.077765 0.021541 -0.021149 -0.011903 -0.010750 0.012353 -0.004079 0.006511 0.013768 -0.021161 -0.033389 -0.010488 -0.011651 -0.011412 0.012806 0.038872 -0.012033 -0.032514 0.032975 0.013304 0.002707 -0.014786 0.015366 -0.032533 0.017833 -0.086439 -0.020067 -0.009548 0.006278 -0.023892 -0.020850 -0.031459 -0.023409 0.003358 -0.009988 -0.037501 -0.018476 0.043977 0.018491 0.059475 -0.032437 -0.015497 0.041123 0.031863 -0.046351 -0.009910 -0.057927 0.006262 -0.057885 -0.004871 0.017415 -0.039309 0.043254 0.008383 -0.002244 0.001548 -0.009596 0.015731 0.020789 0.018863 -0.031901 -0.004616 0.053190 0.033871 0.014593 -0.015655 -0.011974 0.029619 -0.020784 -0.026789 -0.006092 -0.023400 0.004434 -0.014971 -0.032158 0.017494 0.046547 -0.009994 0.023670 0.002352 -0.012739 0.016567 0.024574 0.008330 0.027464 0.030103 0.015677 -0.014152 -0.017597 -0.021772 -0.062293 -0.048869 0.009758 -0.070578 -0.074933 0.009105 0.018809 -0.012270 0.018768 0.011685
ggene -0.025262 -0.008595 0.001074 -0.001850 0.003384 -0.000654 0.001685 0.005199 0.006562 -0.006757 0.005237 0.007013 0.012139 0.012338 0.002440 0.002331 0.004154 0.001285 -0.014886 -0.008224 0.004654 0.004223 -0.000897 0.000705 0.000299 0.012771 0.009992 0.002634 -0.014202 0.006538 -0.000323 0.011483 0.009365 0.008292 0.013435 0.001874 0.006840 -0.010937 0.002420 -0.004357 0.002127 0.011404 -0.009373 -0.003269 0.008073 0.007140 0.014793 -0.006671 0.005579 -0.000735 -0.001476 0.014819 -0.006910 -0.006085 -0.005800 -0.011147 0.019237 0.014831 -0.009289 0.005786 0.003258 0.001664 -0.009123 -0.004261 -0.005503 0.011709 0.005957 0.001532 0.008700 0.006999 -0.001143 0.003701 -0.001708 0.018884 0.007549 -0.005270 -0.003855 0.005443 -0.011915 -0.009771 -0.004629 0.002431 -0.003267 -0.000819 -0.006395 -0.013014 0.000515 -0.002433 0.009696 0.008386 0.009458 0.003733 0.000913 0.019323 0.017777 -0.000735 -0.008072 -0.001265 -0.008082 -0.005917
associ 0.038245 -0.000673 -0.004464 -0.000208 0.005092 -0.002102 0.002109 0.008001 -0.003559 -0.015083 -0.023024 0.006938 -0.001056 -0.008895 0.009498 0.042649 -0.021793 -0.021260 0.017880 0.010357 -0.007415 -0.013049 0.000585 -0.004727 -0.004100 -0.032142 -0.020119 -0.002869 0.002605 0.005783 -0.035939 -0.008295 -0.019485 0.005523 0.001746 -0.010120 -0.003028 0.014913 0.000630 0.032155 -0.024383 -0.008349 0.027206 0.020482 -0.021400 0.010219 -0.043887 -0.004386 -0.023001 -0.001424 0.019353 -0.004190 0.024280 -0.007441 -0.014498 0.005159 0.004454 0.009173 -0.001878 0.012445 -0.017048 0.000548 0.025092 0.013313 0.002360 0.002469 0.017045 0.008559 -0.005964 -0.018380 -0.000107 -0.012903 0.005146 -0.004538 -0.008460 0.022895 0.024496 -0.006711 0.007246 -0.003011 -0.015323 0.003017 0.025258 -0.006215 0.019135 0.017425 0.018883 -0.007602 -0.015478 0.003016 -0.034107 -0.027025 -0.014247 -0.035459 -0.052819 0.005170 -0.006858 0.002783 0.025149 0.008757
hgene -0.106490 -0.020680 0.024247 0.030996 0.016285 -0.005627 0.000581 0.019637 -0.019015 0.034516 0.055732 -0.018595 0.005024 0.011365 -0.020250 -0.053770 0.016553 0.058830 -0.023318 -0.007214 0.002004 0.017418 -0.036043 0.021518 0.005144 0.128785 0.022946 0.001882 0.023860 0.037867 0.059356 0.042294 0.008802 -0.020578 0.022861 0.045993 0.008211 -0.069234 -0.010543 -0.099540 0.080005 0.031939 -0.067393 -0.046447 0.050391 -0.002792 0.102241 -0.028417 0.073654 -0.004712 -0.023155 0.018280 -0.052197 -0.013629 0.010376 -0.012570 0.019594 -0.025921 -0.011937 -0.021549 0.047023 0.017952 -0.087480 -0.051568 -0.017380 0.008864 -0.005607 -0.059517 0.008942 0.059702 0.005484 0.060554 0.008298 0.030026 0.061168 -0.048563 -0.083433 0.004618 -0.039752 0.010297 0.012320 -0.015790 -0.061403 -0.017536 -0.027327 -0.056442 -0.024981 0.037654 0.020834 0.009967 0.097122 0.076966 -0.000721 0.097354 0.090104 0.006405 -0.008927 0.000062 -0.024877 -0.024302
mechan 0.065472 0.015461 -0.012072 -0.026846 -0.012533 -0.003097 0.005655 -0.006492 -0.007921 -0.005260 -0.027313 -0.006765 -0.014835 -0.015406 -0.001330 0.018388 -0.004145 -0.029631 0.023287 0.021351 -0.008112 -0.004151 0.009155 0.010740 0.000964 -0.064011 -0.019719 0.004907 -0.002067 -0.010503 -0.027805 -0.024187 -0.018167 0.005191 -0.014799 -0.023391 0.005369 0.019427 -0.003677 0.031473 -0.034756 -0.024719 0.032199 0.027406 -0.014886 -0.014280 -0.051638 0.011075 -0.030197 0.010339 0.026394 -0.009179 0.034560 0.006480 0.010935 0.019822 -0.015582 0.002237 -0.000901 -0.009229 -0.015078 0.001198 0.036254 0.020277 0.010302 -0.022008 -0.000318 0.025847 -0.000962 -0.018452 -0.007715 -0.013662 0.007139 -0.023161 -0.027492 0.019335 0.037452 0.000317 0.031695 0.007690 -0.001345 -0.002554 0.021055 0.013567 0.020669 0.038927 0.010024 -0.010242 -0.016569 0.008278 -0.050504 -0.041903 0.000624 -0.049419 -0.052171 0.001608 0.006315 0.003138 0.014810 0.008585
reduc 0.045075 0.012620 -0.004753 -0.015564 -0.001067 -0.002769 0.000537 0.000907 -0.004743 -0.002556 -0.021585 -0.001766 -0.011904 -0.019626 0.009014 0.014332 0.007033 -0.019561 0.011218 0.018199 -0.009110 0.009292 0.001351 0.011931 -0.008518 -0.042463 -0.007512 0.004659 -0.002686 -0.002665 -0.015176 -0.018914 -0.014908 -0.005748 -0.019643 -0.015222 0.005242 0.012344 -0.001566 0.024915 -0.016706 -0.006190 0.026919 0.017871 -0.009604 -0.013533 -0.034273 0.003639 -0.017094 0.004586 0.013558 -0.017020 0.018894 0.014839 0.010255 0.025695 -0.008614 -0.003535 -0.005978 -0.017605 -0.013141 0.003266 0.022384 0.010422 0.009138 -0.015156 -0.010714 0.019426 -0.001843 -0.019815 -0.005084 -0.020621 0.003801 -0.030799 -0.017301 0.012675 0.026753 0.011605 0.012230 0.012618 0.008974 -0.011300 0.013152 0.012311 0.013033 0.025315 -0.002177 -0.004724 -0.009865 0.006095 -0.029867 -0.018038 -0.003504 -0.017953 -0.027052 0.000383 0.002140 -0.002589 0.009070 0.005294
cgeneand 0.127812 0.033393 -0.040756 -0.025797 -0.003214 0.035941 0.018921 -0.061976 0.051576 -0.072922 -0.069189 0.053984 0.029052 0.019614 0.060238 0.068226 -0.044662 -0.092796 0.008350 -0.010348 0.021887 -0.033607 0.072176 -0.023919 -0.008048 -0.190191 -0.017072 0.021831 -0.073471 -0.063781 -0.109453 -0.055395 -0.001328 0.077123 -0.004314 -0.067418 0.005787 0.129032 -0.000140 0.173222 -0.140886 -0.038443 0.113459 0.060071 -0.068045 0.019980 -0.163277 0.062055 -0.112404 -0.030700 0.055674 -0.021311 0.079859 -0.016086 -0.051868 -0.014890 -0.009572 0.098481 0.003780 0.048156 -0.059033 -0.069879 0.138960 0.094867 -0.006839 0.025270 0.021652 0.100232 -0.018873 -0.080923 -0.001733 -0.120040 0.007839 -0.026124 -0.073717 0.083991 0.133944 0.011350 0.036010 -0.090974 -0.051158 0.057196 0.118345 -0.010012 0.030629 0.087757 0.029673 -0.069390 0.009767 -0.019055 -0.145373 -0.135294 0.016443 -0.132691 -0.127501 -0.012699 -0.001889 0.001210 0.031759 0.054211
construct -0.083900 -0.019991 0.020574 0.025117 0.004965 -0.002724 -0.004221 0.016173 -0.014824 0.026431 0.042073 -0.019437 -0.002836 0.011500 -0.006702 -0.041256 0.012480 0.040831 -0.009854 -0.004883 -0.002482 0.023127 -0.019951 0.006414 -0.001397 0.092704 0.009603 -0.003431 0.009951 0.007863 0.043938 0.034636 0.014586 -0.018415 0.013298 0.031250 -0.011642 -0.047805 0.008986 -0.077887 0.052421 0.021483 -0.056716 -0.037357 0.018959 -0.002996 0.082639 -0.026722 0.049851 0.009080 -0.034033 0.007213 -0.052521 0.007752 0.025461 -0.008004 0.008364 -0.020978 0.006178 -0.010111 0.017362 0.022873 -0.064084 -0.038985 -0.000040 0.001862 -0.017971 -0.042532 -0.000619 0.045008 0.006878 0.045354 -0.010496 0.019802 0.037019 -0.032903 -0.062361 -0.009161 -0.018296 0.033832 0.025201 -0.008077 -0.056771 -0.008041 -0.025413 -0.054353 -0.012970 0.028345 0.000247 -0.000228 0.066628 0.060691 0.002954 0.069210 0.064433 0.012007 -0.000202 -0.011145 -0.015613 -0.020989
essenti -0.144005 -0.029586 0.032825 0.042741 0.020353 -0.008046 -0.013700 0.025967 -0.019975 0.051618 0.075062 -0.014842 0.017475 -0.001217 -0.017834 -0.052295 0.027292 0.079717 -0.027206 -0.011950 0.010931 0.018009 -0.030563 -0.000805 0.012123 0.146911 0.032046 -0.004611 0.015576 0.028517 0.078271 0.055551 0.028573 -0.030441 0.031082 0.055973 -0.005006 -0.088348 0.002471 -0.108517 0.082885 0.037231 -0.098072 -0.060889 0.047247 0.002212 0.121417 -0.033876 0.090164 0.011983 -0.053478 0.020705 -0.084004 -0.007373 0.010536 -0.026372 0.028570 -0.037231 0.002544 -0.017449 0.049990 0.025019 -0.104151 -0.050912 -0.008385 0.017821 -0.006537 -0.084213 0.015109 0.061281 0.010652 0.071112 -0.006813 0.039274 0.069752 -0.054480 -0.099883 0.000827 -0.041795 0.043274 0.025662 -0.010554 -0.071826 -0.021998 -0.025111 -0.092877 -0.017457 0.052475 0.014871 -0.004116 0.112551 0.102793 0.005623 0.105768 0.105966 0.010643 -0.010196 -0.002751 -0.040391 -0.024692
implic -0.122193 -0.023000 0.034003 0.020025 0.012520 0.000005 -0.006471 -0.003422 0.003724 0.037457 0.068070 0.003166 0.024012 0.027631 -0.005416 -0.050847 0.031764 0.061511 -0.041546 -0.020203 0.008497 0.016480 -0.016128 0.019488 0.017865 0.100572 0.024675 -0.002581 -0.011087 0.008809 0.058966 0.038655 0.034776 0.000972 0.011525 0.038360 0.008575 -0.033952 0.012810 -0.074408 0.054541 0.026550 -0.069874 -0.047337 0.046606 0.007834 0.080270 -0.011450 0.064982 0.008410 -0.024120 0.033659 -0.058686 -0.010804 -0.001380 -0.019968 0.019593 -0.005080 0.003392 -0.021189 0.029187 0.008105 -0.081252 -0.033980 -0.023370 0.024021 -0.006575 -0.047875 0.016988 0.053425 0.022529 0.033440 -0.000623 0.031389 0.048382 -0.026529 -0.068781 -0.011309 -0.037568 0.001035 0.018160 -0.023187 -0.035452 -0.022275 -0.039735 -0.057765 -0.038458 0.026015 0.024344 0.023952 0.081837 0.069546 0.003521 0.089352 0.104848 -0.021691 -0.001023 0.007104 -0.030540 -0.002629
sgene -0.096214 -0.022378 0.020972 0.012593 0.010718 -0.023255 -0.011498 0.012736 -0.019193 0.028752 0.052568 -0.020730 -0.009559 0.013263 -0.009201 -0.049976 0.030652 0.047615 -0.031582 -0.004886 -0.006061 0.011015 -0.033860 0.018479 0.004810 0.095622 0.028627 -0.010842 0.010260 0.019482 0.053503 0.036647 0.019228 -0.027817 0.010196 0.042274 0.008278 -0.051708 0.003034 -0.093434 0.062470 0.017456 -0.063459 -0.041656 0.047006 -0.007506 0.081668 -0.024239 0.062205 0.003367 -0.030230 0.022272 -0.050480 -0.002750 0.015736 -0.003560 0.011347 -0.035228 -0.005024 -0.020693 0.046859 0.021804 -0.075095 -0.045101 -0.006533 0.005366 -0.012320 -0.054487 0.009237 0.040100 -0.000658 0.042626 0.002108 0.017765 0.044047 -0.038742 -0.080838 -0.000476 -0.024263 0.026331 0.028843 -0.019557 -0.054300 -0.002561 -0.027739 -0.050885 -0.031638 0.033951 0.018104 0.012740 0.075370 0.066829 -0.002299 0.084566 0.092571 0.000821 -0.001183 0.007164 -0.018151 -0.024591
upregul -0.061069 -0.014472 0.017905 0.006637 0.006440 -0.007581 0.002733 0.004302 -0.018833 0.025410 0.043208 -0.012818 -0.001440 0.014058 -0.012630 -0.033246 0.008188 0.029269 -0.029911 0.000662 0.003913 0.017118 -0.019192 0.012017 -0.001241 0.075342 0.009504 -0.001176 0.006251 0.015330 0.038455 0.015412 0.015717 -0.008182 0.008396 0.036713 0.015827 -0.041859 -0.000064 -0.051434 0.051942 0.005903 -0.052857 -0.029044 0.034236 0.002880 0.055628 -0.015951 0.037613 0.004025 -0.018394 0.024511 -0.037221 -0.000528 0.012593 0.002221 0.021164 -0.030299 -0.016355 -0.010893 0.031747 0.011755 -0.052701 -0.038888 -0.003447 0.003384 -0.003592 -0.041784 0.000475 0.036888 0.000296 0.023207 -0.001642 0.017211 0.020476 -0.027722 -0.046898 0.003778 -0.015378 0.014415 0.019964 -0.022945 -0.049765 -0.000992 -0.026189 -0.035929 -0.011447 0.012564 0.018445 0.015237 0.056446 0.039203 0.000299 0.057373 0.070204 -0.003383 -0.002118 0.011395 -0.015087 -0.020099
bgenepromot 0.008903 0.006724 -0.005508 0.009054 -0.001645 0.000333 -0.002504 0.011590 0.001115 0.004862 -0.000528 -0.009494 0.000214 -0.012753 -0.006319 0.004339 -0.001733 0.005605 0.013810 0.005034 -0.007266 -0.004185 -0.006678 -0.015225 0.007624 0.006906 -0.012996 -0.010248 0.010680 -0.000294 0.011156 0.002856 -0.015246 -0.014917 -0.000845 -0.012806 -0.009906 -0.011265 0.006327 -0.011052 0.009647 0.003681 -0.000680 -0.009867 -0.003201 -0.010749 0.016172 -0.011855 -0.004986 0.005259 -0.006989 -0.006216 -0.009121 0.008854 0.008794 -0.002701 -0.003685 -0.006414 0.011037 -0.002985 -0.006552 0.003783 -0.011380 0.003972 0.003998 -0.012246 -0.002328 -0.006764 -0.009006 -0.006122 -0.006445 0.016661 0.000498 -0.001721 0.007425 -0.007610 -0.005795 -0.005914 0.001306 0.017528 0.000590 0.006220 0.000972 0.004275 0.005632 -0.018856 0.006994 0.006938 -0.011860 -0.010246 0.012119 0.007007 -0.002067 -0.002930 -0.008889 0.013128 0.004492 -0.004234 0.007893 -0.008575
cell -0.186174 -0.030737 0.053578 0.030053 0.021895 -0.030288 -0.027053 0.008680 -0.035685 0.068116 0.124521 -0.027453 -0.003619 0.022761 -0.027981 -0.109710 0.053854 0.112766 -0.059584 -0.010588 -0.003598 0.031971 -0.068822 0.023002 0.022830 0.201610 0.051964 0.003148 0.017831 0.039931 0.128626 0.047159 0.034400 -0.045051 0.016185 0.087343 0.005049 -0.087086 0.013712 -0.176910 0.136148 0.044075 -0.133880 -0.081413 0.083180 -0.006655 0.162211 -0.045402 0.124759 0.025875 -0.059885 0.044004 -0.090315 -0.011945 0.031378 -0.013269 0.037084 -0.062117 -0.003629 -0.054809 0.061656 0.037547 -0.150949 -0.087209 -0.013263 -0.001736 -0.022835 -0.088329 0.019609 0.095658 0.017523 0.080064 -0.001526 0.025262 0.089439 -0.068129 -0.131682 -0.006949 -0.052703 0.048591 0.051565 -0.066497 -0.113918 -0.015608 -0.049114 -0.109540 -0.052134 0.066924 0.035980 0.037904 0.153012 0.131512 -0.007490 0.172096 0.189942 -0.019855 0.004397 0.009562 -0.055158 -0.031212
dgenepromot 0.050279 0.003186 -0.013676 0.002260 -0.004466 0.010610 0.000686 0.009786 0.002480 -0.017943 -0.033372 0.006664 -0.005896 -0.013950 0.002918 0.045320 -0.011304 -0.009136 0.034850 0.007094 -0.003970 -0.007548 -0.001607 -0.028910 0.012623 -0.038021 -0.025691 -0.000026 0.011829 -0.014307 -0.030351 -0.005247 -0.028375 0.001595 -0.001351 -0.032270 -0.016786 0.030993 0.008799 0.036779 -0.016133 -0.001471 0.030651 0.019536 -0.029009 -0.008160 -0.037763 0.011258 -0.031330 -0.008400 0.002511 -0.020995 0.020924 0.002330 0.000172 -0.010029 -0.020308 0.013403 0.025926 0.026664 -0.022430 -0.008221 0.030042 0.024052 0.018136 -0.008591 0.001187 0.024203 -0.010266 -0.030447 -0.002790 -0.007289 0.001457 -0.003749 -0.005202 0.017414 0.032071 -0.011682 0.013576 0.009583 -0.020383 0.027513 0.030324 0.004839 0.030599 0.009133 0.026526 -0.005192 -0.034656 -0.022991 -0.033455 -0.036567 0.008881 -0.044001 -0.055496 0.023906 -0.000460 -0.014688 0.031192 0.006626
igen -0.020185 0.004608 -0.007930 -0.001308 0.013074 0.010102 0.014374 -0.026101 0.033404 -0.017826 0.014976 0.024249 0.034519 0.028670 0.019440 -0.011489 -0.000571 -0.003826 -0.018419 -0.026327 0.014583 -0.003586 0.026825 -0.006791 -0.014643 -0.016341 0.010238 0.006867 -0.041192 -0.012416 -0.013396 0.013981 0.020450 0.027909 0.012809 0.007121 0.013311 0.023988 0.000880 0.033065 -0.025567 -0.001981 -0.000272 -0.005313 0.000335 0.008780 -0.008897 0.020305 0.002252 -0.010849 -0.001512 0.015518 -0.013402 -0.016340 -0.028273 -0.026826 0.015480 0.039578 0.003028 0.016439 -0.004687 -0.035192 0.002674 0.009939 -0.021375 0.023855 0.003331 0.006333 0.002515 0.003041 0.008503 -0.033031 -0.006466 0.021358 -0.005516 0.015700 0.010889 0.001199 -0.004458 -0.032855 -0.007219 0.020752 0.027780 -0.013427 -0.011613 0.005037 -0.003334 -0.022222 0.025458 -0.006644 -0.005599 -0.011888 0.004206 -0.006078 0.008844 -0.012188 -0.007326 -0.003997 -0.022212 0.012993
sgenepromot 0.012031 0.011271 -0.003365 0.002115 -0.007346 0.008137 -0.001807 0.001824 -0.007340 0.001149 -0.011070 -0.010330 0.001423 0.002537 -0.000943 0.006122 0.002313 -0.002474 0.010955 0.001588 -0.001348 -0.007577 -0.003297 -0.005086 0.004243 -0.020509 -0.007843 -0.004558 -0.013525 -0.025563 0.013379 -0.009228 -0.002240 -0.006712 -0.008707 -0.010286 0.002415 0.007001 0.001405 0.000834 -0.005774 -0.010358 0.002831 0.009176 -0.014147 -0.014568 -0.002384 -0.000717 -0.010766 0.003732 -0.003661 -0.012365 0.009902 0.006173 0.000835 -0.001280 -0.003342 0.007483 0.018235 -0.003057 -0.008611 0.001520 0.001109 0.016543 0.011095 -0.002414 -0.013320 0.000518 -0.021856 -0.014576 -0.001614 -0.009530 -0.005893 -0.014607 0.001647 0.000403 0.008153 -0.005653 0.006018 0.017540 0.002335 0.007655 -0.010029 0.009261 0.003056 -0.010318 0.000106 -0.005674 -0.004485 -0.017672 -0.008710 -0.016830 0.006748 -0.019298 -0.009191 -0.000630 0.000542 -0.016591 0.007451 -0.004547
ageneexpress -0.048157 -0.013489 0.008883 0.009473 0.010624 -0.010777 -0.000320 0.014834 -0.009383 0.021035 0.023566 -0.008368 -0.006615 0.003707 -0.006975 -0.023418 0.004939 0.024057 -0.015263 -0.002874 -0.003600 0.010907 -0.012726 0.013442 0.006251 0.062059 0.008210 -0.003713 0.015617 0.012238 0.029141 0.020783 0.010087 -0.011518 0.011192 0.020803 0.009641 -0.033995 0.005364 -0.039683 0.034009 0.005761 -0.040809 -0.019079 0.028490 -0.000439 0.047822 -0.019821 0.038803 0.001829 -0.017289 0.011778 -0.031679 0.003810 0.008859 -0.003367 0.011605 -0.019837 -0.001744 -0.011843 0.019514 0.013990 -0.039323 -0.020938 -0.007347 -0.002048 -0.005319 -0.030101 0.006730 0.027448 0.000199 0.019989 -0.006391 -0.001576 0.024841 -0.029011 -0.047578 0.002279 -0.017669 0.007809 0.018620 -0.017296 -0.030538 -0.003696 -0.020686 -0.024449 -0.014460 0.015553 0.010111 0.003018 0.050645 0.039111 -0.006395 0.051310 0.049468 -0.000524 0.002147 0.000817 -0.020347 -0.018281
bound -0.049241 -0.014113 0.006677 0.016214 0.009494 -0.011344 0.000410 0.002786 0.000779 0.020637 0.025739 0.005112 0.006185 0.009008 -0.008182 -0.011377 0.006346 0.024797 -0.021743 -0.018279 -0.003328 0.004272 -0.009772 0.001826 -0.010397 0.046722 0.006563 -0.007609 0.000917 0.017476 0.016967 0.010598 0.003394 -0.006818 0.011819 0.016797 0.008215 -0.031324 0.001330 -0.036522 0.020149 0.007290 -0.031092 -0.016416 0.014302 0.004013 0.041233 -0.003572 0.030901 0.004179 -0.007648 0.018225 -0.026287 0.004138 -0.008069 -0.004744 0.015043 -0.006801 -0.000277 -0.013328 0.015040 0.004361 -0.031391 -0.015172 -0.009224 0.009520 -0.003496 -0.023502 -0.001866 0.024380 0.009899 0.025390 0.008488 0.014932 0.019717 -0.014621 -0.035306 -0.003249 -0.016086 0.006280 -0.001164 -0.007922 -0.024399 -0.006616 -0.011179 -0.018446 -0.006980 0.012593 0.010326 0.011891 0.031938 0.043392 -0.006866 0.041580 0.037662 -0.004940 -0.005256 0.009909 -0.004934 -0.009480
effect 0.048587 0.007164 -0.007519 -0.011133 -0.006785 -0.003371 -0.008700 0.007154 0.001628 -0.008262 -0.023060 0.007974 -0.011289 -0.006858 -0.003222 0.024358 -0.003730 -0.022334 0.016001 0.015731 -0.002519 -0.012588 0.000888 -0.004104 0.003821 -0.035461 -0.014379 0.000804 0.008021 -0.000620 -0.017964 -0.014744 -0.011015 -0.006406 -0.013015 -0.012830 -0.007285 0.019839 0.008143 0.027501 -0.015585 -0.012969 0.019707 0.011042 -0.013682 0.002938 -0.032421 0.001509 -0.032909 -0.000071 0.019044 -0.008195 0.022721 0.003732 0.003640 0.007528 -0.011501 0.008160 0.001772 0.001746 -0.016026 -0.004670 0.017212 0.010839 0.004051 -0.013489 -0.008189 0.025119 -0.001576 -0.015187 -0.004953 -0.008679 0.002391 -0.020568 -0.020449 0.011799 0.023781 0.007380 0.014099 0.008061 -0.004299 -0.003702 0.014896 0.005929 0.014454 0.020205 0.001951 -0.008064 -0.010954 -0.005401 -0.025380 -0.032584 -0.002191 -0.033180 -0.033068 0.001994 0.006135 -0.001127 0.020457 0.004101
function -0.020959 -0.001484 -0.005943 0.016036 0.003736 0.003445 0.001903 -0.007357 0.010295 0.001556 0.006880 0.010618 0.018576 0.003024 0.007730 0.007320 -0.002242 0.005937 -0.010078 -0.012803 0.010983 0.001706 0.005718 -0.007299 0.001403 0.013594 0.010356 -0.003186 -0.009438 -0.000676 -0.000666 0.012497 0.003978 0.022653 0.016705 0.001654 -0.007138 0.008020 -0.002987 -0.001531 -0.009136 0.006184 -0.008552 -0.008571 -0.002874 0.012850 0.011031 0.009348 0.009471 -0.008946 -0.011150 0.002862 -0.013440 -0.017318 -0.024294 -0.010334 0.004301 0.019440 0.002501 0.018197 -0.001068 -0.020710 -0.001389 0.004384 -0.000923 0.028607 0.009941 -0.006804 0.003304 0.009408 0.011032 0.003406 -0.003806 0.024674 0.014491 0.008957 0.003861 -0.003634 -0.005233 -0.017403 -0.008271 0.017209 0.016317 -0.013330 -0.004333 -0.004740 0.006743 -0.000135 0.000808 -0.008416 0.010215 0.012603 -0.003126 0.009212 0.002849 -0.002540 -0.012007 -0.009228 -0.013682 0.002765
repressor 0.073484 0.012678 -0.014069 -0.015216 -0.011134 -0.001959 0.009651 -0.010182 0.005274 -0.007192 -0.038050 -0.006931 -0.015738 -0.019506 0.006301 0.024769 -0.008007 -0.038113 0.026859 0.012462 -0.005470 -0.005842 0.005805 -0.003150 -0.005511 -0.074901 -0.016826 0.005957 0.005690 -0.013762 -0.034334 -0.037679 -0.015670 0.000453 -0.017905 -0.024993 -0.003684 0.031548 -0.003750 0.040161 -0.033890 -0.020339 0.046438 0.026931 -0.019566 -0.009963 -0.050562 0.010580 -0.041224 -0.005058 0.021759 -0.016166 0.036921 0.008770 0.004988 0.018685 -0.013792 -0.004863 0.001135 0.005076 -0.024411 0.004436 0.042114 0.021450 0.019450 -0.028780 0.005171 0.029440 -0.009890 -0.030956 -0.010950 -0.030887 0.002375 -0.027537 -0.032719 0.025799 0.035295 -0.003798 0.031056 -0.000746 -0.005693 0.002791 0.024525 0.018851 0.019874 0.037443 0.016224 -0.013497 -0.015340 -0.004994 -0.050074 -0.050656 0.002449 -0.052918 -0.047174 0.004125 0.013777 -0.000079 0.020895 0.008619
respons 0.039323 0.004629 -0.010512 0.003376 0.000149 0.000012 0.000537 0.003365 -0.003499 -0.008320 -0.021814 0.003342 -0.013514 -0.013607 -0.002337 0.023064 -0.011359 -0.013937 0.017342 0.003441 -0.009952 -0.003108 -0.003183 -0.012969 -0.004116 -0.020688 -0.016444 0.004173 0.014001 0.012179 -0.022006 -0.008320 -0.025247 0.002086 0.000037 -0.002519 -0.006394 0.010744 0.000299 0.026424 0.001209 0.003121 0.014940 0.015243 -0.012304 0.002124 -0.026132 0.011152 -0.024658 -0.000493 0.017407 -0.001452 0.022039 -0.004319 -0.005899 0.012419 -0.012990 0.001258 -0.008831 -0.004070 -0.018464 0.002128 0.018657 -0.004298 0.004462 -0.017866 0.011717 0.009363 0.009033 -0.014581 -0.001195 -0.008730 0.004401 -0.011647 -0.012659 0.016747 0.017008 0.001261 0.006081 0.000073 -0.011209 -0.007930 0.008042 0.004336 0.011828 0.012033 0.005317 0.000410 -0.018778 -0.007101 -0.018914 -0.007139 -0.014563 -0.014265 -0.038350 0.002961 0.008542 -0.004077 0.020598 -0.004337
target 0.083789 0.006810 -0.011774 -0.025398 -0.021495 -0.001508 0.003232 -0.009084 -0.005981 -0.023150 -0.043082 0.005114 -0.019067 -0.015187 0.016142 0.022359 -0.011320 -0.038666 0.025789 0.018576 -0.008894 -0.008836 0.015516 0.000610 0.009820 -0.066328 -0.031023 0.007901 0.013484 -0.008038 -0.029646 -0.033647 -0.028820 -0.002072 -0.015977 -0.024577 0.006243 0.030013 -0.002323 0.056083 -0.039895 -0.013608 0.041228 0.032180 -0.021118 -0.001945 -0.064401 0.016913 -0.056557 0.008751 0.030822 -0.018125 0.046920 0.004163 0.001782 0.025067 -0.009293 0.003241 -0.012418 0.000210 -0.027061 -0.003445 0.053166 0.031318 0.007556 -0.026223 -0.003815 0.034232 0.002205 -0.033654 -0.010111 -0.031572 0.002110 -0.029225 -0.030532 0.023416 0.044934 0.007512 0.022539 -0.000941 0.000559 -0.003063 0.025314 -0.000045 0.020092 0.048927 0.000820 -0.016920 -0.012198 -0.004794 -0.060546 -0.044220 -0.010789 -0.050260 -0.058775 0.011874 0.007156 0.007914 0.023828 0.007756
agenepromot -0.129277 -0.028836 0.032505 0.028325 0.011944 -0.013999 -0.017876 0.024114 -0.026736 0.046256 0.072598 -0.023252 0.002119 0.004628 -0.022698 -0.063276 0.040030 0.074325 -0.031483 -0.002905 0.006514 0.029795 -0.038179 0.015453 0.011309 0.140846 0.034221 -0.005847 0.011265 0.031070 0.077769 0.055357 0.033201 -0.030447 0.010854 0.051512 -0.001920 -0.079590 0.001799 -0.120073 0.092532 0.028197 -0.092291 -0.049536 0.052682 -0.006270 0.126345 -0.039318 0.084417 0.011934 -0.053743 0.019935 -0.064446 0.001101 0.027393 -0.012234 0.021436 -0.035696 0.009413 -0.018581 0.041432 0.033676 -0.102937 -0.063709 -0.011805 0.013663 -0.010786 -0.062342 0.003310 0.054519 0.007847 0.068114 -0.014629 0.033633 0.065582 -0.059257 -0.098305 0.003998 -0.029692 0.034010 0.041108 -0.026661 -0.076724 -0.004902 -0.039419 -0.076735 -0.024861 0.040319 0.015363 0.004032 0.108893 0.100470 -0.002184 0.107162 0.121029 0.004004 -0.008925 -0.002263 -0.040323 -0.028953
cotransfect -0.127091 -0.019652 0.028558 0.029525 0.001600 -0.021092 -0.011332 0.025965 -0.023268 0.042985 0.070329 -0.017817 0.004772 0.014932 -0.020609 -0.059204 0.022461 0.068278 -0.029057 -0.001942 -0.002489 0.021549 -0.043856 0.007962 0.015030 0.137263 0.025089 -0.013363 0.027010 0.030732 0.078959 0.047830 0.020271 -0.030351 0.005012 0.050520 -0.001175 -0.082335 0.002106 -0.121080 0.084039 0.031941 -0.083045 -0.055201 0.058679 0.008558 0.127953 -0.040195 0.079096 0.017512 -0.042979 0.026311 -0.074963 0.004459 0.030350 -0.009853 0.007227 -0.047914 -0.007183 -0.022914 0.056547 0.030136 -0.091116 -0.065675 -0.000601 0.005340 -0.018976 -0.065350 0.009482 0.054821 0.007691 0.061747 -0.012923 0.022691 0.073939 -0.050684 -0.097549 -0.006623 -0.042846 0.033525 0.031027 -0.030148 -0.082146 -0.007234 -0.031539 -0.077925 -0.027200 0.042392 0.004797 0.003727 0.100099 0.098396 -0.007165 0.108270 0.117618 -0.000937 -0.009226 0.009001 -0.035843 -0.036769
fgene -0.105585 -0.023781 0.029578 0.029565 0.008944 -0.000319 -0.005781 0.019274 -0.020923 0.035862 0.052928 -0.013685 -0.000929 0.007099 -0.016839 -0.043986 0.012946 0.056412 -0.024538 -0.015162 -0.000355 0.021486 -0.028642 0.005645 -0.006325 0.110113 0.019653 -0.009020 0.013926 0.023904 0.051602 0.036984 0.016050 -0.022754 0.006282 0.035891 0.005365 -0.054312 0.002421 -0.085207 0.066155 0.015682 -0.072477 -0.046631 0.046763 -0.003212 0.085901 -0.024510 0.065912 -0.000792 -0.029916 0.020431 -0.058854 -0.006030 0.017448 -0.015370 0.007494 -0.026726 -0.010467 -0.013508 0.036878 0.027038 -0.068923 -0.054499 -0.012846 0.012768 -0.006204 -0.046339 0.004647 0.049243 0.010261 0.058597 -0.001405 0.020897 0.045058 -0.041453 -0.079175 -0.008240 -0.029071 0.021692 0.029622 -0.018082 -0.059553 0.001129 -0.026699 -0.047024 -0.017391 0.025673 0.017915 0.003389 0.083137 0.072451 0.006615 0.081863 0.092892 0.002039 0.000919 -0.006948 -0.021813 -0.016399
format -0.204178 -0.017464 0.047917 0.047052 0.028054 -0.031064 -0.032921 0.029758 -0.046552 0.073707 0.108862 -0.041379 -0.005247 0.017778 -0.043477 -0.096401 0.054230 0.134465 -0.048867 -0.001027 0.003679 0.036561 -0.069966 0.017518 0.020812 0.236651 0.034171 -0.026356 0.040584 0.066473 0.109640 0.076592 0.055899 -0.057769 0.020561 0.080362 0.001318 -0.135494 -0.003388 -0.197663 0.155990 0.052750 -0.125779 -0.097369 0.104344 0.005672 0.205782 -0.065170 0.132081 0.014866 -0.084062 0.039361 -0.109805 0.005882 0.049492 -0.026492 0.024935 -0.082224 0.000448 -0.031049 0.077700 0.051962 -0.177259 -0.085237 -0.007653 0.023845 -0.031941 -0.117912 0.018651 0.088388 0.002695 0.109819 -0.018858 0.038726 0.101088 -0.080664 -0.167242 -0.012412 -0.053926 0.071187 0.055972 -0.033474 -0.127943 -0.017992 -0.057716 -0.105372 -0.047223 0.070653 0.031877 0.012415 0.158627 0.154424 0.020467 0.195811 0.183073 -0.005052 -0.004806 0.016507 -0.065744 -0.042714
igenegen 0.095890 0.017615 -0.027298 -0.012408 -0.012291 0.006611 0.001466 -0.019572 0.015528 -0.023737 -0.039708 -0.002230 -0.008257 -0.027053 0.009788 0.037907 -0.014202 -0.043510 0.024446 0.011103 -0.000346 -0.012763 0.023268 -0.017424 0.007817 -0.086415 -0.013693 0.002588 -0.003960 -0.028260 -0.035785 -0.045467 -0.018455 0.014081 -0.017574 -0.044574 -0.007862 0.048951 0.001053 0.067027 -0.047922 -0.015162 0.063192 0.032660 -0.038012 -0.015455 -0.074073 0.014019 -0.069404 -0.008947 0.026205 -0.029093 0.046726 0.010317 -0.005739 0.015453 -0.008104 0.024256 0.014605 0.009973 -0.035060 -0.021770 0.072152 0.043657 0.012702 -0.016827 0.002284 0.038244 -0.008410 -0.042129 -0.014335 -0.042406 0.005463 -0.023178 -0.042100 0.032587 0.064682 -0.008474 0.031060 -0.016304 -0.021664 0.018183 0.042907 0.013091 0.030277 0.048308 0.025705 -0.025471 -0.020782 -0.014187 -0.064774 -0.070522 0.007732 -0.078965 -0.082145 0.002957 0.005710 -0.007661 0.018031 0.014835
isoform -0.307232 -0.051299 0.071071 0.053522 0.023633 -0.036942 -0.022652 0.038098 -0.039435 0.108579 0.170288 -0.060748 -0.014577 0.040138 -0.044416 -0.165605 0.072795 0.160280 -0.087431 -0.023317 -0.009134 0.050774 -0.084255 0.046125 0.004186 0.324091 0.054793 -0.014905 0.032046 0.079801 0.169101 0.110516 0.069705 -0.075895 0.027558 0.129882 0.012891 -0.179880 -0.007065 -0.272046 0.197493 0.055272 -0.197971 -0.112880 0.136563 0.002925 0.276149 -0.071186 0.211314 0.038732 -0.105248 0.071799 -0.156970 0.007137 0.051523 -0.032121 0.054834 -0.090417 -0.023247 -0.057368 0.121843 0.076926 -0.224531 -0.148399 -0.028106 0.031060 -0.025061 -0.150729 0.043163 0.145187 0.021863 0.151657 -0.014033 0.066966 0.137720 -0.123814 -0.219857 0.013941 -0.096798 0.066643 0.086184 -0.075860 -0.182102 -0.010410 -0.078340 -0.160723 -0.070513 0.098509 0.039268 0.029407 0.241907 0.232616 -0.008143 0.243913 0.267039 -0.016310 -0.017084 0.012755 -0.088360 -0.053505
led -0.105965 -0.022109 0.022015 0.029666 0.014234 -0.005612 -0.019113 0.031175 -0.016921 0.028241 0.050840 -0.016788 -0.005620 0.008900 -0.031206 -0.050666 0.027950 0.064231 -0.013879 0.000425 0.001186 0.012966 -0.033588 0.004775 0.015466 0.113137 0.029918 -0.001863 0.019891 0.025640 0.065481 0.031741 0.022320 -0.027694 0.015108 0.029125 -0.005118 -0.062003 -0.008559 -0.096071 0.080250 0.034035 -0.076628 -0.041495 0.044449 -0.001382 0.101968 -0.028242 0.071450 0.005571 -0.036787 0.008937 -0.050780 -0.001534 0.025110 -0.017108 0.007002 -0.047954 -0.004201 -0.022118 0.035381 0.025445 -0.083744 -0.051046 -0.003937 0.001850 -0.014349 -0.051550 0.010759 0.050430 0.010411 0.062755 -0.006888 0.028541 0.055842 -0.042779 -0.072980 0.001543 -0.026963 0.033917 0.023323 -0.019068 -0.058294 0.000923 -0.022977 -0.067523 -0.014800 0.031336 -0.001089 -0.004871 0.090660 0.076485 0.012850 0.083940 0.083227 0.009379 0.001034 -0.005175 -0.023660 -0.022781
mgenegen -0.027430 0.005886 0.001087 -0.006738 -0.000650 -0.004281 -0.002706 -0.004851 0.000758 0.006990 0.015907 -0.008982 -0.006499 0.006777 -0.013589 -0.020901 0.007547 0.013894 -0.008178 0.005527 -0.002574 0.001781 -0.011456 0.012240 0.011199 0.013119 0.003818 -0.007695 0.010338 -0.003672 0.018482 -0.001178 0.005905 -0.005867 -0.001800 -0.000690 0.007116 -0.019722 0.003927 -0.022005 0.014735 0.010884 -0.013761 -0.010083 0.014228 -0.000459 0.023776 -0.012643 0.014564 0.009453 -0.005559 -0.001401 -0.011593 0.008989 0.007156 -0.004629 0.003690 -0.008108 -0.003716 -0.003935 0.010039 0.007205 -0.012464 -0.009857 0.001148 -0.005759 -0.007294 -0.008551 0.005426 0.007671 -0.000996 0.002790 -0.006110 0.001025 0.011090 -0.011839 -0.009666 -0.001970 -0.007669 0.009467 0.007060 -0.004805 -0.019453 0.000819 -0.000109 -0.011406 -0.001195 0.008162 0.004791 -0.000946 0.015067 0.016556 -0.001122 0.023186 0.022488 -0.002414 -0.005158 0.002450 -0.005636 -0.005167
abil -0.232811 -0.050601 0.059476 0.057388 0.015855 -0.028741 -0.018862 0.021086 -0.037052 0.071051 0.132031 -0.044513 -0.002917 0.020895 -0.041466 -0.122490 0.046577 0.123943 -0.073372 -0.015488 -0.007645 0.046993 -0.065942 0.050620 -0.011406 0.249987 0.061600 -0.011366 0.032524 0.076016 0.133145 0.082289 0.040553 -0.048071 0.013370 0.107476 0.017139 -0.136036 0.001279 -0.204965 0.160672 0.060297 -0.143984 -0.094490 0.093211 0.005374 0.210496 -0.053913 0.153946 0.034805 -0.076935 0.058231 -0.143003 -0.002113 0.026982 -0.011468 0.049524 -0.078745 -0.034780 -0.054248 0.100905 0.052655 -0.179556 -0.112025 -0.030801 0.025441 -0.015311 -0.125059 0.038595 0.103711 0.023437 0.120044 -0.005986 0.052211 0.103115 -0.100779 -0.179268 0.014349 -0.075444 0.053849 0.069019 -0.062956 -0.134522 -0.021373 -0.061743 -0.113400 -0.062713 0.057581 0.041041 0.018314 0.193746 0.161782 -0.007988 0.187713 0.203149 -0.009784 -0.005191 0.009256 -0.058710 -0.049270
act 0.076026 0.018924 -0.008380 -0.015413 -0.009795 -0.001110 -0.000033 0.000432 -0.002674 -0.012240 -0.031060 -0.000168 -0.012478 -0.020923 -0.001090 0.037503 -0.014944 -0.029859 0.028089 0.017381 -0.010694 -0.008769 0.004924 -0.014141 -0.001568 -0.060656 -0.031210 -0.000197 0.015481 -0.017708 -0.026512 -0.021868 -0.024773 -0.001058 -0.011888 -0.022230 -0.000829 0.024740 0.002545 0.044132 -0.028940 -0.019794 0.032322 0.023503 -0.020925 -0.007226 -0.044565 0.008223 -0.038638 0.000571 0.016562 -0.009901 0.038082 0.007271 0.004474 0.022475 -0.019375 0.004661 0.004090 0.007336 -0.025674 -0.000824 0.037556 0.023516 0.020342 -0.021249 -0.003202 0.035544 -0.007491 -0.033026 -0.014518 -0.016794 -0.002253 -0.025057 -0.025804 0.018525 0.033655 -0.007909 0.020413 0.002481 -0.009581 -0.000687 0.019678 0.000748 0.018592 0.021494 0.010038 -0.014771 -0.017948 -0.005472 -0.039792 -0.038875 -0.008608 -0.041433 -0.056794 0.011617 0.003982 0.003740 0.018337 -0.000245
bgene -0.018900 -0.001104 0.003536 0.006614 0.009351 -0.000678 0.000745 -0.012107 0.012318 -0.004118 0.012149 0.020756 0.021973 0.009300 0.007214 -0.008145 -0.006737 -0.005334 -0.016085 -0.015827 0.010126 0.000493 0.012365 0.005832 -0.007445 0.017693 0.018785 0.011168 -0.015441 0.013050 -0.009634 0.015984 0.014400 0.021516 0.011123 0.013328 0.008868 -0.004982 -0.009191 0.006378 -0.013339 0.004794 -0.005763 -0.005451 0.012374 0.012110 -0.003128 0.010545 0.017083 -0.001024 0.003129 0.015398 -0.022729 -0.008152 -0.024407 -0.002630 -0.000153 0.011773 -0.006416 0.014396 0.014463 -0.014896 -0.000310 0.001248 -0.012149 0.015682 0.016697 -0.004791 0.011292 0.002477 0.007875 -0.015180 0.002667 0.021544 0.008681 0.010067 -0.007271 0.002561 -0.009884 -0.022021 -0.006281 0.003391 0.008629 -0.007468 -0.015404 0.003977 -0.008846 -0.002502 0.013214 0.014324 0.009882 -0.001814 -0.011576 0.011076 0.017743 -0.004149 -0.003576 0.011661 -0.007779 0.002398
bgenegen 0.048770 0.011724 -0.019648 -0.013422 -0.009219 0.015601 0.014604 -0.020065 0.022529 -0.027473 -0.027575 0.018740 0.006549 0.008816 0.022473 0.025947 -0.017975 -0.041506 0.001447 -0.010124 0.005222 -0.017674 0.026466 0.001244 -0.002427 -0.074936 -0.006865 0.005194 -0.032962 -0.021486 -0.043944 -0.020325 0.000124 0.037169 0.000032 -0.021669 -0.000966 0.049524 0.000978 0.066382 -0.054522 -0.022813 0.043464 0.025425 -0.030399 0.010602 -0.066714 0.016672 -0.046996 -0.007421 0.031538 -0.007249 0.033192 -0.013377 -0.018714 -0.001473 -0.003654 0.044842 0.008598 0.021801 -0.018484 -0.025021 0.059639 0.036023 -0.002720 -0.002447 0.010294 0.031434 -0.009459 -0.035947 0.006270 -0.046055 0.007124 -0.008670 -0.027334 0.031997 0.049035 0.003294 0.010762 -0.030725 -0.020535 0.024083 0.040670 -0.005022 0.009513 0.030338 0.010588 -0.022140 0.007211 -0.002596 -0.062266 -0.057620 0.011059 -0.054420 -0.053185 -0.006762 0.002674 -0.007268 0.010725 0.012886
contain -0.118966 -0.018391 0.023759 0.025573 0.009630 -0.013815 -0.007754 0.025509 -0.019683 0.043600 0.057800 -0.007597 0.012232 0.005878 -0.017315 -0.048514 0.026966 0.054907 -0.036292 -0.009725 -0.003940 0.017786 -0.021591 0.023088 0.000372 0.119546 0.030671 0.000895 0.017887 0.027988 0.059758 0.042711 0.024179 -0.027789 0.018021 0.055511 0.004259 -0.069375 0.009757 -0.088163 0.065642 0.025100 -0.076455 -0.040204 0.047939 -0.003250 0.104859 -0.026827 0.078786 0.001435 -0.040776 0.025496 -0.061662 -0.003021 0.019165 -0.007788 0.025409 -0.035850 -0.008709 -0.021103 0.047804 0.019949 -0.079829 -0.049884 -0.012816 0.009156 -0.012250 -0.060869 0.015905 0.046995 0.005749 0.064646 -0.008290 0.028552 0.054294 -0.041455 -0.075330 0.013162 -0.040296 0.033329 0.029256 -0.016340 -0.058873 -0.009614 -0.016274 -0.055517 -0.015387 0.045049 0.018730 -0.000959 0.082890 0.082504 0.005510 0.095594 0.101856 -0.004196 -0.000026 0.006856 -0.026826 -0.023875
dgene 0.001077 -0.001080 -0.009071 -0.001626 0.002486 0.004770 0.006647 -0.011088 0.006292 0.000847 -0.000488 -0.003712 0.003852 0.008499 0.008952 -0.010635 -0.000275 -0.005197 -0.001392 -0.007603 0.005022 -0.004150 0.012418 -0.002647 -0.002879 -0.022129 0.002581 0.006162 -0.024407 -0.016611 -0.003645 -0.002642 0.009121 0.012212 -0.000189 -0.005252 0.002047 0.014135 -0.001932 0.006604 -0.012420 -0.004378 -0.000356 0.004846 -0.005200 -0.001922 0.001187 0.005733 -0.009359 -0.010309 -0.001890 -0.002050 0.003969 -0.011287 -0.001241 -0.005968 -0.003704 0.022974 0.005494 0.000647 0.005618 -0.016478 0.013816 0.008896 -0.004475 0.002018 -0.008270 0.002542 -0.000836 -0.009562 0.002315 -0.013718 0.001706 0.003853 -0.002441 0.008550 0.002772 0.007942 0.002685 -0.004976 -0.002211 0.012985 0.002109 -0.002375 -0.004358 0.002800 -0.005036 -0.014385 0.010643 -0.005030 -0.008417 -0.008669 0.017737 -0.006710 0.009634 -0.002566 -0.006712 0.000475 -0.008275 0.013889
driven -0.115350 -0.031492 0.020446 0.035416 0.016356 0.000723 0.000811 0.030587 -0.024444 0.029963 0.053469 -0.008346 0.013213 0.008178 -0.017812 -0.033677 0.023060 0.060469 -0.030641 -0.025527 -0.003446 0.024038 -0.022907 0.007995 -0.001286 0.114217 0.030990 -0.007704 0.015930 0.024714 0.047583 0.035549 0.024901 -0.019031 0.028731 0.041017 -0.001048 -0.073243 -0.002283 -0.095802 0.068186 0.032506 -0.070030 -0.041102 0.035239 -0.000151 0.098614 -0.024645 0.067896 0.010805 -0.047530 0.016422 -0.072564 -0.001925 0.024630 -0.012689 0.023345 -0.015838 -0.005045 -0.002715 0.034346 0.018001 -0.088546 -0.052587 -0.013152 0.012852 -0.009865 -0.062010 0.015118 0.053127 0.010355 0.065762 -0.005075 0.025981 0.068448 -0.039334 -0.084198 -0.011810 -0.043457 0.029892 0.026184 -0.007565 -0.067037 -0.015926 -0.029860 -0.072040 -0.016386 0.027884 0.009080 0.003727 0.098415 0.078582 0.012289 0.099515 0.089738 0.004296 -0.014143 -0.016626 -0.022977 -0.020611
form -0.147484 -0.027506 0.036604 0.025490 0.016142 -0.012806 -0.007699 0.009581 -0.019940 0.048238 0.084987 -0.024556 0.017448 0.018182 -0.018912 -0.074192 0.035748 0.079497 -0.042597 -0.011608 -0.002902 0.032100 -0.035706 0.019836 -0.003229 0.151038 0.038345 -0.006537 0.004545 0.038541 0.086068 0.052333 0.035486 -0.025020 0.016530 0.064374 0.009209 -0.075837 -0.013677 -0.125981 0.084639 0.021864 -0.102954 -0.062133 0.068497 0.006688 0.117796 -0.030408 0.098217 0.012000 -0.045703 0.038391 -0.075665 -0.014912 0.017019 -0.014836 0.028814 -0.040815 -0.014090 -0.037397 0.062093 0.022901 -0.102484 -0.063302 -0.004893 0.009435 -0.005423 -0.076978 0.023527 0.062412 0.011671 0.058062 0.005547 0.035921 0.064864 -0.046217 -0.107461 0.006058 -0.039729 0.019240 0.039123 -0.034443 -0.073586 -0.007471 -0.044340 -0.069532 -0.040868 0.043070 0.035328 0.017609 0.113014 0.119247 -0.007620 0.128696 0.137278 -0.013230 -0.012559 0.013639 -0.044435 -0.023701
mgeneand -0.095633 -0.018104 0.020254 0.017986 0.011593 -0.004227 -0.005597 0.002627 -0.000893 0.028264 0.054292 -0.005922 0.008170 0.019445 -0.008307 -0.055094 0.011780 0.048362 -0.036657 -0.006390 0.001304 0.012804 -0.021092 0.019800 -0.004833 0.079314 0.026440 0.001429 -0.007784 0.009521 0.040814 0.026080 0.024552 -0.008404 0.019247 0.044740 0.015693 -0.037021 0.009183 -0.069237 0.049137 0.009432 -0.056763 -0.039451 0.036113 0.001182 0.064954 -0.011489 0.060138 0.001772 -0.033884 0.036901 -0.050757 -0.007409 -0.001061 -0.008128 0.016873 -0.014258 -0.007310 -0.010509 0.039029 0.005298 -0.057042 -0.041705 -0.023740 0.020147 -0.000497 -0.037739 0.011885 0.041131 0.006368 0.031361 0.002930 0.023624 0.039124 -0.030115 -0.054714 0.002923 -0.022391 0.006833 0.020057 -0.001958 -0.046157 -0.012135 -0.021176 -0.035359 -0.020300 0.011790 0.036012 0.006520 0.066861 0.067073 0.001958 0.068168 0.081923 -0.012052 -0.007744 0.012445 -0.030236 -0.007040
pgeneand -0.065145 -0.009005 0.018105 0.012629 0.004690 -0.017895 -0.002709 0.000733 -0.010499 0.027389 0.041813 -0.006548 0.005788 0.001680 -0.012000 -0.031617 0.016318 0.031942 -0.025820 -0.011053 0.003241 0.007919 -0.020617 0.026441 0.001564 0.071527 0.021687 0.002607 0.006665 0.019702 0.041856 0.031017 0.012817 -0.014100 0.003011 0.025636 0.011890 -0.041852 -0.001390 -0.060846 0.053525 0.006583 -0.047286 -0.032947 0.036013 0.000722 0.058796 -0.013092 0.051438 0.007121 -0.013792 0.026180 -0.031295 -0.004846 0.011479 -0.001876 0.008494 -0.024831 -0.014297 -0.018999 0.037601 0.013060 -0.057799 -0.034501 -0.001997 0.007147 -0.001057 -0.037600 0.012283 0.036967 0.006985 0.032540 0.005538 0.016682 0.029274 -0.032641 -0.053256 0.006553 -0.023608 0.012430 0.026147 -0.018931 -0.045170 -0.001327 -0.014402 -0.032107 -0.027642 0.019502 0.015157 0.016362 0.057767 0.047449 -0.007627 0.060227 0.063499 -0.009671 -0.004939 0.009683 -0.022645 -0.007894
pgenegen -0.079550 -0.015345 0.018786 0.006376 0.006584 -0.018412 -0.010179 0.001338 -0.011307 0.029535 0.044334 -0.023461 -0.008192 0.003181 -0.018739 -0.042103 0.016424 0.041942 -0.033341 -0.007778 0.005745 0.012273 -0.018454 0.019152 0.010720 0.068505 0.013973 0.004715 0.011047 0.017979 0.045952 0.014757 0.022367 -0.018552 0.003906 0.036981 -0.000956 -0.053206 0.005783 -0.066470 0.052877 0.011968 -0.051169 -0.033624 0.034138 -0.011766 0.071916 -0.018116 0.048034 0.002977 -0.016172 0.017003 -0.029650 0.002648 0.026852 0.000538 0.014201 -0.022809 -0.005596 -0.020106 0.026560 0.015520 -0.058207 -0.032923 -0.004559 0.007348 -0.017632 -0.043748 0.013528 0.041206 0.003239 0.033635 -0.005553 0.017160 0.020527 -0.038182 -0.056017 0.005002 -0.013135 0.015172 0.026582 -0.021643 -0.044114 -0.000650 -0.020214 -0.033348 -0.017128 0.025878 0.024312 0.006573 0.058160 0.047279 -0.004426 0.064581 0.068068 -0.006351 -0.006801 0.011451 -0.027050 -0.007911
shown -0.074627 -0.024960 0.014639 0.011864 0.015281 -0.008088 -0.009994 0.016412 -0.015111 0.032687 0.036138 0.004388 0.008258 0.011630 -0.022336 -0.031252 0.015993 0.047372 -0.018568 -0.008002 0.001454 0.019871 -0.016932 0.012834 -0.006628 0.089490 0.023434 -0.006507 0.018440 0.029977 0.032443 0.024351 0.009910 -0.024929 0.004955 0.032963 0.011862 -0.055483 -0.001314 -0.066229 0.051526 0.026029 -0.047233 -0.038734 0.026036 0.006862 0.071972 -0.020953 0.054775 0.008811 -0.023909 0.025859 -0.053037 0.004662 -0.000873 0.001983 0.001552 -0.031594 -0.009524 -0.006155 0.033540 0.003684 -0.063150 -0.033976 -0.009112 0.008778 0.008309 -0.046129 0.016868 0.044196 0.005282 0.048839 -0.003201 0.024893 0.038293 -0.033736 -0.053721 -0.002663 -0.019347 0.007879 0.019078 -0.013346 -0.037892 0.001817 -0.028506 -0.036966 -0.013386 0.017350 0.014999 0.008350 0.070272 0.069385 -0.011697 0.062879 0.061896 -0.001000 -0.003975 0.008260 -0.013223 -0.025901
tgenepromot 0.104484 0.013134 -0.030124 -0.004245 -0.009738 0.016823 0.005475 -0.000353 0.012173 -0.025564 -0.070659 0.003701 -0.013197 -0.024999 0.009649 0.061104 -0.021653 -0.038578 0.053397 0.019283 0.005008 -0.023932 0.019743 -0.042863 0.013366 -0.098575 -0.030354 -0.006649 0.006318 -0.019949 -0.048473 -0.024723 -0.032337 0.013080 -0.004271 -0.066948 -0.022825 0.053614 0.005902 0.080391 -0.044591 -0.014660 0.061457 0.039759 -0.055566 -0.006551 -0.063553 0.013694 -0.061199 -0.005262 0.028210 -0.042958 0.050751 0.004659 -0.004673 -0.003510 -0.025497 0.026118 0.024092 0.025723 -0.055103 -0.000815 0.059123 0.033410 0.015110 -0.012745 0.000711 0.047588 -0.021015 -0.048540 -0.005707 -0.027780 0.006977 -0.024999 -0.035665 0.029970 0.073923 -0.017268 0.022495 0.000811 -0.030264 0.026453 0.040260 0.012502 0.034855 0.024819 0.030818 -0.011912 -0.048719 -0.026543 -0.056794 -0.050534 0.008682 -0.081338 -0.085149 0.020371 0.007198 -0.020286 0.041510 0.006745
wgenegenex -0.064945 -0.002960 0.011892 0.004202 0.009749 0.001211 0.003426 0.001358 -0.001434 0.007534 0.036641 -0.007001 0.015930 0.009769 -0.009521 -0.032172 0.021744 0.029991 -0.019395 -0.012882 0.009083 0.001497 -0.012702 0.000916 0.002954 0.064184 0.020979 0.000059 -0.015064 0.006628 0.032962 0.023649 0.022192 -0.002431 0.007100 0.022631 0.003717 -0.028204 -0.004182 -0.040498 0.033929 0.006491 -0.036371 -0.032546 0.017927 -0.000110 0.056078 -0.010146 0.041864 -0.006856 -0.023687 0.010726 -0.037440 -0.004521 0.000964 -0.006543 0.015804 -0.009505 0.004702 -0.007897 0.023821 0.003403 -0.037366 -0.017569 -0.011935 0.014096 -0.006413 -0.028021 0.001293 0.036798 -0.000799 0.019457 -0.002464 0.017668 0.031351 -0.020632 -0.040038 -0.000813 -0.016227 0.006812 0.009270 -0.000489 -0.019682 0.003958 -0.012262 -0.034274 -0.009800 0.015765 0.011074 -0.001988 0.042007 0.039216 0.003438 0.051760 0.064526 -0.010118 -0.001294 0.001037 -0.028576 -0.005676
affect -0.138744 -0.029295 0.036804 0.025226 0.010573 -0.018007 -0.012918 0.022138 -0.029652 0.055138 0.076595 -0.027641 -0.000738 0.016853 -0.022149 -0.070489 0.028927 0.077703 -0.037789 -0.013902 -0.000134 0.028156 -0.038230 0.024711 0.001494 0.149908 0.026677 -0.003719 0.021770 0.042265 0.074692 0.044127 0.027204 -0.033627 0.013187 0.062054 0.012447 -0.092250 -0.007710 -0.124087 0.097970 0.022903 -0.100969 -0.049490 0.067870 0.003968 0.127882 -0.027183 0.090621 0.009044 -0.033248 0.040614 -0.069195 0.000438 0.027831 0.001585 0.032091 -0.046813 -0.019488 -0.036019 0.058499 0.029101 -0.099331 -0.061021 -0.010199 0.004934 -0.013158 -0.068393 0.019904 0.070375 0.007237 0.063481 -0.000761 0.026699 0.064527 -0.053863 -0.106632 0.010084 -0.036999 0.041684 0.051035 -0.034022 -0.081837 -0.010663 -0.043474 -0.066918 -0.033229 0.040377 0.027351 0.017740 0.112933 0.094787 -0.007784 0.117276 0.130297 -0.006273 -0.002061 0.017064 -0.039766 -0.031040
egeneand -0.012909 -0.003167 0.003013 -0.002412 0.000208 0.003143 -0.002185 -0.015123 0.009260 -0.005481 0.012260 0.006155 0.009340 0.006508 0.002989 -0.015040 0.000984 -0.001436 -0.021480 -0.005598 -0.003305 0.001924 0.004513 0.006058 -0.010400 0.007025 0.013153 0.004025 -0.017910 0.002050 -0.001788 0.008730 0.015479 0.014110 0.003273 0.016470 0.005832 0.000232 -0.006561 -0.001023 0.001971 0.000297 -0.003821 -0.002909 0.015757 0.009552 -0.002234 0.009645 0.011923 -0.003888 0.005733 0.003906 -0.008122 -0.006053 0.000187 -0.006466 0.004953 0.013277 -0.011734 0.004012 0.006024 -0.008391 0.003322 -0.006812 -0.011148 0.015508 0.000286 -0.005940 0.005042 0.008387 0.003138 -0.004706 -0.004754 0.012754 -0.001626 0.008147 -0.007625 0.006137 -0.003673 -0.016091 0.005135 0.003823 0.004777 -0.012161 -0.016629 0.000472 -0.008311 -0.000978 0.010560 0.010919 0.004720 0.005246 -0.002460 0.014090 0.018258 -0.006050 -0.012793 -0.003437 -0.003972 0.003281
fold -0.182120 -0.051068 0.052066 0.045017 0.025185 -0.031918 -0.012873 0.036082 -0.035017 0.068089 0.110419 -0.035643 -0.013248 0.016862 -0.028674 -0.093592 0.052422 0.102942 -0.051135 -0.014175 -0.003588 0.040880 -0.050273 0.048790 -0.000456 0.219478 0.037482 -0.001701 0.021357 0.050125 0.111827 0.065259 0.040218 -0.038867 0.024991 0.093268 0.023397 -0.120543 -0.003816 -0.178668 0.136378 0.038017 -0.122241 -0.079749 0.094881 -0.003864 0.170446 -0.048087 0.132137 0.025870 -0.076335 0.042929 -0.104653 0.004297 0.045533 -0.014420 0.037093 -0.062522 -0.023417 -0.038576 0.077315 0.045564 -0.160240 -0.098454 -0.019155 0.026640 -0.010502 -0.089445 0.028981 0.097999 0.020369 0.094355 -0.003105 0.047632 0.077484 -0.071944 -0.142175 0.010550 -0.061511 0.053212 0.050988 -0.053064 -0.110040 -0.008625 -0.060464 -0.097505 -0.039215 0.065916 0.033386 0.024704 0.162760 0.148399 -0.016266 0.166159 0.178214 -0.011726 -0.020088 0.006214 -0.062538 -0.022568
gene.genex -0.019645 -0.005763 0.013696 -0.003746 -0.008754 -0.009136 -0.002441 -0.004703 -0.016039 0.014498 0.022049 -0.011247 -0.014910 -0.004335 -0.001946 -0.022813 0.007856 0.008313 -0.009561 -0.002915 -0.011418 0.004588 -0.008631 0.014681 0.003633 0.021075 0.011242 0.003478 -0.008088 -0.003130 0.025751 0.006439 0.002413 -0.013661 0.001427 0.019412 0.004708 -0.017303 0.004683 -0.026059 0.024346 0.001417 -0.021331 -0.009315 0.013321 -0.002802 0.024686 -0.007116 0.018050 0.000524 -0.005988 0.001016 -0.005623 0.002739 0.006418 -0.000742 0.009064 -0.007360 -0.010447 -0.019405 0.012169 0.013931 -0.014780 -0.015103 -0.000087 -0.001391 -0.015539 -0.010509 0.002801 0.015618 0.002893 0.013715 -0.001252 0.001760 -0.001409 -0.007788 -0.016373 -0.000384 -0.001923 0.013622 0.016675 -0.021024 -0.023865 0.008741 -0.008203 -0.014985 -0.008743 0.005601 0.009797 -0.003486 0.020984 0.020367 0.005644 0.023729 0.032662 -0.007701 -0.000814 0.007210 -0.006085 -0.013372
includ -0.031354 -0.012209 0.009983 0.001689 -0.001419 -0.010010 -0.006544 0.008783 -0.012016 0.013684 0.015862 0.006756 0.007030 0.000216 -0.001241 -0.023657 -0.001287 0.022249 -0.015196 -0.003213 0.001730 -0.001645 -0.001525 0.009405 -0.003927 0.035043 0.007938 -0.000976 0.002007 0.019362 0.011817 0.017969 0.011025 -0.006955 0.011898 0.025922 -0.003951 -0.016278 0.000971 -0.029903 0.014109 0.015749 -0.020870 -0.013092 0.011330 0.002259 0.020536 0.004053 0.033206 0.006766 -0.008147 0.003854 -0.017973 -0.003309 -0.000751 -0.005873 -0.000241 -0.007675 -0.008824 -0.004049 0.015285 0.000788 -0.025120 -0.023619 -0.001394 0.002858 -0.000489 -0.024223 0.010459 0.009159 0.002348 0.020509 0.008868 0.009310 0.016766 -0.002714 -0.029160 -0.002511 -0.016562 0.013951 0.014168 -0.013751 -0.010425 0.001867 -0.003058 -0.014850 -0.014695 0.013762 0.003665 0.010737 0.027963 0.027425 -0.012060 0.025934 0.020518 0.000235 -0.009773 0.004780 -0.003642 -0.008900
member -0.139656 -0.015148 0.037539 0.021746 0.011191 -0.023535 -0.019752 0.018747 -0.027785 0.053802 0.076115 -0.027166 -0.017039 0.003187 -0.031033 -0.072648 0.034837 0.080143 -0.036832 0.004528 -0.007713 0.024431 -0.043856 0.027628 0.006608 0.142386 0.033095 -0.006096 0.017978 0.026372 0.083235 0.049734 0.028038 -0.040058 0.008896 0.060253 0.005977 -0.086393 -0.000089 -0.128295 0.092418 0.024035 -0.089047 -0.048941 0.059111 -0.008852 0.120432 -0.038935 0.085585 0.018822 -0.050486 0.032104 -0.064337 0.002744 0.033705 -0.007749 0.025023 -0.052091 -0.016254 -0.037625 0.051606 0.045500 -0.093322 -0.070369 -0.010186 0.010924 -0.019976 -0.080356 0.017498 0.058954 0.011570 0.061298 -0.004747 0.020973 0.052554 -0.064708 -0.107356 0.012766 -0.030933 0.041585 0.054557 -0.043915 -0.084612 -0.004779 -0.038163 -0.073806 -0.040335 0.037545 0.027473 0.017700 0.113821 0.102319 0.000281 0.119125 0.145652 -0.003908 0.001131 0.009420 -0.045588 -0.035914
ngenepromot -0.102483 -0.035923 0.027380 0.025716 0.018143 -0.025252 -0.008786 0.018981 -0.014730 0.040340 0.064583 -0.019516 -0.014072 0.009685 -0.022792 -0.048267 0.033522 0.059189 -0.027268 -0.006496 -0.003853 0.016441 -0.026103 0.032802 0.006136 0.126832 0.020517 0.004370 0.019384 0.030811 0.066629 0.031556 0.019714 -0.025522 0.019818 0.061579 0.021215 -0.070902 -0.008375 -0.106691 0.079807 0.020503 -0.079290 -0.047090 0.058516 -0.007196 0.098284 -0.024200 0.079430 0.014061 -0.040091 0.028323 -0.069124 0.000009 0.029900 0.000084 0.016187 -0.039115 -0.015840 -0.022786 0.045470 0.030463 -0.093477 -0.054036 -0.015541 0.008596 -0.006221 -0.052600 0.018959 0.060834 0.013473 0.060477 -0.000388 0.030048 0.040576 -0.042708 -0.079211 0.007272 -0.032374 0.028508 0.030746 -0.035683 -0.057804 -0.002237 -0.037657 -0.053094 -0.019246 0.043316 0.021136 0.016377 0.094812 0.081745 -0.011992 0.097007 0.101430 -0.008850 -0.015557 0.012167 -0.039652 -0.011209
ogenepromot -0.104217 -0.016672 0.021184 0.025904 0.003415 -0.014154 -0.015568 0.015521 -0.014791 0.033729 0.059460 -0.021255 -0.005961 0.011878 -0.019103 -0.058453 0.028277 0.059096 -0.033820 -0.001443 -0.001130 0.025387 -0.040306 0.025818 0.000590 0.116110 0.028096 -0.009201 0.022407 0.021495 0.058676 0.031008 0.021262 -0.021105 0.009592 0.055378 0.001482 -0.071006 -0.005030 -0.104350 0.067831 0.027925 -0.079144 -0.037128 0.050639 0.005053 0.103892 -0.020553 0.081802 0.012239 -0.036618 0.022989 -0.056100 0.004009 0.025322 -0.003715 0.019704 -0.043131 -0.007971 -0.033230 0.041500 0.033871 -0.083372 -0.055473 -0.004825 0.004147 -0.008499 -0.048476 0.013421 0.056839 0.008908 0.054419 -0.005709 0.014635 0.048649 -0.042947 -0.085982 0.004288 -0.023168 0.026920 0.027813 -0.033534 -0.067233 0.002877 -0.032360 -0.051852 -0.021870 0.033696 0.022433 0.012289 0.085746 0.075091 0.001990 0.091780 0.098711 0.000914 0.000160 0.013360 -0.037349 -0.029578
