genex -0.181644 0.099193 0.219173 0.362796 -0.449085 -0.596437 0.062334 0.197745 -0.305828 0.489710 0.563564 0.447254 0.305010 -0.605953 -0.775145 -1.063879 0.740921 -0.272111 0.164819 0.103612 0.523183 0.190493 -0.318524 0.104029 -0.971685 0.511950 0.241466 -0.687724 -0.722497 0.141140 -0.422024 0.073938 -0.834318 0.143651 0.273384 -0.237266 0.412423 0.014708 -0.228504 -1.276684 0.181430 -0.215167 0.494751 -0.487303 -0.493967 -0.485161 -0.261622 0.212476 1.043153 0.389221 1.628077 -0.121970 0.091668 -0.260281 0.231405 -0.195741 -0.323755 0.258496 -0.141159 0.513333 0.016186 0.335240 0.380843 -0.110504 -0.558590 0.331024 -0.443213 0.083288 -0.106107 0.818318 0.104672 0.565202 -0.538400 0.193329 0.056543 -0.012685 -0.167553 -0.627886 0.569660 0.217612 0.467460 0.534805 0.413721 1.097610 0.566739 0.151281 -0.161385 -0.089876 0.651090 -0.396106 0.781066 -0.368068 -1.159872 -0.453207 -0.122865 -0.331108 0.836906 0.477130 -0.034071 -0.174431
the 0.212384 0.106751 0.121140 0.377248 -0.275064 -0.902837 1.074964 0.757384 -0.437346 0.480640 0.321871 0.071705 -0.012539 -0.333929 -1.401966 0.655936 0.497490 -0.572680 0.195112 0.160829 1.188213 0.525206 0.631398 0.127289 -0.581049 0.238667 0.374760 0.256579 0.162759 0.816718 -0.170196 -0.203271 -0.589698 -0.882559 0.474062 -0.496813 0.283702 0.443095 0.304420 -0.647349 0.446120 -0.593598 0.514690 -0.624910 0.803768 -0.061199 -0.135094 -0.565030 0.181443 -0.164177 0.773517 -0.191442 0.112103 0.156325 0.785932 -0.176643 0.008812 0.456084 0.487357 0.521843 0.394680 0.770199 -0.249159 0.345900 -0.246979 -0.373549 0.119031 -0.273013 0.308131 0.391015 -0.342360 1.065640 0.396776 0.124467 0.035139 -0.718439 -0.273164 -0.281241 0.689705 -0.442462 0.648575 0.185855 0.381324 -0.200489 -0.142754 -0.290086 0.094750 0.502769 0.193043 -0.451402 0.064865 -0.176975 -0.204096 0.118243 -0.864939 -0.659886 0.958487 -0.445590 -0.376380 0.272833
of -0.054872 -0.161658 0.628382 0.709261 -0.095166 -0.962673 0.164092 0.359874 0.189945 0.948300 0.403875 0.112698 0.155545 -0.245329 -0.850795 0.441332 -0.189628 -0.923300 0.419375 0.339048 1.067837 0.203790 0.428149 0.026847 0.270824 0.032220 -0.786804 0.039732 -0.023129 0.533766 -0.345749 -0.324944 -0.280868 -0.156446 0.217387 -0.190235 0.233560 0.041285 0.216533 -0.605533 0.792401 -0.557421 0.893842 -0.790743 0.154530 -0.431012 0.378996 -0.156172 0.314327 0.670113 2.156192 0.335188 0.032428 0.200465 0.546115 -0.356427 -0.351484 -0.281269 0.571645 0.428745 -0.289023 0.671699 0.076410 0.206169 0.396144 0.776121 0.107206 0.061362 0.770481 0.268947 0.010587 0.861625 0.022031 0.858124 0.648103 -0.101339 -0.187241 -0.929931 0.322650 0.434941 0.762560 0.122826 0.440905 0.586648 -0.097421 -0.033538 -0.099086 -0.455630 -0.050250 -0.242945 -0.225438 -0.411867 -0.528363 0.446088 -0.854082 -0.144363 0.823570 0.042182 0.299809 -0.170564
and -0.528839 0.597567 -0.256691 0.327067 -0.678349 -0.535530 0.466439 0.093137 -0.115988 -0.188922 0.430706 0.107980 0.472489 -1.086750 -0.383476 -0.663340 -0.028659 -0.057597 0.414261 0.069230 0.338707 0.058943 -0.380904 0.546224 -1.187301 -0.078513 0.343071 -0.205465 -0.653048 0.074632 -0.623324 0.057999 -0.674913 0.233043 0.692457 -0.558508 -0.068760 -0.142312 0.032715 -1.415392 0.197631 0.253900 0.686557 0.009856 -0.529483 0.027765 -0.372298 -0.031896 0.748494 -0.067761 1.375679 -0.113996 -0.311871 -0.641724 0.460084 -0.264384 -0.502305 0.313526 0.087134 0.191944 0.268529 0.323909 0.075226 0.192285 0.276370 0.264884 -1.076238 -0.265679 -0.179191 0.398468 0.014376 0.143867 0.068306 0.835639 0.188569 -0.775824 -0.190195 -0.057605 0.674112 0.049203 0.434625 -0.335831 0.101998 -0.261977 0.801361 -0.193852 0.196070 -0.356906 -0.101532 -0.276881 0.342715 -0.127925 -0.626739 -0.014270 -0.194416 -0.453517 0.989420 -0.447731 0.120756 -0.084778
in 0.656772 0.129365 0.520236 0.503416 -0.379916 -0.207162 -0.129977 0.431816 -0.186195 0.126349 0.238067 0.089679 0.384122 -0.871467 -0.293095 0.557647 0.269739 -0.380457 0.149977 0.357932 0.559452 -0.000872 0.343799 0.476840 -1.248189 0.449868 -0.022426 0.327994 0.245649 0.010795 -0.180881 0.675584 -1.106758 -0.151218 -0.185481 0.315192 -0.220377 -0.220859 0.120111 -2.050543 -0.465694 -0.408454 -0.218316 -0.578140 -0.977249 -0.576037 -0.149206 0.043906 0.114385 0.083358 1.235900 0.035459 0.057345 -0.173241 0.591342 -0.584128 -0.237564 0.288766 -0.232773 0.274566 0.790896 0.650050 0.399436 0.394922 0.179205 0.279364 0.191831 0.131539 -0.709533 0.831642 0.236669 -0.073867 0.236041 0.604646 0.428903 0.137062 0.387377 0.181176 -0.285230 0.496055 0.967677 -0.624424 0.261092 -0.435993 0.669135 0.690579 0.497103 0.309639 -0.122733 -0.468516 -0.137538 -0.032533 -0.675071 0.406797 -0.000084 -0.619610 1.093955 0.238044 0.115356 -0.353918
gene2 0.064882 -0.149982 0.226301 0.748110 -0.109179 -0.803254 0.418880 0.346906 0.042099 0.558793 0.224523 0.578307 0.370238 -0.501854 -0.682390 -0.247447 -0.120934 -0.072308 0.416041 0.389890 0.779821 -0.042659 0.421110 0.930214 -0.528284 0.321721 0.753752 0.226383 -0.480064 0.892718 -0.437678 -0.356882 -1.306200 -0.113359 0.283925 -0.860298 -0.226701 0.240473 0.078921 -0.810696 -0.152888 -0.686395 0.261852 -0.043062 0.342661 -0.168434 -0.208877 0.022530 0.276011 0.200863 0.700026 0.319269 0.301114 -0.930101 0.988087 0.405364 -0.045611 -0.033186 0.664473 0.438129 0.377553 0.924628 -0.358131 0.173536 0.062053 -0.441613 -0.426796 -0.283865 -0.250569 0.317852 0.535640 0.610135 -0.014401 0.893413 0.411715 0.247642 0.238725 -0.469007 0.492737 -0.277807 0.302508 -0.177169 -0.081291 0.064440 0.299035 0.219207 0.369683 -0.202464 -0.168171 -0.188963 -0.121282 0.250133 -0.960616 -0.310451 -0.680971 -0.679272 0.816588 -0.400146 0.162837 0.330266
gene1 0.157329 -0.271910 -0.336900 0.647766 -0.093550 -0.608315 0.165226 0.032424 0.182162 0.450564 0.193316 0.076790 0.034163 -0.198134 -0.308685 -0.090596 0.334628 0.050236 0.743605 0.225786 0.587594 0.475190 0.030427 0.352123 -0.425249 0.125775 0.693621 0.141955 -0.427498 -0.163198 -0.608649 -0.526558 -1.011466 -0.128049 -0.164021 -0.476366 0.155870 0.240175 -0.401099 -0.503651 0.366025 -0.796403 0.282990 0.028327 0.110604 -0.387037 0.153290 0.032307 0.320062 0.845630 0.841570 0.194876 0.322765 -1.122777 0.415005 0.256042 -0.373224 0.184944 0.232416 0.269448 0.036737 0.833185 -0.523669 0.597438 -0.034503 -0.287323 -0.534362 0.103517 -0.057357 -0.018870 0.205059 1.043925 -0.195159 1.092653 0.184234 0.398212 0.060443 -0.403078 0.810320 0.018922 0.440139 0.195792 0.044416 0.913437 0.458152 0.223819 -0.208788 -0.169825 0.156492 0.150283 0.056548 -0.097810 -0.528038 -0.242855 -0.887966 -0.433542 0.539777 -0.250927 0.044312 0.371474
to 0.303865 0.181740 0.313617 -0.077874 -0.630234 -0.237438 0.572578 -0.220927 -0.620545 0.263540 0.265277 -0.359429 0.085216 -0.407817 -0.862547 0.462885 0.402878 0.219606 0.359048 -0.404516 0.573039 -0.813066 0.568026 -0.320696 -0.064291 -0.043941 0.379351 -0.095017 -0.624275 -0.083264 0.224291 -0.247505 0.119886 -0.616613 0.565872 0.874632 -0.414588 -0.124859 -0.387029 -0.492647 -0.543510 -0.784736 -0.069743 0.121834 -0.298943 -0.580410 -0.010746 -0.121591 0.822620 -0.085712 1.218975 0.111569 0.177876 -0.159339 0.656182 0.283818 -0.843449 0.265042 -0.009286 0.962256 0.334051 0.804130 -0.055514 0.371478 0.039622 0.553017 -0.544061 0.678877 -0.122005 -0.172113 0.886995 0.676890 -0.025803 -0.182586 0.438110 -1.054017 -0.084846 -0.583681 0.417310 0.321423 0.444460 0.528892 -0.185594 0.857319 0.644704 0.202461 -0.278982 -0.117710 0.497765 -0.268701 -0.202297 0.226038 0.451578 0.560240 -0.833128 -0.799392 0.609714 -0.466018 0.490081 0.364847
promoter 0.109738 0.319056 -0.157099 0.228107 -0.041556 -0.820649 0.790748 0.809996 -0.237784 0.232128 0.255618 0.459768 0.138126 -0.410414 -0.668893 0.270780 0.245599 0.322245 0.047485 -0.113532 0.592135 -0.154010 0.565427 0.096464 -0.297409 -0.000261 0.462880 0.198124 -0.398379 0.625672 -0.156346 0.059783 -0.370377 -0.150466 0.401994 -0.592058 -0.271649 0.451517 -0.043242 -0.733289 -0.330629 -0.455806 0.244664 0.304604 0.317393 -0.375407 -0.189254 0.106785 0.106048 0.104945 0.353894 0.278730 0.134890 -0.504385 0.857901 0.420745 -0.222940 0.190530 0.703855 0.209640 0.212845 1.146221 -0.391419 0.226035 -0.043291 -0.666864 -0.301997 -0.611435 -0.208233 0.312719 0.192194 0.638986 0.165186 0.142066 0.153103 -0.343492 0.068807 -0.383540 0.317294 -0.495208 0.212077 0.211099 0.187962 -0.117723 0.458172 -0.030469 0.391298 0.366517 0.028003 0.013800 0.064268 0.790821 -0.418571 0.114348 -0.652699 -0.628946 0.669131 -0.803714 -0.052018 0.463851
that 0.311134 0.123630 0.009734 0.106847 -0.295405 -1.061604 -0.025125 -0.069549 -0.246773 -0.186587 0.453130 -0.066897 -0.573920 -0.363767 -0.676749 0.303089 0.892535 -0.241869 0.405391 0.197886 0.666941 0.828008 -0.065154 0.118407 -0.919799 0.227873 0.311492 -0.228573 -0.511422 -0.425565 -0.205311 -0.260970 -0.971172 -0.478608 -0.058028 -0.075890 0.198133 -0.031755 -0.764803 -0.726979 0.178553 0.052035 0.336339 -0.601882 0.013209 -0.149224 0.436599 -0.622219 0.137625 0.785536 0.281642 0.014828 -0.070720 -0.873390 0.479173 -0.129428 -0.359350 0.196895 -0.508431 0.198592 0.147557 0.208843 -1.022909 1.045196 0.455227 0.109023 -0.377885 0.160531 -0.295723 -0.138996 -0.473244 0.889590 0.587328 0.219231 0.241355 -0.513876 0.092770 0.249363 0.240849 0.377323 -0.093359 0.147737 -0.689958 0.703912 0.281869 -0.114205 0.119217 0.167140 0.481614 -0.287231 -0.023117 -0.030667 0.429421 -0.055317 -0.242073 -0.593234 0.573787 -0.217985 0.078176 0.380009
expression 0.062125 -0.210028 0.208229 0.612642 -0.199906 -0.622103 -0.037520 0.155808 0.149833 0.597857 0.137071 0.527715 0.308570 -0.539468 -0.272540 -0.399183 -0.200138 -0.172182 0.316773 0.485871 0.664070 -0.086775 0.104545 0.711675 -0.560375 0.094646 0.216469 0.342457 -0.389630 0.537314 -0.549587 -0.187096 -0.912244 0.139758 0.024662 -0.496750 -0.071826 0.037413 0.082275 -0.753199 0.009136 -0.286309 0.149240 -0.210169 0.084615 -0.222912 -0.091451 -0.073891 0.062068 0.582392 0.673799 0.295427 0.332566 -0.624469 0.393669 0.178206 0.054271 -0.120762 0.463436 0.370957 0.142261 0.344872 -0.067798 0.359123 0.272458 -0.080237 -0.558080 -0.158489 -0.063999 0.106326 0.190839 0.206336 -0.125568 1.033224 0.480838 0.240832 0.187873 -0.313672 0.251891 0.030095 0.110036 0.113169 -0.007963 0.117488 0.297413 0.195198 0.211752 -0.371298 -0.275402 -0.346064 -0.031058 -0.036950 -0.724195 -0.325727 -0.200489 -0.389381 0.622918 0.022588 0.257180 0.031315
by 0.271864 0.143606 -0.180749 0.516719 0.365380 -0.256700 0.186715 0.179186 -0.094104 0.023743 0.062624 -0.147885 0.204762 -0.296479 0.323305 -0.280634 -0.236243 -0.121078 -0.102349 -0.407956 0.482058 -0.043165 0.111408 0.111902 -0.090718 0.154865 0.095819 -0.165675 -0.048279 0.069825 -0.597955 -0.432070 -0.418312 -0.234291 0.113505 -0.431023 0.371946 0.396553 0.208105 -0.709985 0.552322 -0.391052 0.475847 0.117487 -0.214590 -0.129331 -0.071716 0.461762 0.404688 0.458363 0.621689 0.231626 -0.595647 -0.993457 0.672287 0.032536 -0.160584 0.258673 0.621578 0.092677 0.542752 0.670541 -0.031685 -0.075772 0.132222 0.019996 -0.691280 -0.434752 -0.152833 0.122918 0.217380 0.567770 0.356212 0.880562 0.139327 0.074302 -0.293522 -0.589225 0.732528 -0.303199 0.289969 -0.253654 0.579823 0.384669 0.178005 0.196417 -0.047830 -0.284703 -0.157981 -0.014550 0.305796 0.519108 -0.297516 -0.007710 -0.767939 -0.519098 0.076817 -0.400570 0.465817 -0.189930
gene 0.001187 -0.207575 0.247710 0.570358 0.095050 -0.878030 0.197547 0.360305 -0.162068 0.240535 0.264492 0.431075 0.086371 -0.235853 -0.455174 -0.251822 0.087284 -0.420056 0.077026 0.290324 0.728130 0.030162 0.293412 0.687303 -0.454810 0.505008 0.344347 0.159080 -0.172639 0.682395 -0.318471 -0.177441 -1.011628 -0.239174 0.055575 -0.751103 0.090551 0.287944 -0.004023 -0.655936 0.006483 -0.372187 0.226907 -0.344406 0.375179 -0.143942 -0.104555 0.039321 0.165232 0.479953 0.253549 0.239905 0.090449 -0.699887 0.744572 0.291937 0.151321 -0.050819 0.447124 0.178469 0.358553 0.392454 -0.236515 0.223091 0.193472 -0.305474 -0.201037 -0.396855 -0.282914 0.156185 0.091012 0.587359 0.244570 0.557107 0.525090 0.256737 0.065859 -0.215229 0.166490 -0.318352 -0.076868 -0.055946 -0.201940 0.180094 0.088840 0.270421 0.322689 -0.037678 0.024611 -0.330119 -0.039166 0.262232 -0.611170 -0.377407 -0.321873 -0.317605 0.363538 -0.108110 0.095478 0.071095
transcription -0.168958 -0.206108 -0.041241 0.544970 0.137698 0.085423 0.261499 -0.300258 -0.021792 0.167423 0.212865 -0.156120 0.230304 -0.360912 -0.636485 -0.377057 0.140450 -0.342518 0.237840 -0.113035 0.854058 0.569705 -0.252112 0.588302 -0.297668 0.450917 0.682843 -0.123773 -0.289077 0.555997 0.019994 -0.436948 -1.110382 -0.470481 0.424952 -0.639439 0.193035 0.342777 -0.101691 -0.465433 0.600044 -0.618973 0.400749 -0.243166 0.205081 0.136495 0.397409 -0.249000 0.609053 0.061580 0.485115 -0.171079 -0.139717 -0.523209 0.795250 0.018843 -0.164128 0.137336 0.026577 0.338018 0.312453 0.367906 -0.351107 0.161305 -0.486677 0.191212 -0.159362 0.272651 -0.082519 0.388221 0.060533 0.660726 0.205025 0.613412 -0.195307 -0.065746 0.205024 -0.476523 0.602664 -0.145000 0.337279 -0.075307 0.107053 0.372074 0.155223 0.296401 0.022814 0.163755 -0.101501 -0.354294 0.131763 -0.351505 -0.758851 -0.586905 -0.348499 -0.331426 0.379256 0.022997 0.338670 0.109272
with 0.188454 -0.150599 -0.324136 -0.024363 0.013358 -0.049209 0.424172 0.278704 -0.488721 0.241588 -0.132248 -0.224065 -0.009269 -0.180788 -0.128808 0.057600 0.068659 0.013806 -0.161549 -0.343591 0.535498 -0.168636 -0.062528 -0.349612 0.129540 0.104090 -0.314834 0.173318 -0.252269 0.007051 -0.047333 -0.054119 0.306677 -0.131643 0.221883 0.227560 0.084131 0.383851 -0.345328 -0.915014 0.487870 -0.454877 -0.045271 0.372694 -0.547306 -0.609104 0.312384 -0.023956 0.291334 0.803108 0.653922 -0.176137 0.066590 -0.099857 0.418340 -0.010577 -0.157309 0.160163 0.094068 0.269129 -0.440177 0.393162 0.186701 0.554686 -0.192539 0.398918 -0.575980 -0.208386 0.416609 -0.082799 0.070159 0.628092 0.037743 0.482315 -0.027193 -0.388412 -0.044830 -0.598176 0.101479 0.143949 0.432968 0.926395 0.746559 0.510308 0.719335 0.279771 -0.019020 0.006679 -0.380187 -0.145139 0.219167 -0.007655 -0.447227 -0.196472 0.149419 -0.161270 0.212168 -0.013612 0.382576 -0.138503
cells 0.373925 0.257823 0.153709 0.496529 -0.132905 -0.033364 -0.274530 0.381484 0.024490 0.267924 0.225832 0.199433 0.206969 -0.758622 0.484342 0.323780 -0.091640 -0.074769 -0.067251 0.210247 0.124093 -0.151706 0.096890 0.154104 -0.370751 0.318693 -0.084931 0.541877 0.518376 0.340476 -0.171368 0.567464 -0.486497 0.264852 -0.120552 0.018551 -0.296199 0.172972 0.263559 -1.268513 -0.353360 -0.423667 -0.149075 -0.136660 -0.637252 -0.492918 -0.322533 0.372851 -0.027986 0.233380 0.418236 0.336023 -0.134599 -0.489477 0.225681 -0.157908 -0.033774 0.119798 0.037680 0.018374 0.448423 0.177790 0.596670 0.097242 0.215150 -0.012053 -0.224633 -0.365176 -0.703951 0.576048 0.302365 -0.289434 0.445619 0.735351 0.447678 0.096291 -0.054226 0.061114 -0.189471 0.290162 0.217216 -0.565084 0.672534 -0.143036 0.383111 0.411653 0.049422 0.174514 -0.326569 -0.263613 -0.129040 0.191942 -0.325139 0.291701 0.262559 -0.222105 0.375377 0.097233 0.156596 -0.264929
activity 0.098312 0.069718 -0.098158 0.377346 0.204379 -0.568005 0.436269 0.755197 -0.051801 0.195570 0.147308 0.377677 0.164556 -0.161536 -0.102752 0.293923 0.041871 0.177225 0.102667 -0.101670 0.409961 -0.148185 0.457745 0.215873 -0.007341 -0.029351 0.112787 0.392617 -0.029233 0.329595 -0.210396 0.119407 -0.248452 0.089678 0.064945 -0.664024 -0.006686 0.362688 0.044988 -0.580576 -0.125205 -0.322012 0.188135 0.391805 0.044455 -0.313694 -0.225755 0.353687 -0.053399 0.402643 0.489890 0.298700 -0.036004 -0.409482 0.698992 0.278777 -0.043534 0.120405 0.660246 -0.243865 -0.005871 0.947866 -0.181079 0.039161 0.078149 -0.531492 -0.095390 -0.799421 -0.096121 0.198421 0.002080 0.522168 0.130638 0.434165 0.103300 0.167396 0.151960 -0.191251 -0.081364 -0.481287 0.358000 -0.106075 0.220412 -0.137317 0.292330 0.161141 0.336570 0.096854 -0.002179 0.149494 -0.010647 0.570160 -0.488241 0.107944 -0.594071 -0.334749 0.376691 -0.526696 0.001651 0.110012
is 0.395915 -0.229725 -0.010650 0.536772 0.383050 0.243383 -0.097921 -0.307529 -0.442921 -0.121463 0.038695 -0.189734 0.140147 -0.400956 -0.098720 0.026952 0.084245 -0.215878 -0.076580 -0.201505 0.686060 -0.130972 0.072577 0.287503 -0.449015 0.266923 0.252224 -0.071099 -0.173810 -0.294324 0.154042 0.249295 -0.794341 -0.542547 -0.229831 -0.085934 0.288972 -0.007886 -0.304016 -0.616449 -0.158409 -0.536512 0.188825 0.192317 -0.456146 -0.136043 0.301274 0.093972 0.457672 0.338189 0.417664 -0.108024 -0.339783 -0.463820 0.997872 -0.204211 0.022101 0.178583 -0.328711 0.016119 0.847285 0.608030 -0.158524 -0.348609 -0.115033 0.513086 0.081996 0.179607 -0.225673 0.297970 0.129373 0.732565 0.184516 0.248416 -0.134879 0.114444 0.480923 -0.173383 -0.181159 -0.224369 0.502235 -0.008717 0.001733 0.381089 0.333846 0.746286 0.214407 -0.053486 0.000943 -0.273610 0.116378 0.219380 -0.534828 -0.458085 -0.376865 -0.542887 0.097167 0.035503 0.599675 -0.651632
for 0.181267 -0.185801 -0.085577 0.466946 0.500802 0.080588 0.077882 0.033315 -0.618846 -0.224136 0.032428 -0.021336 -0.094215 -0.124649 -0.156134 0.353562 0.224203 -0.407947 -0.165698 -0.212579 0.887048 -0.016818 0.119602 0.231370 -0.122598 -0.047945 -0.150045 0.060738 -0.073860 -0.738455 0.208132 0.328900 -0.542045 -0.561263 -0.457646 -0.227142 0.538124 -0.244808 -0.218176 -0.429985 -0.021302 -0.127785 0.310456 0.180834 -0.159909 -0.144645 0.299236 -0.058999 0.233075 0.590615 0.462294 -0.330927 -0.317919 0.024918 0.820937 -0.111184 0.035095 0.196143 -0.354177 -0.244486 0.500722 0.577219 -0.060901 -0.433553 0.172918 0.573351 0.510721 -0.030902 0.151720 0.033230 -0.255697 0.931319 0.162705 -0.043715 -0.232093 -0.041562 0.668662 0.201569 -0.552935 -0.345105 0.522712 0.328169 -0.114513 0.325732 0.204497 0.634535 0.272796 -0.130893 0.227455 -0.297444 -0.125507 0.209751 -0.407554 -0.473354 -0.436209 -0.311230 0.040193 -0.047897 0.345332 -0.933795
regulation 0.207424 -0.416477 0.471541 0.583024 -0.109827 -0.336208 -0.100386 -0.150217 -0.083813 0.074931 0.057654 -0.150315 0.204872 -0.188796 -0.468058 0.096956 -0.166487 -0.301378 0.510053 0.199041 0.726903 0.052514 0.409091 0.505429 -0.393623 0.240537 -0.145974 0.102508 -0.214792 0.010159 -0.246129 -0.310241 -0.679002 -0.087376 -0.002696 -0.062137 0.337742 -0.207070 -0.062542 -0.243536 0.151525 -0.060696 0.186495 -0.233490 -0.187195 0.023149 0.035575 0.080523 -0.166382 0.440457 0.891664 0.020927 0.023623 -0.040589 0.794086 -0.112978 0.013372 -0.178770 0.252837 0.167403 0.278380 0.401000 -0.168591 0.255945 0.485954 0.428216 0.064292 0.074932 0.137333 -0.048769 -0.075320 0.684631 -0.176101 0.347708 0.178122 0.454510 0.345927 -0.162449 -0.397956 0.046833 0.650463 -0.308001 -0.400489 0.006347 -0.098342 0.322075 0.435782 -0.439058 0.117033 -0.143953 -0.198514 -0.302297 -0.487655 -0.114881 -0.652540 -0.428801 0.654076 -0.114813 0.504783 -0.398182
as -0.835490 -0.145895 0.489197 0.244077 -0.034581 -0.978103 0.481933 0.331174 -0.318465 0.123718 0.608564 0.265463 -0.131156 0.169792 -0.439751 -0.084554 0.337058 -0.002742 0.293342 -0.073531 0.468813 -0.516916 -0.024158 -0.073547 0.225768 0.397406 0.072573 -0.165334 -0.323230 0.428013 0.025175 0.395396 -0.381589 0.541221 0.308759 -0.563657 0.243716 0.465076 -0.367038 0.012698 0.057179 -0.050387 0.747969 0.347050 -0.005692 -0.078156 -0.388528 0.430226 0.490836 0.799729 0.996265 0.319480 -0.272333 0.256322 0.656668 0.158121 -0.038588 0.320044 0.452132 -0.518615 -0.626693 0.231862 0.097411 -0.077434 0.045600 -0.164588 0.511502 -0.579849 0.323028 -0.235752 -0.652578 0.926883 0.096141 -0.208723 0.231129 -0.326917 0.136279 -0.091159 -0.379121 -0.510493 -0.029223 -0.344845 -0.586610 0.315124 -0.074657 -0.051610 0.375121 0.006498 0.528850 -0.012207 -0.038029 -0.212785 -0.309529 -0.002463 -0.333783 0.141703 0.075019 -0.058570 0.214444 -0.096291
human 0.167389 -0.063307 0.303832 0.432947 -0.285220 -0.326504 0.042278 0.267885 0.042571 0.300233 0.247110 0.341646 0.336484 -0.391682 -0.356190 -0.056994 -0.136273 -0.168055 0.211246 0.408955 0.322849 -0.043071 0.278926 0.556189 -0.436467 0.316137 0.289489 0.245728 0.083410 0.643141 -0.100333 0.059689 -0.790827 -0.058617 0.101503 -0.320713 -0.152229 0.035073 0.329005 -0.660015 -0.289743 -0.316779 -0.022135 -0.352467 0.003086 -0.157075 -0.393831 0.054997 0.019414 -0.067991 0.361828 0.186198 0.253633 -0.286083 0.386477 0.081228 0.054347 -0.031458 0.254166 0.234584 0.409772 0.210376 0.142408 -0.070706 0.114978 -0.172957 -0.046831 -0.188605 -0.296393 0.458340 0.304542 -0.050882 0.007415 0.393921 0.350813 0.198407 0.011673 -0.034617 0.068974 -0.023196 0.192035 -0.318587 0.024512 -0.234103 0.070097 0.112564 0.205647 -0.027326 -0.117852 -0.272454 -0.137024 0.071216 -0.524507 -0.066510 -0.058811 -0.222483 0.522007 0.031595 -0.017012 -0.010678
transcriptional -0.229243 -0.428902 0.558419 0.512476 -0.012353 -0.555997 0.236693 0.021923 -0.153257 0.114429 0.215174 -0.192555 0.135758 0.024397 -0.530240 0.241731 -0.150713 -0.263191 0.597448 -0.068592 0.732146 -0.207231 0.475596 0.341547 0.126117 0.163958 -0.263736 0.027209 -0.206998 0.131523 -0.062844 -0.162931 -0.374006 0.159904 0.157091 -0.287544 0.450631 -0.034586 -0.076563 0.043146 0.227274 -0.161028 0.470160 0.154011 -0.025121 0.016559 -0.156681 0.385152 0.078853 0.536114 1.351852 0.172716 -0.102431 0.246880 0.842304 -0.027181 -0.102357 -0.045175 0.557029 -0.174262 -0.227424 0.653479 -0.051058 0.050142 0.340938 0.298930 0.396487 -0.201343 0.514423 -0.255280 -0.381837 1.007871 -0.194252 0.155740 0.180726 0.239307 0.257310 -0.300176 -0.538381 -0.191676 0.745060 -0.415775 -0.491867 0.126078 -0.302001 0.210380 0.494669 -0.385298 0.443601 -0.059332 -0.186995 -0.352928 -0.405034 0.120532 -1.004905 -0.319878 0.516496 -0.278433 0.474801 -0.331030
binding 0.199475 0.127564 -0.177354 0.130972 0.208907 0.025438 0.847245 0.293334 -0.494866 0.349490 -0.187796 -0.222928 0.179409 -0.154554 -0.350779 0.229329 -0.052039 0.044489 -0.193613 -0.542929 0.497085 -0.405841 0.360692 -0.333626 0.028322 -0.123190 0.076261 0.152163 -0.140508 0.170986 -0.027311 -0.097396 0.355625 -0.394557 0.351805 0.149376 -0.069253 0.244718 -0.104226 -0.468019 0.127083 -0.654692 0.176966 0.498783 0.036061 -0.319272 0.060641 0.062615 0.514486 0.042974 0.725698 -0.141767 -0.105793 -0.040483 0.701434 0.010597 -0.333681 0.237523 0.264326 0.334559 0.192795 0.780075 0.144289 0.021292 -0.409632 0.081369 -0.311807 -0.175635 0.321960 0.160685 0.333931 0.723337 0.090730 0.279469 -0.117087 -0.544980 -0.041497 -0.740777 0.370113 -0.272313 0.437224 0.609052 0.642345 0.223356 0.473014 0.087655 -0.143320 0.155030 -0.145649 -0.064805 0.176879 0.206421 -0.161027 0.040911 -0.690455 -0.525772 0.330072 -0.421540 0.128429 -0.067410
genes -0.651980 0.106053 0.386300 0.322145 -0.194662 -0.067610 -0.008652 -0.425249 -0.164779 -0.042094 0.343552 0.045834 0.335858 -0.303375 -0.781437 -0.784754 -0.163611 -0.326724 0.070589 0.023413 0.382856 -0.101495 -0.502587 0.362974 -0.377322 0.418516 0.221368 -0.610907 -0.468825 0.522339 0.136991 0.066902 -0.515735 0.007200 0.491682 -0.339829 0.229176 -0.135203 0.069334 -0.109539 0.220348 0.077827 0.662022 -0.245717 -0.203000 0.437329 0.019850 -0.050466 0.817872 -0.320170 0.757391 -0.169898 -0.402602 0.271633 0.583481 -0.265307 0.078783 0.047385 -0.105087 0.086033 0.127540 -0.285509 0.057350 -0.607029 -0.220907 0.557374 0.180878 0.123177 0.138127 0.385315 -0.225143 0.093686 0.100796 -0.150403 -0.074299 -0.367210 0.049538 -0.244639 0.054070 -0.247757 -0.014165 -0.516837 -0.475362 -0.036328 -0.136834 -0.062119 0.298575 -0.141386 -0.010759 -0.476870 0.265873 -0.458307 -0.601902 -0.354267 0.167147 -0.153307 0.268811 0.235029 0.457277 -0.212065
we 0.320165 0.275319 -0.097344 -0.087235 -0.142113 -0.924415 -0.181293 -0.111301 0.086165 -0.275635 0.402642 0.066757 -0.599334 -0.131969 -0.273895 0.208250 0.805016 0.074088 0.182094 0.140701 0.194262 0.814031 -0.209722 -0.030906 -0.518408 0.246348 0.280934 -0.198661 -0.312183 -0.435486 -0.007788 -0.121635 -0.719365 -0.223887 -0.102277 -0.000672 0.080175 0.013675 -0.749612 -0.341655 0.029169 0.314384 0.243055 -0.444667 0.208095 -0.010008 0.425649 -0.468471 -0.088898 0.618296 -0.198809 0.207525 -0.100925 -0.984011 0.086201 0.059174 -0.254953 -0.049352 -0.527434 -0.067784 -0.044537 -0.237422 -1.006940 0.962188 0.542843 0.161840 -0.289524 -0.017146 -0.456622 -0.371106 -0.441058 0.446754 0.624375 0.172579 0.381752 -0.452108 0.010947 0.390105 0.161082 0.449347 -0.567193 0.181383 -0.674321 0.680108 0.282448 -0.107632 -0.038938 0.285381 0.380692 -0.028958 -0.147584 0.168227 0.672887 -0.026141 0.027326 -0.305418 0.082388 -0.018043 -0.291927 0.422722
which 0.155546 -0.179663 0.009364 0.302265 0.199534 0.086409 0.017352 -0.134726 -0.263808 0.092095 -0.007760 -0.188514 0.048053 -0.280052 -0.117376 0.022256 0.072382 -0.191230 -0.031331 -0.116910 0.455506 -0.206745 0.074087 0.075055 -0.293431 0.325130 0.289060 0.049086 -0.123519 0.115132 -0.000813 0.017387 -0.308946 -0.440638 0.139014 0.067535 0.019505 0.113431 -0.175413 -0.506087 0.002131 -0.534009 0.013407 0.183437 -0.204569 -0.194157 0.179056 0.070622 0.365455 0.129816 0.457509 -0.022844 -0.184984 -0.345853 0.653681 -0.031297 -0.066340 0.153203 -0.071397 0.202553 0.468716 0.385027 -0.050994 -0.022591 -0.147813 0.202189 -0.193860 0.151230 -0.214439 0.159895 0.311106 0.388611 0.187990 0.328496 0.071221 -0.115091 0.087486 -0.382396 0.238312 -0.099643 0.239167 0.026664 0.185230 0.301004 0.203123 0.405366 -0.014581 -0.037242 -0.061879 -0.204878 0.090630 0.097821 -0.098232 -0.046043 -0.315610 -0.446777 0.122247 -0.096639 0.375478 -0.070825
activation 0.011482 -0.191966 0.129078 0.349829 0.191100 -0.235383 0.118274 -0.007432 -0.087682 0.051882 0.101650 -0.038851 0.018710 -0.006465 -0.214957 0.153815 -0.019268 -0.227742 0.233465 -0.088327 0.600157 0.044691 0.238980 0.259444 0.107394 0.079410 0.039470 0.013345 -0.100352 -0.098639 -0.027549 -0.223313 -0.443275 -0.176330 -0.083208 -0.348701 0.262609 -0.013733 -0.040062 -0.105016 0.153090 -0.260618 0.276934 0.057054 0.115230 -0.101811 0.133848 0.183448 0.127990 0.422581 0.576442 0.051141 -0.087514 -0.215152 0.549015 0.097147 -0.108270 0.015642 0.172305 -0.024214 0.102701 0.555293 -0.158235 0.024907 0.162528 0.136793 0.185351 -0.060173 0.157244 -0.073674 -0.057154 0.742169 -0.021943 0.240492 0.033572 0.223675 0.234320 -0.166046 -0.083442 -0.118854 0.393641 -0.040755 -0.178733 0.323332 -0.058836 0.242208 0.196533 -0.217600 0.240051 -0.009876 -0.147658 -0.013993 -0.259463 -0.101309 -0.698617 -0.278991 0.228370 -0.208687 0.263909 -0.177480
through -0.121462 -0.469816 -0.002524 0.144220 0.271684 -0.219622 0.188974 0.158122 -0.035117 0.325709 -0.138943 -0.010758 0.161191 -0.172910 -0.153871 -0.382952 -0.189468 -0.256625 0.064813 0.148676 0.594986 -0.117791 -0.039473 0.377590 -0.152453 0.156373 -0.036289 0.252104 -0.354213 0.569234 -0.315001 -0.389407 -0.157668 -0.058869 0.366617 -0.303828 0.009307 0.227816 -0.069852 -0.493620 0.426725 -0.158185 0.058342 0.141355 0.079154 -0.178679 0.217987 -0.046236 0.051064 0.620847 0.458188 -0.132033 0.163255 -0.300098 0.493588 0.160629 0.198877 -0.105034 0.361803 0.191285 -0.241894 0.337711 -0.166895 0.436733 -0.096760 -0.046910 -0.537402 -0.114660 0.297822 -0.131399 0.158362 0.289589 -0.106396 0.698841 0.045663 0.175202 0.099996 -0.662394 0.209260 -0.184474 0.158186 0.504923 0.303928 0.033338 0.245632 0.102661 0.198262 -0.306870 -0.388213 -0.095181 0.102549 -0.039061 -0.456359 -0.333236 -0.123766 -0.177690 0.286272 -0.099518 0.403341 0.082662
factor -0.017920 -0.193011 -0.031753 0.421679 0.221393 0.139270 0.019549 -0.348321 -0.149510 -0.054913 0.211993 -0.201277 0.002043 -0.229145 -0.505312 -0.086411 0.274334 -0.337335 0.123370 -0.141134 0.715403 0.484107 -0.231985 0.354317 -0.310840 0.356646 0.419387 -0.192445 -0.205127 -0.039702 0.142726 -0.110383 -0.889815 -0.529857 0.034629 -0.314408 0.290249 0.088670 -0.278534 -0.305453 0.368031 -0.421593 0.335174 -0.209219 -0.008061 0.109665 0.484872 -0.265159 0.507502 0.139119 0.404989 -0.246347 -0.229378 -0.323729 0.688151 -0.169679 -0.118850 0.149669 -0.351646 0.141854 0.404965 0.295215 -0.319622 -0.067946 -0.308263 0.386808 0.173855 0.365820 -0.094156 0.324323 -0.115682 0.691015 0.246647 0.268975 -0.229646 -0.036452 0.313033 -0.177086 0.210099 -0.079838 0.327194 -0.043314 -0.123995 0.428347 0.080430 0.358798 0.014942 0.103772 0.066490 -0.272918 0.076150 -0.280050 -0.464133 -0.509422 -0.274944 -0.316329 0.181381 0.136007 0.302840 -0.159817
role 0.205794 -0.420777 0.248792 0.356906 0.240761 -0.189285 0.045827 0.343671 -0.230383 0.038885 -0.112269 0.171465 -0.278774 0.033763 -0.166560 0.685357 0.244908 -0.368441 -0.117330 0.195563 0.746790 -0.033484 0.457876 0.246591 -0.057271 0.073910 -0.258067 0.360355 0.091000 -0.444360 -0.067638 0.323988 -0.518204 -0.277884 -0.539882 0.082066 0.248399 -0.228599 -0.167839 -0.474839 -0.031930 -0.161229 -0.017416 -0.172515 -0.051420 -0.323168 0.205205 -0.272281 -0.239919 0.598874 0.499790 -0.211422 0.257405 0.366337 0.528057 -0.182938 0.287322 0.046821 -0.155655 -0.097423 0.208675 0.492247 0.015099 0.085598 0.282792 0.160550 0.742245 0.001297 0.233331 -0.065150 -0.170692 0.619730 0.055371 0.066672 -0.011893 0.369115 0.673717 0.352137 -0.638959 -0.147560 0.552754 0.272510 0.079037 -0.027985 0.060429 0.569267 0.270541 -0.131177 0.099000 0.006847 -0.380092 -0.109314 -0.418753 -0.185506 -0.190577 -0.102883 0.299452 0.177770 -0.007020 -0.636813
an 0.269301 -0.390399 0.140094 0.237150 0.222915 -0.057876 0.167727 0.269913 -0.237448 0.058920 -0.191792 0.175100 -0.183630 -0.131342 -0.157977 0.358705 0.053058 -0.098332 -0.244292 0.063043 0.587420 -0.232180 0.365493 0.212550 -0.169594 0.172973 -0.057801 0.345884 -0.145996 -0.079451 -0.008409 0.295249 -0.372928 -0.244459 -0.211386 0.102710 -0.055102 -0.025346 -0.232323 -0.546289 -0.105214 -0.308386 -0.092674 0.039341 -0.189727 -0.335783 0.252849 -0.249923 -0.062943 0.388684 0.344179 -0.158040 0.277722 0.114480 0.664953 -0.114498 0.326089 0.030091 -0.098396 0.069149 0.261152 0.544280 -0.105114 0.079614 0.054566 0.072761 0.294818 -0.028202 0.039743 0.038862 0.147520 0.420159 0.101302 0.174856 -0.052144 0.160797 0.586446 0.035398 -0.374744 -0.155315 0.416601 0.285218 0.205824 -0.075570 0.294273 0.550597 0.261822 -0.097105 -0.239055 0.000555 -0.199615 0.116464 -0.463997 -0.202566 0.007163 -0.183404 0.264127 0.075001 0.102812 -0.342197
element 0.049156 0.170858 0.125362 0.010487 -0.222169 0.273616 0.603625 0.256803 -0.406544 0.138765 -0.183590 0.005492 0.304806 -0.326314 -0.707517 0.297664 0.119979 0.148189 -0.084811 -0.377213 0.540168 -0.475007 0.554180 -0.269677 -0.209434 0.019258 0.310730 0.042097 -0.239642 0.377800 0.159955 0.102477 0.136148 -0.298087 0.434229 0.281217 -0.396174 0.135840 0.083592 -0.439650 -0.256011 -0.287672 -0.137333 0.369354 -0.058653 -0.228311 -0.040489 0.027821 0.127024 -0.433741 0.289903 -0.102598 0.187403 0.451573 0.441958 0.085389 -0.128337 0.271325 0.278710 0.528035 0.253537 0.689716 0.228320 0.087516 -0.344818 0.025013 0.041577 0.086516 0.076484 0.227067 0.285403 0.170796 -0.112239 -0.289275 -0.133286 -0.569712 0.231877 -0.144917 -0.031638 -0.168604 0.629772 0.223922 0.343197 -0.398228 0.437466 0.111719 0.368861 0.375842 -0.108454 -0.177559 0.101396 0.078854 -0.201999 0.281683 -0.350031 -0.304358 0.473006 -0.427463 0.108334 0.024776
protein -0.183750 -0.230554 0.188770 0.252461 -0.166273 0.029861 0.205443 -0.292755 -0.031748 0.204137 -0.035361 0.010986 0.255929 -0.285864 -0.627957 -0.537340 -0.059658 -0.042555 0.171618 0.025657 0.360363 0.020827 -0.117240 0.264794 -0.428817 0.137015 0.264254 -0.195408 -0.451224 0.362785 -0.078078 -0.159150 -0.305504 -0.049696 0.404114 -0.017515 0.034679 -0.019815 -0.010632 -0.156269 0.175571 -0.183075 0.228657 -0.148351 0.090931 0.103048 0.030950 -0.216171 0.454221 -0.274147 0.574201 -0.112359 0.158182 0.086987 0.248118 -0.142732 0.049415 0.032675 0.050265 0.408055 0.031042 0.021816 -0.067354 -0.040117 -0.275647 0.245138 -0.294571 0.192568 0.066011 0.018719 0.040916 0.170197 -0.165978 0.203321 -0.143459 -0.215067 0.005140 -0.427201 0.319525 0.022119 0.245550 0.155234 0.034159 0.149384 0.099570 0.013794 0.038309 -0.152329 0.021825 -0.287264 0.269201 -0.447005 -0.352638 -0.342080 -0.091659 -0.251384 0.400282 0.134214 0.142335 0.114663
at -0.160469 0.032356 0.242859 0.224187 -0.004335 0.454165 0.459108 -0.437367 -0.216661 0.105899 -0.156775 -0.130183 0.447384 -0.355650 -0.727999 -0.436744 -0.440010 0.054459 -0.150256 -0.410444 0.379627 -0.371005 -0.033837 0.139747 -0.346000 0.085223 0.166487 -0.285083 -0.485581 0.543677 0.248622 0.040287 -0.022207 -0.117810 0.630301 0.181255 -0.229342 -0.007818 0.175503 0.112948 0.068083 -0.229731 0.270955 0.121618 0.099637 0.396736 0.156659 -0.139366 0.548102 -0.837745 0.395566 -0.132759 -0.160374 0.431428 0.561554 -0.247339 0.128353 0.045926 0.150567 0.424813 0.259739 0.086183 -0.021196 -0.388030 -0.452242 0.361848 -0.074166 0.277661 0.099117 0.116643 0.107836 -0.105097 0.106094 -0.154559 -0.227027 -0.487410 0.115712 -0.583345 0.139219 -0.305795 0.209315 -0.005471 -0.025571 -0.316368 0.091324 0.103289 0.326381 0.036843 -0.305051 -0.454575 0.305451 -0.236410 -0.307938 -0.255447 -0.183729 -0.513459 0.348485 -0.024958 0.457048 0.079476
cell 0.016355 0.145029 0.100847 0.410889 -0.379658 0.108102 -0.202353 0.075483 0.092264 0.107089 0.324054 0.066800 0.315713 -0.416037 0.257269 -0.039001 -0.185894 -0.120736 0.260663 0.237234 -0.057928 0.019206 -0.057979 0.145351 -0.320419 -0.138473 -0.147999 0.263811 0.130028 -0.087849 -0.116651 0.335501 -0.279430 0.171020 0.059516 -0.037896 -0.064971 -0.110743 0.252031 -0.637970 -0.142559 0.210443 0.082079 -0.094843 -0.604806 -0.190515 -0.348729 0.098105 -0.044624 0.127709 0.400675 -0.078351 -0.042903 -0.067349 -0.004967 -0.235462 -0.164137 0.090577 -0.166831 -0.075455 0.284002 -0.020950 0.497073 -0.264906 0.209783 0.068446 -0.185180 -0.224853 -0.147620 0.457307 0.019381 -0.399951 -0.008605 0.411887 0.193692 -0.050099 -0.086516 0.268331 -0.180944 0.263375 0.299763 -0.369282 0.279893 -0.383798 0.192334 -0.072849 -0.061915 -0.285510 -0.072140 -0.073141 -0.101845 -0.124515 -0.368577 0.000945 0.183815 0.100651 0.363558 0.177113 0.050807 -0.449271
or 0.036769 -0.215884 0.068627 0.390048 0.085258 0.016709 0.098953 0.046328 0.083073 0.410565 -0.033567 0.133775 0.223538 -0.091276 -0.241052 -0.268460 -0.077949 -0.091512 0.016942 -0.008145 0.282966 0.077375 0.003650 0.119272 -0.149419 0.177535 -0.021019 0.051580 -0.036759 0.311408 -0.222294 -0.109463 -0.198642 0.059104 0.046560 -0.101865 0.167853 0.198672 0.078660 -0.241906 0.320519 -0.452043 0.186475 -0.143418 0.041785 -0.110689 0.024894 0.096805 0.231507 0.090826 0.555925 0.059890 0.149922 0.017065 0.107719 -0.116228 0.108257 -0.004356 0.205108 0.187462 -0.035866 0.190147 0.189883 -0.083795 -0.310904 0.036202 -0.103827 -0.050579 0.085079 0.174121 0.057234 0.252181 -0.178808 0.468652 -0.026609 0.301073 -0.097823 -0.509236 0.262579 -0.037559 0.325813 0.161075 0.468817 0.295018 0.050173 0.156409 -0.109804 -0.089744 -0.111536 -0.055936 0.258241 -0.334231 -0.529497 -0.283206 -0.170125 -0.137258 0.263777 0.240127 0.064661 -0.007017
dependent 0.137573 -0.264947 0.062037 0.201349 0.174647 -0.109123 0.024776 0.406645 0.084327 0.060400 -0.020070 0.140458 0.139900 0.048644 0.100037 0.110994 0.135106 -0.131989 0.363161 0.535951 -0.078656 0.223120 -0.061500 0.363444 -0.105692 0.012180 0.175080 0.296487 0.193059 0.110782 -0.114173 0.317403 -0.633499 0.097238 -0.344121 -0.559019 -0.159358 0.049474 0.190757 -0.267937 -0.200242 -0.032662 -0.035964 -0.124957 -0.146003 -0.040683 -0.072167 0.044655 -0.082246 0.359411 0.170361 -0.015760 0.045269 -0.097565 0.147828 -0.105586 0.054489 0.066880 -0.017005 -0.211211 0.109615 0.306372 -0.050307 -0.042930 -0.113313 -0.317197 0.219725 -0.072187 -0.237180 0.337078 0.095442 0.073787 -0.066001 0.128198 0.099074 0.642696 0.213673 0.360449 -0.085777 0.046688 0.314563 -0.561444 -0.108509 -0.439202 -0.070662 0.199247 0.203725 0.032118 -0.079750 -0.013094 -0.114325 0.118542 -0.586057 -0.006056 -0.104653 0.235807 0.118238 0.177070 -0.154300 0.026135
promoters -0.422957 -0.154511 0.112194 0.114691 -0.085024 -0.376783 0.066879 0.102978 -0.078293 0.141700 0.151113 0.218795 -0.113012 0.002298 -0.375183 -0.249051 -0.010617 -0.262370 0.034792 0.199573 0.223745 -0.100186 -0.019667 0.186070 -0.008752 0.297592 0.189359 -0.202671 -0.215091 0.454738 -0.015171 -0.083924 -0.181860 -0.103290 0.183925 -0.350204 0.140733 0.022170 0.020869 -0.131226 0.094444 -0.261943 0.201222 -0.040706 0.172927 -0.033662 -0.111916 -0.033398 0.359919 0.018290 0.423742 0.011581 0.049393 0.009838 0.304653 0.110453 0.038717 0.019522 0.146325 0.110962 -0.137779 0.007903 0.104289 -0.137783 -0.066187 -0.044475 0.098291 -0.146602 0.149910 0.151863 0.103920 0.201161 -0.148366 0.003763 0.113486 -0.008176 -0.141026 -0.184494 0.236077 -0.243433 0.019724 0.080734 -0.097638 0.113633 -0.120324 -0.003025 0.071191 -0.139786 0.098300 -0.094736 0.075334 -0.097318 -0.311788 -0.088994 -0.006254 0.067238 0.042046 0.009571 0.007034 0.054887
both -0.251637 -0.121365 -0.058878 -0.055869 -0.136499 -0.328840 0.165036 0.080588 -0.121319 0.212549 0.098413 -0.005970 0.000361 -0.272391 -0.211434 -0.405820 0.094636 -0.175048 0.055547 0.113706 0.307801 -0.088439 -0.282841 0.143977 -0.321049 0.127181 0.020691 0.019284 -0.394940 0.301555 -0.192029 -0.173858 -0.083842 0.024255 0.344504 -0.093937 -0.017567 0.134106 -0.228473 -0.610629 0.278680 -0.024082 0.073656 0.020858 -0.089306 -0.206872 0.025853 -0.144302 0.325620 0.435431 0.487894 -0.132115 0.080635 -0.243992 0.130719 0.040493 -0.062133 0.076627 0.044796 0.178434 -0.333186 -0.008715 -0.042776 0.471529 -0.099158 -0.002228 -0.552393 -0.027221 0.165037 -0.048100 0.052690 0.108866 -0.027907 0.391831 0.119137 -0.267480 -0.057279 -0.406285 0.282676 0.047018 -0.048937 0.497583 0.115095 0.197602 0.368270 -0.097738 0.023557 -0.138609 -0.089741 -0.173480 0.166560 -0.202949 -0.127193 -0.175090 0.184649 -0.099509 0.309656 0.004376 0.206423 0.159309
was 0.272542 0.070556 -0.065675 0.217499 0.225119 -0.076594 -0.081916 0.159350 -0.073975 -0.007039 0.036670 -0.027791 -0.008886 -0.143677 0.296370 0.163410 0.167280 0.146521 -0.022846 -0.084758 0.085690 -0.161859 0.018944 -0.050134 -0.039887 0.229423 0.170528 0.181315 0.118926 -0.018908 -0.038977 0.168357 -0.235499 -0.131380 -0.145817 -0.080972 0.014715 0.184611 -0.082814 -0.473644 -0.121993 -0.315563 -0.077321 0.217224 -0.267352 -0.227484 -0.100543 0.290319 0.086559 0.274250 0.195489 0.237574 -0.213545 -0.445511 0.380383 0.091789 -0.079770 0.143279 0.092777 -0.055645 0.300099 0.342824 0.053725 0.004689 0.059692 0.007456 -0.124017 -0.288338 -0.400808 0.038412 0.190356 0.217815 0.220497 0.296555 0.188852 0.083777 0.028799 -0.036933 0.073369 -0.110180 0.071352 -0.182556 0.196428 0.160084 0.226126 0.366683 0.021080 0.093606 -0.020145 -0.047584 0.034750 0.364287 -0.005898 0.128618 -0.198234 -0.306606 -0.082496 -0.076430 0.107138 -0.036308
specific -0.211881 0.027333 0.411010 0.252045 -0.221323 -0.148995 0.024180 -0.062990 -0.207163 0.042243 0.262152 0.139847 0.152663 -0.228800 -0.613618 -0.133923 0.036651 -0.309527 0.184705 0.227499 0.402456 -0.100023 -0.105345 0.238721 -0.326057 0.187103 0.039327 -0.173343 -0.146779 0.223912 0.144615 0.194844 -0.538266 -0.064158 0.137641 -0.103198 0.094665 -0.174456 0.051982 -0.287016 -0.111555 0.043888 0.325678 -0.304370 -0.208320 0.106285 -0.027848 -0.142153 0.346861 -0.023520 0.541124 -0.113307 -0.074498 0.266689 0.407230 -0.236855 -0.002207 0.107867 -0.186805 0.079020 0.208713 -0.024777 0.119291 -0.296371 0.011244 0.387187 0.312021 0.085040 0.050563 0.352821 -0.085064 0.158766 0.074585 -0.156147 0.059098 -0.241435 0.186897 0.156280 -0.273907 -0.004041 0.184077 -0.395424 -0.403573 -0.121148 -0.041763 0.056259 0.223185 -0.075971 0.120741 -0.287367 -0.084895 -0.263093 -0.382642 -0.138625 0.100313 -0.053025 0.299037 0.142342 0.190221 -0.299893
are -0.126980 0.055273 0.203520 0.300101 0.058258 0.368805 -0.133579 -0.621939 -0.246146 -0.251642 0.107462 -0.310697 0.263553 -0.384558 -0.442402 -0.485310 -0.143064 -0.249611 -0.061089 -0.284785 0.385775 -0.015826 -0.312806 0.238155 -0.529127 0.326754 0.125857 -0.490545 -0.380991 -0.025723 0.210471 0.062128 -0.439558 -0.235988 0.252259 0.082068 0.248828 -0.205755 -0.038313 -0.165157 0.169946 -0.038983 0.405720 -0.106472 -0.341049 0.389334 0.259458 0.015548 0.620920 -0.367308 0.578339 -0.221123 -0.499101 0.081764 0.570130 -0.398773 0.034312 0.092495 -0.333435 0.105790 0.459500 -0.102429 -0.084363 -0.442512 -0.197172 0.668134 0.058449 0.377046 -0.091254 0.256148 -0.141321 0.100106 0.155723 -0.101671 -0.218547 -0.245714 0.171579 -0.274804 -0.026720 -0.119442 0.250809 -0.317934 -0.317334 0.104698 -0.010148 0.249570 0.237760 -0.088337 0.042706 -0.453939 0.290419 -0.322021 -0.294200 -0.309374 -0.098017 -0.437398 0.182354 0.155738 0.561472 -0.344250
mediated 0.047345 -0.265903 0.056466 0.627179 0.335561 -0.119061 -0.069893 -0.102414 0.057401 0.096023 0.064914 -0.018889 0.135437 -0.163158 -0.006653 -0.243050 -0.215874 -0.338524 0.167035 -0.091693 0.570415 0.150030 0.049572 0.429391 -0.056433 0.211488 0.088951 -0.080970 -0.081117 0.001353 -0.246726 -0.328891 -0.678110 -0.191816 -0.121549 -0.483369 0.376933 0.045249 0.072463 -0.326888 0.407612 -0.345781 0.400467 0.012359 -0.003554 -0.000759 0.155389 0.259258 0.244417 0.467315 0.630506 0.071186 -0.198892 -0.551675 0.569299 -0.029951 0.004240 0.005354 0.249583 -0.007530 0.302470 0.494415 -0.122965 -0.115130 0.094989 0.225899 -0.054723 -0.072148 0.047543 0.039549 0.059928 0.566024 -0.014446 0.670768 0.064489 0.442228 0.145915 -0.358877 0.222349 -0.150845 0.415281 -0.194001 0.075076 0.368446 -0.041175 0.343820 0.118341 -0.365907 -0.025235 -0.020860 0.055848 0.000820 -0.493772 -0.274926 -0.633560 -0.282773 0.133178 -0.088384 0.386955 -0.310358
factors -0.124405 0.054389 -0.090311 0.144122 -0.069106 0.234647 -0.044634 -0.369851 -0.045129 -0.017562 0.092164 -0.342493 0.100831 -0.199768 -0.154550 -0.323191 0.120597 -0.186100 0.122841 -0.162239 0.258826 0.398842 -0.385743 0.153541 -0.083557 0.237305 0.245332 -0.272422 -0.191725 0.031093 0.021621 -0.344048 -0.344101 -0.141097 0.284186 -0.132559 0.290739 0.083188 -0.082494 -0.230042 0.534050 -0.223925 0.204695 -0.211567 -0.202780 0.032506 0.274133 -0.099844 0.455340 0.046736 0.376618 -0.178495 -0.244940 -0.221293 0.187922 -0.063762 -0.262935 0.035031 -0.118785 0.183925 0.007078 -0.094210 -0.132820 0.153960 -0.252867 0.405042 -0.263925 0.330067 0.026823 0.103987 -0.020753 0.305049 0.053139 0.313388 -0.185291 -0.171656 -0.026230 -0.315081 0.418521 0.224190 0.159764 -0.075550 0.153066 0.465225 0.087898 0.124556 -0.188180 0.090345 0.012986 -0.274209 0.140608 -0.366162 -0.275083 -0.189605 -0.034507 -0.087248 0.136658 0.096880 0.276713 0.013117
not 0.128543 0.168231 -0.080312 -0.392946 -0.468770 -0.212571 0.109807 0.031524 -0.256986 -0.000992 0.223835 -0.068724 0.105044 -0.167870 -0.228410 -0.158729 0.327670 0.299215 0.192029 0.039335 -0.233843 -0.008951 0.029107 0.008774 -0.215329 0.077606 0.351154 -0.128560 -0.132477 0.040996 0.045182 -0.121651 0.018183 -0.101241 0.148538 0.097489 0.039250 0.021215 -0.020937 -0.036115 -0.267209 -0.124107 -0.174044 -0.145797 -0.016927 -0.152154 -0.410797 0.031619 0.286145 -0.225192 0.078441 -0.101034 0.197429 -0.240113 -0.239187 0.210603 -0.263527 0.103916 -0.004787 0.209861 0.161555 0.085310 -0.080040 0.032464 -0.111866 -0.166281 -0.408512 0.298317 -0.050038 0.112984 0.217016 0.111891 -0.307690 -0.266999 0.082064 -0.185323 -0.307649 -0.123266 0.346554 0.048005 0.005170 0.365511 -0.141792 0.415045 0.185554 -0.267836 -0.332124 0.128451 0.402588 -0.096150 0.155017 0.171904 0.166392 0.062833 -0.158750 -0.165028 0.204401 -0.106931 -0.193346 0.200447
can -0.143601 -0.084156 -0.231425 -0.249387 -0.309723 -0.370714 0.141491 -0.006030 -0.129517 0.055519 0.117516 0.143013 -0.076049 -0.109577 -0.321954 -0.532598 0.288525 0.168632 0.250435 0.260968 0.013615 0.082703 -0.212100 0.379169 -0.422776 0.032562 0.581648 0.014234 -0.553520 0.114368 -0.196453 -0.422032 -0.237715 -0.102927 0.161556 -0.280504 -0.024792 0.013201 -0.259727 -0.063543 -0.169781 -0.108767 -0.273252 -0.119062 0.341613 -0.158168 -0.211986 -0.205132 0.238324 0.039104 -0.217102 -0.133181 0.406814 -0.642174 -0.187685 0.482676 -0.158971 0.014616 0.005363 0.377490 -0.042802 -0.013108 -0.375840 0.436387 -0.084057 -0.520845 -0.738894 0.169657 -0.106301 -0.130993 0.283229 0.128797 -0.303964 0.204572 0.085959 -0.075115 -0.176018 -0.193545 0.520777 -0.101540 -0.281280 0.746236 -0.415342 0.448855 0.318688 -0.224533 -0.160889 -0.086991 0.294045 -0.118501 0.175580 0.126344 0.037345 -0.386626 0.024175 -0.186559 0.164480 -0.133880 -0.093199 0.536338
genex/genex 0.280012 0.041563 -0.007503 0.354263 0.298353 0.028925 -0.096024 0.175173 -0.042777 0.037732 -0.007659 -0.017617 0.015826 -0.146759 0.311022 -0.054241 -0.000925 -0.125715 -0.108194 -0.120910 0.094759 0.073068 -0.002976 0.039014 -0.158139 0.223371 -0.011194 0.193560 0.308186 0.013681 -0.203401 0.070004 -0.216221 -0.163730 -0.084025 -0.141238 0.121452 0.118200 0.067126 -0.556373 0.253529 -0.244530 0.066517 0.019532 -0.232156 -0.049907 -0.132376 0.211497 0.097859 0.125673 0.271033 0.099103 -0.261085 -0.386247 0.310636 -0.181027 0.033968 0.168682 0.033457 -0.060818 0.396077 0.245572 0.249378 -0.119471 0.016765 0.093286 -0.125491 -0.348685 -0.260177 0.125419 0.149415 0.121633 0.215721 0.547796 0.096661 0.162873 -0.031488 -0.071950 0.156433 -0.068202 0.225967 -0.183659 0.448758 0.089465 0.136758 0.315387 -0.071551 -0.048442 -0.183650 -0.005201 0.141013 0.120744 -0.139445 -0.087773 -0.118090 -0.240452 -0.034015 0.072546 -0.012614 -0.260929
on -0.048105 -0.192270 -0.022830 0.174146 0.151703 -0.252546 0.353570 0.283779 -0.011988 0.202423 0.079347 0.068743 0.017464 0.099719 -0.311325 0.048062 0.127959 -0.113432 0.218392 0.104037 0.327680 0.175054 0.064561 0.148105 0.082322 0.050067 0.204235 0.127370 -0.031058 0.232260 -0.049526 -0.050529 -0.311709 -0.101944 0.035382 -0.492549 0.025112 0.211179 -0.009997 -0.015067 0.137164 -0.245848 0.200306 0.009048 0.249571 -0.061612 0.072958 -0.038424 0.109636 0.220376 0.282341 -0.018879 0.049662 -0.063161 0.346652 0.063670 -0.003351 0.085725 0.172089 0.021550 -0.099394 0.419176 -0.142221 0.020924 -0.216901 -0.208965 0.116678 -0.122499 0.115405 0.138969 -0.046305 0.520942 -0.037365 0.116227 -0.072835 0.179726 0.088818 -0.115905 0.163014 -0.206259 0.239821 0.043532 0.040553 0.027895 -0.005103 0.043457 0.063808 0.035096 0.007418 0.057016 -0.003318 -0.026649 -0.426799 -0.133284 -0.354489 -0.019493 0.158854 -0.067090 -0.105752 0.141250
response 0.149183 0.108813 0.224342 -0.014760 -0.321459 0.281654 0.346016 0.226948 -0.298597 0.164135 -0.148648 -0.012021 0.197009 -0.308054 -0.558078 0.373391 0.138507 0.008447 -0.041758 -0.217312 0.394275 -0.354772 0.448954 -0.268755 -0.214210 0.001465 0.190711 -0.011924 -0.106944 0.243938 0.103045 0.099374 0.069493 -0.280925 0.301201 0.378837 -0.377633 0.030619 0.134064 -0.536263 -0.239303 -0.264197 -0.171810 0.095840 -0.198585 -0.299585 -0.034873 0.004547 0.126212 -0.398877 0.410153 -0.081033 0.179316 0.365946 0.198727 -0.050060 -0.179173 0.222207 0.161784 0.538794 0.234004 0.560129 0.323194 0.060887 -0.241276 0.123089 0.042144 0.212806 0.031110 0.255426 0.270341 0.075481 -0.054739 -0.195908 -0.029487 -0.485936 0.177876 -0.035520 -0.029474 0.113159 0.600546 0.084440 0.349099 -0.297177 0.369137 0.087872 0.273103 0.335685 -0.095623 -0.228082 0.096612 0.010840 -0.124168 0.389315 -0.245803 -0.229968 0.448184 -0.252682 0.061455 0.014888
activate -0.023963 0.028657 -0.069892 -0.171026 -0.286029 -0.292506 0.359823 0.177460 -0.263085 0.213636 0.102707 0.113411 0.066186 -0.141310 -0.503870 -0.226633 0.206449 0.119435 0.147936 0.084321 0.147932 -0.107502 0.101414 0.204683 -0.283829 0.033628 0.464555 0.044657 -0.325375 0.328553 -0.056382 -0.258813 -0.046960 -0.248112 0.285963 -0.125874 -0.061479 0.093772 -0.046226 -0.088720 -0.227233 -0.303468 -0.186760 -0.049610 0.339362 -0.175061 -0.290744 -0.135514 0.264243 -0.231311 0.016734 -0.082649 0.368883 -0.285405 0.027025 0.370343 -0.171456 0.110452 0.181177 0.421542 0.122276 0.261788 -0.166147 0.164201 -0.222358 -0.449837 -0.450052 0.142588 0.025460 0.054427 0.333789 0.186073 -0.258719 0.009598 0.056253 -0.244891 -0.222644 -0.302220 0.467024 -0.207358 -0.003523 0.603379 -0.130615 0.251377 0.207380 -0.200592 -0.138918 0.059517 0.257262 -0.154324 0.136594 0.183266 0.000546 -0.162350 -0.204708 -0.300974 0.251367 -0.239199 -0.115087 0.410528
its -0.171710 -0.014139 -0.185437 -0.050557 -0.088401 -0.189392 0.356714 0.271710 -0.201743 0.118315 -0.055182 0.086357 0.174292 -0.192983 -0.172367 -0.122963 -0.051815 0.139126 0.098238 -0.120602 0.333812 -0.298216 0.093701 0.114373 0.008718 -0.067543 0.133528 0.163993 -0.371763 0.272114 -0.169375 -0.172648 0.088778 0.021414 0.311852 -0.202865 -0.131408 0.165736 -0.060817 -0.367526 0.007929 -0.120977 -0.036567 0.349265 -0.045440 -0.255038 -0.075868 0.071933 0.110851 0.293316 0.321526 -0.046241 0.164442 -0.212103 0.328204 0.307111 -0.070762 0.046394 0.403240 0.179454 -0.182120 0.452838 -0.061353 0.312413 -0.004629 -0.168581 -0.511601 -0.215170 0.234335 -0.086395 0.203827 0.281868 -0.166974 0.346107 0.050041 -0.165189 0.044968 -0.303116 0.092210 -0.226924 0.177514 0.453365 0.105611 0.003900 0.435674 0.034157 0.179686 -0.101094 -0.188961 0.024238 0.049483 0.218273 -0.300256 -0.090872 -0.182967 -0.161051 0.261600 -0.354094 0.196256 0.140515
these 0.215357 0.428715 -0.066909 -0.058880 -0.260127 -0.284223 -0.224106 -0.137022 -0.013937 -0.042989 0.256231 -0.331978 -0.248745 -0.288031 0.098291 0.307706 0.387052 -0.205176 0.118992 0.054906 0.081197 0.585881 -0.308957 -0.114122 -0.082791 0.090996 -0.044156 -0.056398 0.220756 -0.216436 -0.046297 -0.225238 -0.211526 -0.209325 -0.058256 0.110756 0.201462 -0.004794 -0.099346 -0.476187 0.424684 -0.128017 0.121480 -0.598683 -0.354683 -0.165280 0.284841 -0.270755 0.151707 0.371253 0.114872 0.087934 -0.279264 -0.343549 -0.186118 -0.158825 -0.367758 0.030252 -0.304014 0.080838 -0.024167 -0.320602 -0.209658 0.649660 0.175014 0.354770 -0.291735 0.233505 -0.135481 0.068905 -0.255308 0.153016 0.474456 0.325161 0.192593 -0.436259 -0.185838 0.035834 0.387532 0.572112 -0.090701 -0.209358 0.138144 0.493104 0.056820 -0.050294 -0.387833 0.286456 0.077370 -0.304334 -0.140847 -0.270469 0.367285 0.315021 0.145130 -0.120569 0.157806 0.070824 0.062154 0.167934
binds 0.301136 0.014839 -0.005457 -0.029195 -0.247223 -0.010125 0.244168 -0.163742 -0.306081 0.056828 0.010948 -0.257814 -0.090834 -0.136359 -0.499384 0.340255 0.405184 0.093658 0.156922 -0.135365 0.336503 -0.159096 0.244621 -0.257387 -0.324368 0.080554 0.424252 0.004662 -0.230302 -0.132088 0.188952 -0.037247 -0.082789 -0.550170 0.159080 0.521337 -0.157457 -0.033912 -0.254441 -0.249460 -0.252911 -0.496531 -0.193734 0.046031 -0.067802 -0.282122 0.156886 -0.232970 0.339751 -0.107005 0.271471 -0.033184 0.123486 -0.120356 0.325487 0.010028 -0.330653 0.235208 -0.232849 0.469474 0.304077 0.371091 -0.231300 0.280976 -0.098706 0.115665 -0.151007 0.387721 -0.239942 -0.026840 0.313110 0.401176 0.115299 -0.134405 0.034652 -0.508780 0.054654 -0.154860 0.289251 0.105918 0.156737 0.287973 -0.069249 0.372463 0.308629 0.161870 -0.155563 0.152115 0.229666 -0.097053 -0.034426 0.060143 0.388809 0.201858 -0.364492 -0.478346 0.303149 -0.212609 0.130840 0.311734
levels -0.287245 -0.123902 0.274114 0.222217 -0.062621 0.399720 0.241995 -0.480690 0.008631 0.228798 -0.138265 -0.060731 0.433373 -0.204089 -0.583287 -0.527732 -0.432232 -0.005627 0.008807 -0.175138 0.233045 -0.218068 -0.161907 0.229297 -0.160602 0.079564 0.072435 -0.254994 -0.372649 0.525666 0.132050 -0.084392 0.017190 0.050200 0.533768 0.129952 -0.176329 -0.044050 0.199144 0.193801 0.214933 -0.221705 0.260010 -0.078123 0.127830 0.334029 0.124931 -0.145844 0.521558 -0.731825 0.548764 -0.088142 -0.001107 0.438922 0.241600 -0.217280 0.068357 -0.062087 0.134254 0.394351 0.001417 -0.096762 0.073633 -0.333025 -0.386653 0.409598 -0.112769 0.337386 0.185978 0.066880 0.125676 -0.153602 -0.097843 0.054657 -0.164207 -0.284941 0.015235 -0.588398 0.246287 -0.053581 0.205705 0.013376 0.054416 -0.076047 -0.018882 0.038609 0.083472 -0.172111 -0.224827 -0.322926 0.262928 -0.504072 -0.334183 -0.280185 -0.072545 -0.235271 0.282760 0.157286 0.318986 0.090758
site 0.242153 0.024530 0.001655 0.042202 0.203744 0.047720 0.633412 0.289104 -0.479292 0.170815 -0.171520 -0.151468 0.026393 -0.011674 -0.428771 0.469542 0.092485 -0.114417 -0.252480 -0.371000 0.454497 -0.191756 0.376132 -0.350650 -0.015999 0.018662 -0.037232 0.135148 0.090722 0.107929 0.210163 0.126957 0.236631 -0.391000 0.174068 0.164242 0.022329 0.164886 -0.120880 -0.276438 0.065636 -0.448238 0.117943 0.227454 0.111918 -0.172044 0.117916 -0.067792 0.200899 -0.040276 0.334427 -0.204328 -0.117288 0.298940 0.580801 -0.138821 -0.093181 0.184029 0.031274 0.161141 0.208397 0.468095 0.056761 -0.013644 -0.328526 0.092533 0.175062 -0.130329 0.258816 0.210744 -0.015189 0.590929 0.146459 -0.095557 -0.191381 -0.440502 0.108949 -0.343589 -0.024890 -0.218688 0.379215 0.364419 0.357517 0.006495 0.189712 0.095503 0.059502 0.338995 -0.102846 -0.104382 0.110141 0.109553 -0.089085 0.039023 -0.413042 -0.334563 0.226225 -0.212339 0.006847 -0.167230
activated 0.013930 -0.046287 -0.162909 0.204136 0.040756 -0.173921 0.087740 0.013433 0.016005 0.029546 0.104093 0.035456 -0.027429 -0.142147 -0.146086 -0.121371 0.157756 -0.141551 0.080511 0.025323 0.257097 0.344083 -0.088038 0.154589 -0.225631 0.157225 0.328243 -0.083659 -0.099020 0.086662 -0.142813 -0.173654 -0.466267 -0.213245 0.033338 -0.306660 0.131821 0.188866 -0.085302 -0.262258 0.247248 -0.199923 0.156853 -0.068312 0.132851 -0.016805 0.086293 -0.112676 0.129408 0.169705 0.021208 -0.019037 -0.018663 -0.403287 0.239908 0.025690 -0.007748 0.117641 0.033277 0.084179 0.155129 0.144618 -0.220875 0.150752 -0.108624 -0.082953 -0.129343 -0.017927 -0.104987 0.094454 -0.005725 0.302601 0.125854 0.295228 -0.051267 0.057561 -0.064757 -0.090090 0.370064 -0.067234 0.044132 -0.013234 0.076244 0.186887 0.061300 0.064130 -0.022573 0.089442 0.008725 -0.036917 0.125725 -0.021392 -0.163608 -0.198751 -0.135601 -0.131662 0.109873 -0.081305 -0.005099 0.121789
bind 0.126149 0.228784 -0.164645 -0.387036 -0.586172 -0.114238 0.306917 -0.107076 -0.426995 0.087590 0.080863 -0.169821 -0.094455 -0.199686 -0.405899 0.024446 0.437256 0.301556 0.140171 -0.143576 -0.034610 -0.403060 0.002996 -0.217366 -0.211084 0.029066 0.297536 -0.229960 -0.501323 -0.187663 0.124675 -0.231414 0.185173 -0.286764 0.298012 0.629747 -0.274629 -0.141604 -0.294285 -0.404694 -0.300707 -0.404949 -0.224352 0.058406 -0.249925 -0.413188 -0.089811 -0.194654 0.602926 -0.144568 0.541031 -0.089495 0.217917 -0.266002 -0.079772 0.202342 -0.624758 0.127992 -0.207687 0.645264 -0.062831 0.171085 -0.063654 0.401267 -0.038407 0.175727 -0.655738 0.473872 -0.027066 -0.107757 0.578408 0.158230 -0.146421 -0.171582 0.210503 -0.715624 -0.255962 -0.328018 0.537723 0.359507 0.087883 0.674133 -0.054773 0.615845 0.583084 -0.068843 -0.375616 -0.010623 0.359397 -0.135664 0.001553 0.081647 0.327622 0.236143 -0.070058 -0.328432 0.301663 -0.157405 0.062548 0.456422
repression -0.066339 -0.237214 0.113076 0.334616 0.216932 -0.198609 0.086789 -0.012132 -0.106929 0.048852 0.072473 -0.046667 0.035348 -0.021047 -0.094486 0.024039 -0.067950 -0.227324 0.249282 -0.093197 0.456814 -0.059068 0.168651 0.215471 0.150116 0.063678 -0.039876 -0.080706 -0.152021 -0.086791 -0.088534 -0.215987 -0.323524 -0.193756 -0.051364 -0.299709 0.306029 -0.050372 -0.016766 -0.089609 0.207956 -0.282086 0.300858 0.132109 -0.007319 -0.078022 0.070375 0.209912 0.243933 0.412936 0.738372 0.070299 -0.129925 -0.186049 0.511289 0.058920 -0.139826 -0.004737 0.205358 -0.013279 0.051076 0.525548 -0.098632 -0.159275 0.150259 0.237656 0.023801 -0.032663 0.213579 -0.106972 0.045860 0.616846 -0.088774 0.290825 0.082287 0.183874 0.117870 -0.244730 0.066713 -0.173545 0.395846 -0.029167 -0.081346 0.352868 -0.061833 0.250184 0.042618 -0.370389 0.178845 0.006561 -0.077828 0.044219 -0.249681 -0.025780 -0.660857 -0.198975 0.122948 -0.182901 0.288812 -0.207691
from -0.228464 -0.032396 0.082957 0.067878 -0.122455 0.076765 0.398131 0.088422 -0.168681 0.191654 0.049030 0.004850 0.151070 -0.136091 -0.554019 -0.086227 0.094255 -0.120364 -0.001490 -0.133057 0.414260 -0.102242 0.057632 -0.011935 -0.016628 0.186015 0.274327 -0.054833 -0.153854 0.511189 0.192612 -0.053719 -0.130016 -0.200181 0.386641 -0.143142 -0.097436 0.226705 0.073376 -0.225606 0.124554 -0.286952 0.077360 0.038158 0.105655 -0.068072 -0.016287 -0.083282 0.307785 -0.175627 0.325333 -0.104598 0.072633 0.281794 0.305534 0.051185 -0.033407 0.199543 0.149752 0.276277 -0.039445 0.191736 0.121338 0.026349 -0.369170 0.029965 0.087606 0.040988 0.145710 0.226665 0.105843 0.178374 -0.064278 -0.088137 -0.142038 -0.342837 0.081095 -0.235276 0.188181 -0.154785 0.269585 0.165348 0.162570 -0.059524 0.146542 0.019525 0.103289 0.187819 -0.025212 -0.174288 0.102981 -0.246677 -0.245837 -0.053884 -0.063091 -0.018762 0.252818 -0.093546 0.081869 0.090461
induced 0.004370 -0.066057 -0.079955 0.264552 0.143166 -0.262895 -0.001218 0.149043 0.084016 0.132994 0.025200 0.265193 0.105960 -0.172649 0.101417 -0.118439 -0.160996 0.037427 0.123323 0.067784 0.224613 -0.064152 0.089255 0.357508 -0.046186 0.029860 0.089938 0.176199 -0.149398 0.098699 -0.186425 -0.077185 -0.352863 0.145535 -0.068156 -0.421727 -0.008907 0.013451 -0.008185 -0.313535 -0.029085 -0.143429 0.114901 0.203677 0.026733 -0.151643 -0.022547 0.206616 -0.002700 0.321888 0.258622 0.141010 0.055144 -0.426829 0.270738 0.196723 -0.037897 -0.066861 0.277148 -0.026666 0.086220 0.407491 -0.089564 0.023226 0.150321 -0.143664 -0.147186 -0.245652 -0.058736 0.085180 0.131701 0.203439 -0.116092 0.431690 0.124693 0.308601 0.215702 -0.163136 -0.003451 -0.096981 0.111987 -0.011269 -0.008105 0.116429 0.173631 0.185203 0.156252 -0.157064 -0.059422 0.059877 -0.064846 0.243601 -0.368993 -0.106341 -0.270972 -0.190263 0.175541 -0.193016 0.114835 -0.045722
regulate -0.109968 -0.346957 0.127412 0.279914 -0.113516 0.016822 0.012319 -0.382349 0.127875 0.142170 -0.050266 0.020793 0.285471 -0.103148 -0.293337 -0.550394 -0.215530 0.129121 0.432104 0.183549 0.180470 -0.052429 0.000591 0.593912 -0.225669 0.122990 0.450986 0.015278 -0.405459 0.362953 -0.139299 -0.494002 -0.530724 0.051400 0.256658 -0.314784 0.025692 -0.032586 -0.025168 0.165946 -0.028327 -0.201638 -0.000025 0.049493 0.220915 0.118746 -0.097774 0.050852 0.142246 -0.090628 0.139726 0.034912 0.252727 -0.418496 0.227845 0.307827 -0.002486 -0.141819 0.267941 0.348882 0.070765 0.102396 -0.206769 0.071136 -0.013420 -0.080370 -0.400465 0.172480 -0.090980 -0.170081 0.287398 0.208349 -0.322504 0.390245 0.014400 0.340366 0.116108 -0.309352 0.212748 -0.067499 0.079258 -0.024230 -0.317486 0.164626 0.001269 0.116442 0.060360 -0.293798 0.067731 -0.066471 -0.007241 -0.150864 -0.391680 -0.403076 -0.271563 -0.237444 0.209511 -0.110297 0.270105 0.202600
up 0.155228 -0.468635 0.440725 0.450591 -0.111188 -0.017354 -0.123533 -0.434777 -0.010020 0.062989 -0.096198 -0.272947 0.363572 -0.061595 -0.384661 -0.222083 -0.272427 -0.031130 0.530324 0.111423 0.376964 -0.174147 0.304429 0.486698 -0.294176 0.171898 0.039938 -0.039120 -0.309924 0.110735 -0.164425 -0.401845 -0.471162 -0.010984 0.119268 0.045132 0.297498 -0.219247 0.014770 0.154274 -0.007949 -0.144079 0.067861 -0.048894 -0.127081 0.143880 -0.091948 0.217415 0.017412 0.039136 0.683776 -0.002806 0.035391 -0.006773 0.540801 -0.020712 -0.016652 -0.178526 0.275898 0.248478 0.229135 0.251492 -0.119943 0.015099 0.243474 0.358333 -0.071365 0.241383 0.091647 -0.191936 0.113085 0.496935 -0.379442 0.169490 0.034700 0.528018 0.203812 -0.301263 -0.205583 -0.010590 0.508683 -0.272466 -0.413255 0.035482 -0.158633 0.262357 0.269604 -0.426210 0.187542 -0.068630 -0.064205 -0.289317 -0.400485 -0.150599 -0.638974 -0.379044 0.457318 -0.065017 0.511498 -0.213701
but 0.163230 0.239124 -0.097659 -0.286876 -0.465401 -0.080974 0.112603 -0.006964 -0.199161 0.056474 0.194160 -0.131944 0.157589 -0.192260 -0.173974 -0.120981 0.215525 0.205227 0.155105 -0.044966 -0.150396 -0.022211 0.021748 -0.047328 -0.117135 0.064468 0.232877 -0.182595 -0.074637 0.021850 0.027940 -0.191903 0.049005 -0.121234 0.189934 0.217121 0.031813 0.002753 0.096466 -0.185343 -0.092812 -0.205383 -0.064999 -0.202230 -0.174584 -0.197726 -0.288931 0.019022 0.363648 -0.207441 0.296697 -0.064572 0.108053 -0.224633 -0.217650 0.108231 -0.317579 0.098022 0.043123 0.316935 0.141169 0.083728 0.034685 0.001632 -0.115751 0.030478 -0.451149 0.329723 0.018045 0.188668 0.270987 0.037917 -0.225171 -0.093825 0.071016 -0.268357 -0.359027 -0.249435 0.487386 0.176000 0.141248 0.248718 0.111618 0.432074 0.193582 -0.196917 -0.408325 0.091310 0.256176 -0.128993 0.116066 0.082923 0.066990 0.142760 -0.138833 -0.149062 0.220461 -0.056178 -0.080704 0.156632
overexpression 0.019102 -0.076129 -0.002697 0.247356 -0.040680 -0.436307 -0.025596 0.197578 0.187782 0.284062 0.164137 0.187499 -0.035854 -0.073683 -0.064686 0.112118 0.041838 -0.063773 0.207501 0.221792 0.195762 0.157624 0.084223 0.106540 -0.016518 -0.024128 -0.024437 0.183624 -0.090163 0.029881 -0.227970 -0.088158 -0.243796 0.141639 -0.085078 -0.218494 0.011683 0.065476 -0.118375 -0.248707 0.080021 -0.204209 0.163185 -0.079352 0.086995 -0.237262 0.057551 0.006801 -0.033659 0.429191 0.433459 0.186455 0.146280 -0.306353 0.113566 0.074539 -0.100092 -0.087856 0.181416 -0.018816 -0.150007 0.303163 -0.172636 0.239780 0.162831 -0.106512 -0.089512 -0.091897 0.042152 0.016493 0.045547 0.255800 -0.053657 0.427519 0.194775 0.219718 0.007310 -0.182337 0.113729 0.082450 0.099067 0.073356 0.042139 0.279599 0.135991 0.017999 0.004254 -0.117416 -0.014934 0.098955 -0.061011 0.040727 -0.201527 0.043675 -0.210335 -0.046493 0.241671 -0.050152 -0.007365 0.119584
regulates 0.034055 -0.046908 -0.099280 0.213177 -0.065845 -0.248151 0.051722 -0.027841 0.107047 0.123479 0.045879 0.194285 0.088380 -0.197816 -0.120107 -0.234436 0.035468 0.058904 0.207059 0.154418 0.221535 0.157504 -0.009240 0.420810 -0.357359 0.070980 0.393911 0.117859 -0.220586 0.176123 -0.242705 -0.265661 -0.539296 -0.048664 0.022051 -0.376678 -0.084852 0.091230 -0.099650 -0.270765 0.018004 -0.181715 0.026922 0.007145 0.102368 -0.017510 0.026998 -0.093655 0.071305 0.181487 -0.049834 0.125857 0.152361 -0.624822 0.171284 0.230205 -0.055642 0.005129 0.119283 0.166823 0.103897 0.203766 -0.272728 0.322705 0.066712 -0.208513 -0.405569 -0.018747 -0.188192 -0.007312 0.097240 0.202340 0.008234 0.505811 0.103431 0.119523 0.127267 -0.068723 0.285652 -0.051225 -0.023455 0.007544 -0.113898 0.106098 0.229682 0.093893 0.053549 -0.099926 -0.125633 -0.046080 -0.004960 0.036176 -0.271629 -0.251611 -0.136736 -0.259014 0.212553 -0.153097 0.056791 0.214396
direct -0.012830 -0.236255 -0.263396 -0.054749 0.220327 -0.046361 0.340616 0.276173 -0.227240 0.241588 -0.249323 -0.214926 0.111769 -0.163624 0.137494 -0.206557 -0.165763 -0.135758 -0.186591 -0.136595 0.365599 -0.347814 -0.053524 -0.032437 0.025089 -0.041106 -0.197806 0.269924 -0.171790 0.288222 -0.338344 -0.316743 0.347178 -0.137183 0.349432 -0.040773 -0.034507 0.258963 -0.090803 -0.665348 0.445605 -0.198353 -0.036122 0.365817 -0.165691 -0.338005 0.072347 0.062745 0.173989 0.619645 0.471173 -0.193268 -0.040242 -0.268771 0.306694 0.109561 -0.003411 0.069075 0.317593 0.138654 -0.234584 0.319365 0.136218 0.417223 -0.155984 -0.040866 -0.697159 -0.248419 0.322722 -0.134509 0.251577 0.257159 0.014952 0.609976 0.042799 -0.090553 -0.104355 -0.674826 0.280899 -0.133363 0.133283 0.664531 0.670077 0.081266 0.417200 0.040498 -0.017111 -0.190782 -0.416225 -0.018129 0.194510 0.113666 -0.152236 -0.081728 -0.120284 -0.189603 0.178722 -0.209389 0.362074 -0.031866
this 0.181394 0.074156 0.071142 0.055434 -0.053154 -0.304167 -0.006678 0.048142 -0.125481 -0.104062 0.141245 -0.035542 -0.138874 -0.097803 -0.249130 0.351609 0.161242 -0.063082 0.074317 -0.020838 0.214795 0.093118 0.198342 -0.068666 -0.168649 0.025797 -0.099452 -0.045376 -0.075303 -0.221820 0.023714 0.064063 -0.127242 -0.091709 -0.008716 0.143345 0.047435 -0.117770 -0.226835 -0.223028 -0.060387 0.034354 0.137150 -0.113557 -0.112575 -0.102276 0.122016 -0.089371 -0.065664 0.184947 0.283951 0.059656 -0.070597 -0.108015 0.305228 -0.118051 -0.168642 -0.008684 -0.108503 -0.012715 0.109087 0.194676 -0.224787 0.195842 0.253019 0.141127 0.047172 0.014786 -0.054399 0.055782 -0.122815 0.318011 0.145475 -0.086640 0.073984 -0.170956 0.116171 0.012046 -0.163197 0.112756 0.160704 -0.050878 -0.201579 0.131944 0.056473 0.017260 0.164740 0.015037 0.120406 0.021506 -0.080459 0.099759 0.092413 0.144772 -0.226613 -0.228659 0.243800 -0.201293 0.091019 -0.069863
increased 0.010846 0.031561 0.021163 0.285848 -0.148337 -0.232958 0.137702 0.191341 0.055010 0.277723 0.072656 0.253692 0.239705 -0.313717 -0.107677 -0.075174 -0.140162 0.124308 0.157431 0.073510 0.205867 -0.218523 0.185541 0.246892 -0.184237 -0.056824 0.155655 0.216439 -0.202343 0.290746 -0.223763 -0.018018 -0.246979 0.111974 0.166735 -0.222732 -0.142986 0.068369 0.080214 -0.448605 -0.148724 -0.255268 0.063929 0.177301 -0.044068 -0.201947 -0.176704 0.114723 0.075149 0.114074 0.426796 0.172173 0.147883 -0.320329 0.291478 0.169371 -0.093212 -0.016887 0.333636 0.149269 0.063265 0.421311 0.040017 0.026200 0.066764 -0.182347 -0.327749 -0.225445 -0.079448 0.138916 0.270741 0.052001 -0.098034 0.458691 0.185233 0.031156 0.025518 -0.243849 0.118740 -0.084753 0.174373 0.042205 0.172858 -0.028365 0.271500 0.070977 0.117243 -0.155540 -0.124945 -0.007657 -0.015263 0.168839 -0.377478 -0.021613 -0.241377 -0.281279 0.367199 -0.189792 0.118427 0.070504
sites 0.161481 0.064630 0.123509 0.070756 -0.097703 0.012641 0.219705 0.153063 -0.211712 0.221938 0.089900 -0.046816 0.133917 -0.206904 -0.200914 0.036162 0.138582 -0.059973 -0.074067 -0.141448 0.178853 -0.166081 0.055221 -0.144463 -0.184250 0.058210 -0.069655 -0.011839 -0.022282 0.032748 0.054179 0.186084 0.056848 -0.067447 0.098655 0.232561 0.026191 -0.017943 -0.063929 -0.545386 -0.090680 -0.211557 0.037378 0.015312 -0.312177 -0.280078 -0.081315 0.060288 0.318151 0.020658 0.663485 -0.135595 -0.026587 0.175372 0.214822 -0.182491 -0.211531 0.109255 -0.085928 0.194967 0.094600 0.221011 0.317697 -0.045761 -0.252346 0.207709 0.017735 0.026402 0.049386 0.329727 0.117155 0.205797 -0.090336 0.003362 -0.009586 -0.176848 0.049664 -0.292063 -0.009337 0.147171 0.338458 0.196404 0.307989 0.151338 0.259151 0.091328 -0.078214 0.139621 0.100874 -0.134849 0.145751 -0.122313 -0.241496 0.088203 -0.118803 -0.201758 0.346943 0.073380 -0.020733 -0.184430
interaction 0.044504 -0.213019 -0.345687 -0.081841 0.211172 -0.064581 0.420790 0.373594 -0.223842 0.267817 -0.232740 -0.173832 0.115869 -0.070947 0.012194 -0.101821 -0.092587 -0.078414 -0.169630 -0.151219 0.397218 -0.124311 -0.012751 -0.114865 0.146342 0.001379 -0.121100 0.271860 -0.106705 0.356121 -0.246709 -0.353980 0.355155 -0.147769 0.351693 -0.116934 0.001832 0.408973 -0.056453 -0.539065 0.541379 -0.233096 -0.049570 0.320536 -0.016592 -0.332302 0.164024 0.013478 0.045899 0.607591 0.250012 -0.190975 0.033336 -0.209532 0.290016 0.149884 0.067871 0.057232 0.395986 0.153236 -0.338916 0.323730 0.040579 0.479541 -0.255157 -0.109124 -0.607099 -0.303860 0.413640 -0.118421 0.117039 0.354222 -0.004489 0.533443 -0.074624 -0.112149 -0.140400 -0.661031 0.324907 -0.161793 0.149352 0.724898 0.726560 0.105004 0.376886 -0.020633 0.008973 -0.014410 -0.458920 -0.001444 0.204324 0.117010 -0.253655 -0.151702 -0.075239 -0.117122 0.129614 -0.204083 0.253610 0.071212
also 0.105493 0.087563 -0.109978 -0.064049 -0.157184 0.043373 -0.185244 -0.415698 -0.134524 -0.183878 0.036029 -0.214322 -0.057326 -0.174533 -0.015918 -0.099911 0.248634 0.185639 0.163673 -0.135658 -0.049759 -0.173101 -0.116317 -0.052900 -0.266377 0.052202 0.187424 -0.217529 -0.352080 -0.435379 0.058509 -0.030370 -0.071933 -0.216003 0.014463 0.378125 0.065231 -0.261215 -0.358673 -0.136188 -0.252857 0.002815 -0.019489 0.136603 -0.310379 -0.093578 0.119364 -0.008207 0.325387 0.025672 0.366785 -0.003816 -0.127620 -0.392540 0.081835 0.028687 -0.376864 -0.003943 -0.345236 0.210473 0.145150 0.019676 -0.211408 0.115935 0.161372 0.461451 -0.332561 0.311939 -0.213074 -0.189548 0.244597 0.160587 -0.057247 -0.006749 0.101572 -0.277741 -0.001692 -0.065287 0.163845 0.227242 -0.021134 0.175389 -0.262450 0.468066 0.318283 0.186494 -0.169307 -0.124630 0.293477 0.007366 -0.010840 0.045706 0.280039 0.080768 -0.163953 -0.315173 0.015221 -0.041499 0.218053 -0.001575
regulated 0.063986 -0.292861 0.167388 0.500971 0.104294 0.129688 -0.222996 -0.515463 -0.033077 0.015613 -0.088588 -0.142261 0.399875 -0.121597 -0.068063 -0.669062 -0.348766 0.001830 0.229701 -0.024370 0.230651 -0.178545 0.000050 0.502162 -0.390604 0.224305 0.158120 -0.210111 -0.396442 0.134787 -0.249468 -0.365100 -0.478590 0.030511 0.145461 -0.170189 0.332070 -0.079753 -0.013574 0.098826 0.056886 -0.080790 0.239909 0.114054 -0.186414 0.236444 -0.018057 0.304514 0.193924 0.048776 0.334959 0.015023 -0.195652 -0.354759 0.489291 0.010411 0.101095 -0.164999 0.225412 0.133683 0.372641 0.077790 -0.150548 -0.244382 0.044529 0.293649 -0.343342 0.119005 -0.024701 -0.084936 0.137198 0.333994 -0.265305 0.305971 -0.056612 0.499770 0.140889 -0.404341 0.037104 -0.178801 0.194385 -0.254823 -0.196461 0.139745 -0.026959 0.289945 0.172106 -0.442848 -0.012522 -0.054894 0.182249 -0.132213 -0.547520 -0.468430 -0.362933 -0.351329 0.174684 0.043790 0.577030 -0.261997
assays 0.236852 0.133224 0.005513 -0.007949 0.066614 -0.611110 -0.191871 0.088649 0.201050 -0.243485 0.242499 0.150674 -0.335308 -0.092078 0.119524 0.064554 0.395246 -0.176734 -0.138946 0.101254 -0.034070 0.683984 -0.069641 -0.038406 -0.374824 0.076065 -0.072147 -0.230448 0.064040 -0.381406 -0.346802 -0.036120 -0.533045 0.059470 -0.333006 0.001596 0.054774 0.165398 -0.281352 -0.261441 0.116711 0.297620 0.005767 -0.631640 0.256886 -0.025890 0.244541 -0.217217 -0.301664 0.186870 -0.544689 0.177527 -0.127591 -0.576421 -0.279305 -0.161248 -0.003154 0.040260 -0.134424 -0.058281 0.090732 -0.176644 -0.368268 0.519768 0.348393 -0.198220 -0.019459 0.027504 -0.550838 -0.076329 -0.254474 -0.026253 0.522466 0.045693 0.199854 0.202925 -0.176226 0.344761 0.116628 0.299076 -0.543771 -0.179332 -0.193532 0.183104 -0.124034 -0.075193 0.072597 0.313642 0.245648 -0.073707 0.066596 0.222350 0.343752 0.038109 0.216602 -0.007175 -0.028938 0.105879 -0.203625 0.325956
endogenous 0.014701 -0.089853 0.160420 0.268284 -0.036932 -0.204352 0.110759 0.225961 -0.047953 0.224120 0.014141 0.219151 0.095832 -0.145267 -0.089806 0.135281 -0.104713 -0.005532 0.074288 0.153507 0.295672 -0.222256 0.236326 0.245153 -0.112702 0.060377 0.087136 0.269882 -0.001863 0.266919 -0.109070 0.126317 -0.293231 0.075344 0.021474 -0.197974 -0.063614 0.045152 0.065582 -0.299487 -0.139343 -0.217432 0.012474 0.090491 -0.011686 -0.135418 -0.131798 0.060490 -0.040838 0.146482 0.331493 0.116107 0.116921 -0.050019 0.346097 0.059931 0.063027 -0.009098 0.252366 0.000289 0.077686 0.314937 0.067731 0.007740 0.073852 -0.126227 0.079705 -0.175583 -0.001227 0.061046 0.083289 0.162215 -0.030701 0.264133 0.130393 0.069747 0.198673 -0.061022 -0.111282 -0.124546 0.202090 -0.070410 0.049172 -0.178626 0.088729 0.169754 0.172998 -0.087761 -0.103722 -0.020141 -0.143483 0.049440 -0.307923 -0.003675 -0.176763 -0.140915 0.252916 -0.095143 0.042687 -0.096490
whereas 0.013797 -0.027675 0.054196 0.132409 -0.081398 -0.179275 0.151719 0.331986 0.005652 0.269386 0.040964 0.241965 0.156349 -0.093268 -0.151355 -0.004476 -0.101744 0.048302 -0.003451 0.059777 0.182767 -0.208379 0.233118 0.076029 -0.049968 -0.020597 -0.046428 0.187948 -0.101514 0.279138 -0.140469 0.035538 -0.024263 0.110189 0.107890 -0.134496 -0.082130 0.076782 0.077987 -0.310011 -0.080814 -0.191780 -0.006275 0.130444 -0.061990 -0.210071 -0.121379 0.115105 -0.051016 0.133681 0.301645 0.110401 0.216068 0.074416 0.187184 0.114167 0.048507 -0.042648 0.283616 0.050149 -0.073374 0.357975 0.129926 0.013545 -0.078538 -0.149907 -0.054314 -0.189808 0.096605 0.159249 0.122902 0.043359 -0.189706 0.181983 0.057433 0.119706 0.072129 -0.226184 -0.027546 -0.116549 0.224676 0.127344 0.225985 -0.088230 0.180590 0.058716 0.113916 -0.039396 -0.136248 0.022885 0.023229 0.084824 -0.413307 0.006989 -0.076732 -0.107533 0.282150 -0.097488 0.027318 0.009845
elements 0.196626 0.005026 0.269208 -0.094378 -0.257780 0.206212 0.139505 0.241864 -0.123611 0.128102 -0.106863 -0.063012 0.023856 -0.074546 -0.346330 0.508111 0.139630 -0.083164 -0.040969 -0.030597 0.207801 -0.189462 0.412915 -0.312931 -0.048777 -0.064569 -0.046195 -0.031192 0.076166 0.033426 0.117912 0.156557 0.172732 -0.211612 0.066158 0.417167 -0.234887 -0.075837 0.140975 -0.275501 -0.192528 -0.115576 -0.157975 -0.084887 -0.128619 -0.191466 -0.027944 -0.020108 -0.054097 -0.291389 0.310638 -0.079949 0.168424 0.515119 0.015932 -0.154537 -0.075449 0.126626 0.023085 0.317581 0.116424 0.329053 0.285015 -0.006550 -0.103258 0.148380 0.294743 0.199678 0.115189 0.186157 0.065453 0.003274 -0.066481 -0.323799 -0.016115 -0.296773 0.121855 0.103068 -0.162246 0.183057 0.481728 -0.013242 0.212765 -0.264193 0.117426 -0.006561 0.192196 0.261912 -0.011184 -0.150898 0.016428 -0.064311 0.008738 0.436785 -0.150928 -0.066251 0.286674 -0.070535 -0.061497 -0.071753
be 0.296820 -0.000508 0.151238 -0.018297 -0.249807 0.131427 -0.147759 -0.173101 -0.308424 -0.070583 0.106177 -0.221974 -0.058375 -0.141345 -0.237752 0.305370 0.137294 -0.090366 0.008971 -0.069803 0.197386 -0.049851 0.244887 -0.081407 -0.246499 0.028233 0.028301 -0.123124 -0.228484 -0.511373 0.117433 0.034777 -0.067520 -0.302140 -0.141233 0.514838 0.134098 -0.233937 -0.222514 -0.063011 -0.305268 -0.057852 -0.104428 -0.155730 -0.265492 -0.215991 0.120848 -0.045706 0.117930 -0.030681 0.383390 -0.144874 0.030993 -0.010737 0.236560 -0.132613 -0.150897 0.012870 -0.278555 0.224047 0.402640 0.266969 -0.072997 -0.074874 0.097828 0.235318 0.112728 0.440442 -0.075850 0.119695 0.236712 0.251781 -0.128521 -0.282113 -0.058010 -0.067337 0.158262 -0.059318 -0.236498 0.170683 0.318936 0.179817 -0.280264 0.359231 0.009607 0.165975 0.006236 -0.118550 0.417665 -0.042582 -0.051146 -0.014476 0.155423 0.008280 -0.305238 -0.346380 0.163086 -0.048433 0.232924 -0.262819
region 0.192211 0.255049 0.004289 -0.070866 -0.160040 -0.350232 0.459113 0.418004 -0.197179 0.184839 0.091839 0.083957 0.015503 -0.150699 -0.463177 0.440959 0.104096 0.143161 -0.067132 -0.071290 0.263899 -0.177461 0.406266 -0.190238 -0.076636 -0.095087 0.016418 0.105055 -0.157658 0.241328 0.080070 0.043979 0.177055 -0.134334 0.310871 0.128829 -0.208886 0.110643 0.001794 -0.345001 -0.188558 -0.261494 0.021407 0.051650 0.093368 -0.256723 -0.047171 -0.092635 -0.011434 -0.087239 0.303047 0.064877 0.122094 0.070527 0.338399 0.084698 -0.222304 0.032842 0.229524 0.210208 0.039064 0.503158 -0.140176 0.231035 0.006086 -0.177880 -0.119612 -0.127546 0.060815 0.089126 0.131600 0.246705 0.033610 -0.141730 0.094062 -0.450142 -0.040108 -0.302050 0.132436 -0.052993 0.200032 0.265114 0.136281 -0.092919 0.239396 -0.150173 0.139072 0.198761 -0.012322 0.017728 -0.100960 0.316056 0.028054 0.313582 -0.302015 -0.332635 0.455672 -0.406592 -0.055382 0.281708
dna 0.013523 0.207740 -0.063759 -0.030599 -0.028161 0.128537 0.568662 0.096735 -0.335207 0.139525 -0.132271 -0.110203 0.183757 -0.124356 -0.359816 0.041244 -0.017326 0.099465 -0.154721 -0.424494 0.234904 -0.311272 0.229222 -0.284212 -0.065137 -0.065291 0.122424 -0.034969 -0.175179 0.185616 0.049580 -0.018748 0.306943 -0.185966 0.365291 0.172295 -0.160219 0.103794 0.002265 -0.204281 -0.011856 -0.262380 0.074162 0.318394 0.013746 -0.101587 -0.033307 0.038932 0.351168 -0.271986 0.377137 -0.112551 -0.058961 0.176112 0.330670 -0.000089 -0.225397 0.205710 0.161502 0.321366 0.133187 0.375767 0.180727 -0.032309 -0.314625 0.085630 -0.182864 -0.035360 0.156219 0.157958 0.240715 0.260848 0.004957 -0.080202 -0.135253 -0.539022 -0.051860 -0.358090 0.249441 -0.157266 0.280669 0.315288 0.346024 -0.004781 0.314604 -0.028925 -0.017831 0.187611 -0.079411 -0.086513 0.183066 0.055652 -0.038346 0.093761 -0.329699 -0.286868 0.245510 -0.262687 0.026675 0.011963
reporter 0.115541 -0.027065 0.085793 0.175202 0.265387 -0.331913 0.039919 0.400834 0.019878 -0.015391 0.009670 0.307693 -0.029095 0.093103 0.087530 0.015257 0.013284 -0.188508 -0.267619 0.085666 0.125167 0.094423 0.185746 0.203133 -0.094987 0.125319 -0.101263 0.116302 0.233133 0.179137 -0.191707 0.055903 -0.198676 0.002205 -0.185338 -0.316043 0.072476 0.229374 0.165579 -0.251064 -0.031404 0.031618 -0.092925 -0.271125 0.261412 -0.048111 -0.095908 0.064570 -0.245483 0.080191 -0.423876 0.166576 -0.012366 -0.152167 0.064532 0.096737 0.258535 -0.037552 0.282049 -0.137546 0.207555 0.060163 -0.009677 0.043684 0.132242 -0.392472 0.112343 -0.389656 -0.285259 0.054804 -0.090687 -0.063011 0.264572 0.121945 0.165481 0.356179 -0.085348 0.157532 -0.073588 -0.202886 -0.200699 -0.113395 0.025434 -0.224039 -0.092957 0.080179 0.194724 0.139241 -0.026257 -0.067121 0.011530 0.373005 -0.135979 -0.060550 0.081711 0.096163 -0.083083 -0.023213 -0.191310 0.065768
show 0.180751 0.222137 -0.079486 -0.116528 -0.225333 -0.684480 -0.225196 -0.154386 0.153296 -0.204689 0.317426 -0.015512 -0.474294 -0.100222 -0.144016 0.132923 0.620085 -0.032830 0.197719 0.171310 0.018020 0.698792 -0.235180 -0.061169 -0.391412 0.120171 0.146082 -0.220314 -0.191616 -0.435365 -0.110548 -0.177041 -0.493641 -0.115495 -0.160342 0.067402 0.099536 -0.041762 -0.511424 -0.191546 0.112034 0.256847 0.157240 -0.507103 0.131716 -0.016019 0.322795 -0.386384 -0.053497 0.398627 -0.115139 0.134610 -0.071223 -0.696897 -0.198086 -0.042431 -0.265782 -0.016813 -0.444017 0.009895 -0.094540 -0.292256 -0.674968 0.747669 0.407554 0.096893 -0.248447 0.152780 -0.326447 -0.270196 -0.326689 0.249613 0.405648 0.141459 0.275427 -0.300886 -0.117569 0.307364 0.243241 0.483973 -0.439056 0.059119 -0.502726 0.560466 0.105739 -0.179353 -0.152742 0.184734 0.350701 -0.038083 -0.080472 -0.016830 0.597911 0.092959 0.067446 -0.148614 0.079726 0.043085 -0.230385 0.375195
expressed -0.156209 0.096823 0.139998 0.183514 0.058539 0.602094 0.050389 -0.545523 -0.239275 -0.218602 -0.026690 -0.218300 0.351200 -0.353749 -0.431805 -0.480585 -0.222968 -0.098739 -0.180967 -0.321313 0.213961 -0.102651 -0.336329 0.214999 -0.480878 0.218602 0.207208 -0.415430 -0.287983 0.141956 0.281753 0.204150 -0.222322 -0.149668 0.332251 0.110293 -0.018409 -0.149152 0.075009 -0.027550 0.048601 -0.024103 0.246531 -0.029753 -0.204028 0.456248 0.180849 -0.082639 0.553798 -0.738788 0.219379 -0.290010 -0.361404 0.289880 0.385780 -0.394641 0.130880 0.115100 -0.272708 0.151850 0.464724 -0.183199 0.026025 -0.547535 -0.422700 0.498874 0.095501 0.393877 -0.119071 0.284179 -0.078395 -0.171028 0.157863 -0.235753 -0.301629 -0.307010 0.159755 -0.204161 -0.011849 -0.165672 0.194409 -0.308934 -0.170272 -0.215803 0.001580 0.190826 0.232843 0.067578 -0.142773 -0.463608 0.338197 -0.281580 -0.299500 -0.328475 0.084730 -0.342335 0.125154 0.185551 0.400126 -0.210961
immunoprecipitation 0.130189 0.248167 -0.135462 -0.175872 0.064876 -0.537613 -0.035724 0.048563 0.155378 -0.297771 0.237962 0.096207 -0.328204 -0.071037 0.222769 -0.085492 0.386313 0.076496 -0.154483 -0.148225 -0.200658 0.611512 -0.120209 -0.246132 -0.182034 -0.110403 0.011233 -0.457125 -0.106382 -0.410363 -0.441600 -0.135326 -0.257424 0.132051 -0.148915 0.014173 0.001371 0.260052 -0.282431 0.036484 0.211561 0.395908 0.103957 -0.367007 0.339153 0.095218 0.170072 -0.096554 -0.175518 0.066955 -0.635324 0.175147 -0.258681 -0.562648 -0.349906 -0.078521 -0.080960 0.148684 -0.058446 -0.037675 0.026142 -0.138217 -0.373550 0.377704 0.199504 -0.286088 -0.245799 0.009749 -0.459648 -0.136547 -0.209996 0.008057 0.457047 -0.094445 0.011285 -0.013269 -0.363212 0.196387 0.381831 0.198281 -0.655916 -0.109674 -0.034173 0.295918 -0.169893 -0.319059 -0.038564 0.247834 0.314654 0.049520 0.237493 0.337583 0.508195 0.033943 0.093005 -0.036100 -0.124927 -0.091039 -0.184035 0.425212
may 0.266499 -0.070779 0.015277 -0.005201 -0.119403 -0.037913 -0.241379 -0.206014 -0.190353 -0.167466 0.119270 -0.140606 -0.192148 -0.073216 -0.070455 0.195704 0.161324 -0.045013 0.075471 -0.008962 0.135527 0.167857 0.090560 0.031086 -0.271480 0.051153 0.036802 -0.091020 -0.246991 -0.581831 -0.001168 -0.052392 -0.227725 -0.195789 -0.262913 0.299930 0.197920 -0.196737 -0.379400 -0.015073 -0.168114 0.059284 -0.070997 -0.120867 -0.196253 -0.129910 0.222966 -0.068922 -0.042115 0.246530 0.116749 -0.062125 0.030857 -0.276800 0.165519 -0.075581 -0.073430 -0.063355 -0.292823 0.055457 0.258108 0.139475 -0.282483 0.137665 0.214253 0.155295 0.014487 0.327950 -0.133484 -0.031424 0.039291 0.296202 -0.036961 -0.115838 -0.030756 0.099055 0.227765 0.057516 -0.249413 0.152831 0.114600 0.114847 -0.412334 0.391446 0.003824 0.163394 0.046802 -0.137984 0.329006 0.036468 -0.058619 -0.007126 0.153750 -0.132936 -0.193842 -0.294994 0.065991 -0.032910 0.180405 -0.163530
negative -0.046225 -0.250731 0.150682 0.004773 -0.108920 -0.004917 0.007896 0.125248 0.142611 0.310075 0.034616 -0.019975 0.110230 0.064372 -0.168212 0.130072 -0.157938 -0.154936 0.178326 0.186283 0.124253 -0.154624 0.169979 -0.089963 0.247065 -0.107111 -0.220691 0.068410 -0.033757 0.157577 -0.042753 -0.113805 0.109733 -0.024529 0.064159 0.079069 -0.159430 0.034641 0.095457 0.097609 0.105268 -0.118885 -0.017522 -0.062822 0.018323 -0.088311 0.015143 0.011125 -0.110693 0.115605 0.418121 0.042673 0.244116 0.381955 0.026616 -0.024758 0.042760 -0.105143 0.196044 0.112547 -0.241303 0.134604 0.130282 -0.024484 -0.011156 0.119317 0.101558 0.106714 0.437255 -0.047994 0.044279 0.040280 -0.191272 0.102801 0.181903 0.025540 -0.015747 -0.159258 -0.041095 0.132056 0.206326 0.077464 0.084228 -0.047275 -0.018636 -0.054949 -0.012197 -0.145133 -0.111260 -0.072943 -0.071332 -0.181475 -0.195924 0.154944 -0.122639 0.134655 0.107645 0.051451 0.091324 -0.024571
down -0.074169 -0.230613 0.095155 0.338399 -0.008346 -0.017390 -0.278804 -0.384520 0.125584 -0.010221 -0.108272 -0.098909 0.189449 -0.045594 0.076392 -0.461743 -0.310308 -0.029847 0.298713 0.113192 0.080191 0.006929 -0.026749 0.414245 -0.244814 0.072412 -0.036295 -0.079645 -0.268931 0.031306 -0.297628 -0.374198 -0.286095 0.133708 0.038529 -0.149892 0.289729 -0.159833 -0.009570 0.191897 0.167557 0.154654 0.175023 0.033915 -0.103819 0.247475 0.018579 0.134048 -0.055054 0.198936 0.193371 0.043338 -0.067333 -0.260955 0.165774 0.000865 0.068444 -0.274739 0.156687 0.024742 0.064945 -0.078347 -0.161504 0.028694 0.257410 0.215062 -0.305452 0.043471 0.098549 -0.200203 -0.014666 0.162496 -0.261386 0.346301 0.032488 0.440516 0.110092 -0.174079 -0.056702 -0.037591 0.067482 -0.184795 -0.207646 0.005144 -0.072912 0.119829 0.084736 -0.466653 -0.038581 0.089757 0.005831 -0.247846 -0.318979 -0.313528 -0.203610 -0.132947 0.135807 0.046103 0.349891 -0.197964
found 0.183661 0.300221 -0.162146 -0.215569 -0.321501 -0.452423 -0.105476 -0.272849 -0.074362 -0.216789 0.255386 -0.136726 -0.343368 -0.179457 -0.200052 0.065168 0.618193 0.191930 0.224836 -0.050057 -0.029953 0.250295 -0.217763 -0.177666 -0.369501 0.112632 0.269842 -0.246239 -0.386391 -0.473151 0.047602 -0.114270 -0.239416 -0.251980 0.051996 0.329546 0.007798 -0.167601 -0.558526 -0.255321 -0.130295 0.128100 0.082553 -0.172014 -0.120619 -0.134085 0.217004 -0.257362 0.272023 0.226019 0.261009 0.100891 -0.097543 -0.685128 -0.068435 0.053523 -0.497178 0.017315 -0.455599 0.202445 -0.031221 -0.136945 -0.548512 0.602851 0.330153 0.366949 -0.452447 0.240758 -0.317712 -0.308221 0.007530 0.290885 0.241660 0.029065 0.288317 -0.609188 -0.120371 0.099933 0.341249 0.449481 -0.297002 0.261601 -0.429856 0.696278 0.397817 -0.043907 -0.245767 0.113439 0.408831 -0.028971 -0.055487 0.081334 0.631414 0.187986 -0.094006 -0.333964 0.098052 -0.061503 -0.096414 0.333458
induction 0.020074 -0.130138 0.117477 0.220378 0.097051 -0.088489 0.084716 0.118232 0.024083 0.206198 -0.032558 0.071973 0.193029 -0.091512 -0.029259 0.000099 -0.249496 -0.088681 0.055988 0.035571 0.213836 -0.213717 0.193995 0.168531 0.064159 -0.018506 -0.045074 0.123670 -0.022186 0.232320 -0.145465 -0.116476 -0.114434 -0.003612 0.054454 -0.144544 -0.045840 0.036061 0.149258 -0.190835 0.022675 -0.225734 0.060747 0.081313 0.029715 -0.116847 -0.053426 0.141258 0.040501 0.112827 0.401358 0.087656 0.046426 -0.085326 0.272874 0.057451 -0.002613 -0.059420 0.318285 0.102449 0.051203 0.345828 0.102247 -0.083842 0.055208 0.012929 -0.076602 -0.067280 0.095223 0.046712 0.223286 0.133123 -0.088684 0.340450 0.128107 0.174939 0.037244 -0.273898 0.058670 -0.086077 0.243678 -0.005878 0.160826 -0.061477 0.053325 0.116562 0.093256 -0.197115 -0.155162 0.001276 -0.047552 0.124313 -0.289339 0.050729 -0.296619 -0.097222 0.162981 -0.121138 0.168315 -0.061858
involved 0.264415 -0.105261 0.252335 0.222411 -0.130129 0.119084 -0.228874 -0.285176 -0.271885 -0.149787 0.113369 -0.280690 0.022032 -0.275817 -0.353686 0.241477 0.070652 -0.232654 0.118338 -0.026120 0.420865 0.114659 0.181752 0.199916 -0.493660 0.207507 0.043550 -0.122840 -0.218018 -0.409207 0.103597 0.026476 -0.454129 -0.317795 -0.143140 0.302967 0.244264 -0.258933 -0.259711 -0.218892 -0.168478 -0.064485 0.023320 -0.183477 -0.330877 -0.033098 0.206927 -0.044423 0.081605 0.018045 0.515925 -0.158972 -0.070755 -0.039761 0.524840 -0.269100 -0.052476 -0.011237 -0.306469 0.117464 0.523953 0.271888 -0.172821 -0.029099 0.126546 0.381063 0.241647 0.411694 -0.112015 0.191826 0.015794 0.386444 -0.043912 -0.086750 -0.065526 0.109657 0.332529 -0.013026 -0.403117 0.125547 0.485350 -0.142141 -0.443921 0.183205 -0.051692 0.320885 0.242561 -0.119169 0.338484 -0.166617 -0.056900 -0.198767 -0.094990 -0.123971 -0.341060 -0.469051 0.299309 -0.017301 0.375253 -0.389635
showed 0.176151 0.099955 -0.179517 -0.068807 -0.103219 -0.550111 -0.146076 -0.064134 0.109991 -0.174837 0.238008 0.038158 -0.369946 -0.120808 0.000745 -0.032306 0.490359 -0.015983 0.103087 0.104340 0.028868 0.680507 -0.237072 -0.004467 -0.390150 0.057201 0.163751 -0.195998 -0.179635 -0.415010 -0.270927 -0.200409 -0.503480 -0.092938 -0.214040 -0.043463 0.098331 0.075090 -0.424927 -0.231185 0.217851 0.161933 0.046725 -0.400138 0.122197 -0.040557 0.275242 -0.311230 -0.076379 0.406252 -0.331860 0.078060 -0.024028 -0.675068 -0.192967 -0.026014 -0.133905 0.033924 -0.319967 0.020169 -0.048370 -0.161746 -0.530801 0.631253 0.242060 -0.087266 -0.306172 0.105418 -0.334294 -0.156174 -0.264197 0.226674 0.330912 0.193573 0.121197 -0.046333 -0.133098 0.229943 0.287541 0.315455 -0.421263 0.120670 -0.239333 0.462738 0.095879 -0.135600 -0.109413 0.151261 0.233385 -0.020514 0.069024 0.036635 0.334199 -0.101840 0.128670 -0.111326 0.057509 0.036063 -0.161246 0.355920
their -0.015715 0.001597 -0.012552 -0.149455 -0.085122 -0.062962 0.249803 0.108114 -0.136881 0.068378 -0.036454 -0.043873 -0.024521 0.060260 -0.110194 0.029812 0.000825 0.041406 -0.040285 -0.106883 0.079024 -0.189698 0.061030 -0.161826 0.170385 -0.122716 -0.044418 -0.027709 -0.091062 0.016821 0.022926 0.004535 0.315933 -0.008614 0.140170 0.068152 -0.092588 0.053767 -0.028076 0.031927 -0.007232 -0.004374 -0.007148 0.135322 0.012039 -0.125723 -0.039229 -0.068890 0.099313 0.033335 0.050867 -0.028046 0.028341 0.168809 -0.015042 0.082325 -0.085887 0.071243 0.123187 0.099047 -0.195643 0.033718 0.057360 0.105251 -0.061465 0.042667 -0.106713 -0.002998 0.174253 -0.130038 -0.008732 0.117859 -0.040787 -0.127760 -0.060737 -0.291519 -0.036876 -0.123512 0.061488 -0.042937 -0.000377 0.286738 0.073644 0.094946 0.121212 -0.072522 -0.030324 -0.026022 -0.042126 -0.025883 0.049920 0.024793 0.072732 0.049239 0.019756 -0.007543 -0.010584 -0.059908 0.005148 0.073639
differentiation -0.050378 0.022481 0.083571 0.117556 -0.104039 0.079996 -0.101755 0.040953 0.150022 0.189841 0.019323 0.128707 0.230506 -0.071822 0.090909 -0.152613 -0.222702 -0.162018 0.031054 0.150943 -0.007584 -0.033562 -0.042982 0.091493 -0.048446 -0.157372 -0.280387 0.146651 0.096386 0.103724 -0.155877 0.074041 0.059939 0.232373 0.010827 -0.062588 0.033921 -0.153719 0.281493 -0.136475 0.093287 0.220536 0.079922 -0.084297 -0.116454 -0.022707 -0.097652 0.036699 -0.145396 0.050642 0.269731 -0.008976 0.047618 0.215373 -0.203865 -0.129509 -0.010306 -0.089967 0.103671 0.014507 -0.001454 -0.135920 0.366703 -0.161516 0.074657 0.155704 -0.040772 -0.092939 0.175013 0.162577 -0.023555 -0.287674 -0.225378 0.240335 0.086306 0.132472 -0.032672 0.073003 -0.043656 0.131343 0.136119 -0.076241 0.230077 -0.235341 -0.045370 -0.062966 -0.025255 -0.195291 -0.183203 -0.068576 0.045679 -0.159842 -0.256134 0.002367 0.121162 0.170996 0.176753 0.198830 -0.008817 -0.242978
manner 0.051898 -0.073665 0.130652 0.049144 0.030604 0.028633 -0.122638 0.258324 0.091291 -0.028839 -0.006714 0.143157 0.093509 -0.026388 0.154884 0.104352 0.049598 -0.098261 0.148181 0.388388 -0.160593 0.048087 -0.087247 0.199634 -0.146659 -0.001358 -0.073682 0.198570 0.202648 0.033084 -0.023046 0.406763 -0.320818 0.200766 -0.249787 -0.156888 -0.155196 -0.098740 0.162402 -0.283908 -0.237537 0.152827 -0.081917 -0.141371 -0.306502 -0.011064 -0.070078 -0.004780 -0.123807 0.136095 0.079393 -0.038112 0.062783 0.165495 -0.032215 -0.209797 0.110519 0.026517 -0.146289 -0.208693 0.078132 0.030164 0.135576 -0.074110 -0.009603 -0.083874 0.273640 -0.043133 -0.170678 0.302723 0.017418 -0.260945 -0.029575 -0.004270 0.077537 0.360618 0.193830 0.418949 -0.295899 0.122221 0.176767 -0.509652 -0.066868 -0.502771 -0.019664 0.135483 0.173544 0.031885 -0.119996 -0.018386 -0.128512 -0.004410 -0.377477 0.076734 0.251000 0.271773 0.093062 0.238745 -0.130665 -0.129016
results 0.379263 0.324281 -0.060510 -0.008916 -0.196569 -0.551129 -0.433617 -0.064757 0.123542 -0.120458 0.222006 -0.164934 -0.482436 -0.149462 0.154496 0.569677 0.515010 -0.204411 0.189377 0.277789 0.060603 0.788049 -0.152670 -0.038557 -0.280447 0.024346 -0.055069 0.075550 0.254797 -0.419392 -0.159291 -0.148987 -0.426067 -0.213129 -0.385628 0.053732 0.159351 -0.098874 -0.275643 -0.400502 0.235738 0.046343 0.006794 -0.650348 -0.178611 -0.116269 0.359234 -0.402659 -0.274677 0.561972 -0.244518 0.193919 -0.127069 -0.467245 -0.209504 -0.169855 -0.227643 -0.039619 -0.414120 -0.090379 0.046574 -0.280270 -0.513272 0.873253 0.459977 0.103601 -0.064789 0.151307 -0.277507 -0.073695 -0.418735 0.152902 0.541487 0.310048 0.293171 -0.164339 -0.019225 0.387724 0.154578 0.587373 -0.204188 -0.298179 -0.208244 0.337461 -0.058876 -0.060748 -0.185104 0.281046 0.138475 -0.174839 -0.269749 -0.152078 0.572680 0.309135 0.129660 -0.150689 0.145982 0.018654 -0.099291 0.234876
between -0.124076 0.118334 -0.277513 -0.107424 -0.135677 0.070862 0.136472 0.041315 -0.021877 -0.038590 -0.102368 0.012159 0.142799 -0.095889 -0.057004 -0.235707 -0.000361 0.180065 -0.006108 -0.060138 -0.122083 -0.055028 -0.092348 -0.096243 -0.127594 -0.074784 0.178171 -0.043864 -0.170002 0.024013 -0.073541 -0.089536 0.180051 0.051188 0.168160 -0.050112 -0.069424 0.007549 -0.000824 -0.042633 0.062860 -0.004567 -0.014750 0.257703 -0.041699 -0.020742 -0.083829 0.072422 0.097911 -0.148985 -0.050765 -0.057036 0.070618 -0.047041 -0.124616 0.064381 -0.049514 0.053329 0.063425 0.076683 -0.105998 0.021542 0.021716 -0.007315 -0.190685 -0.085930 -0.300444 -0.094145 0.026069 -0.005481 0.108442 -0.040083 -0.198953 0.037384 -0.111394 -0.155081 -0.111127 -0.079064 0.245978 -0.089864 0.023314 0.178833 0.182254 -0.026573 0.249595 -0.125974 -0.063453 0.026249 -0.063636 0.048543 0.148628 0.022790 -0.083991 -0.014922 0.003277 0.018147 0.045670 -0.138132 -0.098608 0.119197
fold -0.212838 0.464420 -0.374554 -0.174829 0.043576 0.067818 0.191608 0.169643 0.121480 -0.338448 -0.062315 0.039494 0.120880 -0.094631 0.473342 -0.219487 -0.279703 0.361379 -0.144131 -0.203567 -0.393003 -0.146064 -0.086455 -0.036316 -0.053916 -0.289168 0.149474 0.001639 0.018730 0.079072 -0.219234 0.048154 0.305816 0.310901 0.274840 -0.266770 -0.126021 0.120920 0.240632 0.018842 -0.046899 0.394010 0.101452 0.436997 0.040603 0.245115 -0.281232 0.207856 -0.137461 -0.301798 -0.478469 0.070773 -0.247265 -0.300412 -0.120050 0.139788 -0.015187 0.087851 0.306955 -0.224492 0.086048 -0.026780 -0.002097 -0.110734 0.110477 -0.386497 -0.441261 -0.464388 -0.184336 -0.078430 -0.036729 -0.424796 0.154198 0.076088 -0.078820 -0.287754 -0.195605 0.157563 0.238562 -0.293014 -0.263299 -0.289906 0.178103 -0.543083 0.082859 -0.282089 0.082451 0.005020 -0.229531 0.218389 0.118894 0.410597 0.165677 0.090519 0.070412 -0.001050 -0.154435 -0.422535 -0.151367 0.119781
mechanism -0.009662 -0.311625 0.006726 0.222093 0.355759 0.048779 0.056697 0.069104 -0.047189 0.040491 -0.115368 -0.007476 0.012159 0.091236 0.061798 -0.043834 -0.156091 -0.191992 -0.015889 -0.006893 0.286392 -0.019908 0.091036 0.187416 0.152363 0.027824 -0.026861 0.057082 -0.044454 0.012586 -0.063013 -0.111158 -0.158626 -0.103284 -0.115967 -0.280235 0.207637 0.038405 0.054862 0.081740 0.172990 -0.085466 0.099351 0.148874 0.131037 0.036338 0.114926 0.086162 -0.020888 0.282480 0.136717 -0.049590 -0.065649 -0.037958 0.346055 0.049425 0.185178 -0.080679 0.196712 -0.107264 0.057527 0.278746 -0.080026 -0.183282 -0.017533 0.015413 0.103317 -0.056461 0.159936 -0.046996 0.008822 0.311084 -0.072235 0.158849 -0.112732 0.337149 0.203380 -0.194678 -0.070358 -0.260853 0.179865 0.035389 0.035392 0.034342 -0.148785 0.174085 0.144677 -0.228832 -0.081643 0.029510 0.021784 0.084460 -0.286984 -0.217356 -0.307423 -0.029862 -0.085363 -0.066284 0.185674 -0.217293
decreased -0.128427 -0.068490 -0.020627 0.223616 -0.037036 -0.104685 -0.010805 0.025901 0.127671 0.190107 0.049394 0.139838 0.106334 -0.099771 -0.031630 -0.255508 -0.093467 -0.026900 0.113868 0.076778 0.075538 0.058916 -0.092385 0.209563 -0.115058 0.047244 0.074003 0.032575 -0.050972 0.186421 -0.203754 -0.092629 -0.203391 0.161565 0.018289 -0.229034 0.085735 0.063695 0.073116 -0.087573 0.160452 -0.135389 0.171744 -0.032702 0.043970 0.009228 -0.104784 0.080859 0.122550 0.106965 0.320003 0.090792 0.061109 -0.166552 0.007845 0.013868 0.046842 -0.012179 0.166991 -0.000763 -0.080324 0.038007 0.073333 -0.028912 -0.045689 -0.083777 -0.146453 -0.117546 0.042691 0.041233 -0.025586 0.099319 -0.115985 0.361398 0.043119 0.180289 -0.073818 -0.189102 0.189624 -0.070582 0.076383 -0.041765 0.117105 0.130935 0.012825 0.012002 -0.040768 -0.127573 -0.046322 0.018884 0.114412 -0.180496 -0.295457 -0.166466 -0.088320 -0.030471 0.111841 0.048649 0.029704 0.009173
similar -0.139115 0.059506 0.151185 -0.139711 -0.014219 0.651864 0.157321 -0.541519 -0.113644 0.043028 -0.225545 -0.292192 0.267643 -0.007684 -0.223954 -0.305815 -0.358622 0.174380 -0.156310 -0.452479 -0.080257 -0.409728 -0.165962 -0.261801 0.212252 -0.140565 -0.160747 -0.309787 -0.261625 0.090869 0.280975 -0.032563 0.596833 0.018077 0.410087 0.558850 -0.245283 -0.108959 0.096481 0.480062 0.086743 -0.053943 0.053582 0.106706 -0.078770 0.257306 0.207966 -0.049585 0.407711 -0.706533 0.192507 -0.106507 -0.121935 0.569641 -0.061056 -0.162489 -0.061182 -0.070150 -0.054296 0.332119 -0.071555 -0.229904 0.162170 -0.357613 -0.314253 0.549575 -0.119446 0.468482 0.205773 -0.104167 0.187126 -0.321486 -0.038243 -0.342227 -0.184703 -0.436179 -0.073722 -0.458662 0.088605 0.054015 0.035722 0.186613 0.065607 0.033016 0.023846 -0.010927 -0.112366 -0.121564 -0.158039 -0.200276 0.198182 -0.252584 0.134976 -0.019856 0.044445 -0.081739 -0.072188 0.113838 0.348825 0.064237
proteins -0.037849 0.096328 -0.047177 0.006869 -0.074663 0.038159 -0.097443 -0.129022 -0.115739 -0.102238 0.057778 -0.063506 -0.014788 -0.099688 -0.075255 -0.177897 0.096688 -0.115232 -0.043199 -0.033602 0.019657 0.120904 -0.190202 -0.000513 -0.207637 0.046536 -0.040384 -0.145783 -0.129077 -0.184743 0.064304 0.079734 -0.053754 0.003606 -0.028493 0.023018 0.162697 -0.100915 -0.081334 -0.138983 0.063859 0.141952 0.097453 -0.098701 -0.174056 0.047025 0.076958 -0.055113 0.196461 0.039360 0.151087 -0.152077 -0.108776 0.033467 -0.034078 -0.129065 -0.042546 0.055745 -0.238515 -0.015070 0.006675 -0.190096 0.014363 -0.064904 -0.017865 0.256023 -0.037029 0.075120 -0.002225 0.098464 -0.139451 0.021793 0.003667 -0.088489 -0.092944 -0.155522 0.031299 0.029078 -0.045671 0.100844 0.022026 0.063210 -0.060364 0.158609 0.072386 0.012976 -0.014237 -0.007006 0.079863 -0.172723 0.146243 -0.150532 -0.055314 -0.144605 0.136368 0.016387 0.040138 0.136307 0.023559 -0.168022
complex -0.063316 -0.112469 0.044527 0.130821 0.069524 -0.131613 0.204379 0.001756 0.007371 0.112703 0.003503 0.006369 0.018388 0.014651 -0.175500 -0.095982 -0.079910 -0.014000 0.092597 -0.072907 0.218012 -0.008796 0.088133 0.103455 0.035319 0.024929 0.086500 0.028710 -0.126756 0.186057 -0.106705 -0.216976 -0.074506 -0.081296 0.158572 -0.170259 0.000541 0.114337 -0.032511 0.030030 0.150222 -0.192799 0.132549 0.091724 0.135469 0.018484 0.020076 -0.029623 0.113820 0.022978 0.186155 0.082057 0.039730 -0.130686 0.266832 0.087077 -0.028936 0.031895 0.179891 0.109776 -0.054371 0.227555 -0.094412 0.040921 -0.006960 -0.030548 -0.151132 -0.088847 0.081468 -0.122614 0.064812 0.293580 0.028236 0.211406 -0.000122 -0.036776 -0.024494 -0.178812 0.196198 -0.125449 0.091551 0.050774 0.012541 0.081935 0.003592 -0.007733 -0.002366 -0.159908 -0.037565 0.049704 0.003069 -0.014672 -0.086002 -0.077800 -0.225900 -0.117356 0.053096 -0.157686 0.068450 0.113998
required 0.118857 -0.126593 -0.043791 0.308581 0.235528 0.154291 -0.055314 -0.122382 -0.372517 -0.109424 -0.029558 -0.078125 0.015747 -0.221616 -0.134103 0.036455 0.186949 -0.140724 -0.017798 -0.110041 0.470435 -0.126961 0.008198 0.202942 -0.275532 0.053783 0.133333 -0.100056 -0.170435 -0.340291 0.102573 0.201121 -0.418981 -0.389181 -0.163623 -0.054537 0.288786 -0.162658 -0.184354 -0.359730 -0.137625 -0.150590 0.152947 0.187351 -0.212358 -0.059053 0.130421 -0.017910 0.302379 0.198581 0.394773 -0.193954 -0.177520 -0.112305 0.562707 -0.075781 -0.066542 0.136891 -0.242643 -0.001461 0.450649 0.401472 -0.064075 -0.292327 -0.009836 0.425922 0.123384 0.119893 -0.026937 0.062594 0.000084 0.535969 0.006665 0.004814 -0.128966 -0.041064 0.372498 0.006657 -0.193293 -0.134959 0.360701 0.121546 -0.060834 0.228343 0.188365 0.451220 0.149191 -0.069018 0.178103 -0.203594 0.033742 0.084290 -0.292619 -0.301523 -0.286068 -0.324969 0.034646 -0.050885 0.308487 -0.504886
activates -0.009126 -0.155414 -0.095095 0.269796 0.016676 -0.254197 0.111740 0.080184 0.046052 0.221250 0.057433 0.164595 -0.013262 -0.093790 -0.159808 -0.102553 0.054449 -0.033293 0.180852 0.121641 0.309648 0.154770 0.003934 0.286543 -0.179855 0.126409 0.294071 0.112499 -0.130662 0.174712 -0.195491 -0.195019 -0.424366 -0.089027 0.005305 -0.362503 0.075296 0.151175 -0.100503 -0.154104 0.157222 -0.277652 0.102598 0.005113 0.221773 -0.056813 0.029665 -0.074973 0.055083 0.267635 0.117765 0.057499 0.138892 -0.381995 0.230120 0.156532 0.024291 0.027246 0.146924 0.114094 0.026322 0.218732 -0.180525 0.189554 -0.055485 -0.195784 -0.166575 -0.068285 -0.000300 0.031440 0.002614 0.334303 -0.029629 0.415530 0.042958 0.138734 0.038429 -0.149047 0.266351 -0.142051 0.051976 0.117086 0.017345 0.175363 0.064466 0.055419 -0.012306 -0.058138 -0.049398 -0.023345 0.020943 -0.027082 -0.266177 -0.247686 -0.217686 -0.174943 0.153949 -0.067183 -0.000857 0.148861
